svm_type c_svc
kernel_type polynomial
degree 3
gamma 1
coef0 1
nr_class 2
total_sv 281
rho 2.0455225069709799
label 0 1
nr_sv 178 103
SV
0.60336431113850808 1:-0.03125 2:0.0181818 3:-0.047619 4:-0.140496 5:-0.225806 6:-0.0545455 7:-0.0315789 8:-0.1875 9:-0.375 10:0.0873786 11:0.0526316 12:-0.1875 15:-0.0652174 16:-0.220339 17:-0.28125 18:-0.0679612 19:-0.0361446 20:-0.203252 21:-0.138462 22:0.0873786 23:0.2 24:-0.072 25:0.3125 26:0.230769 27:0.0804598 28:-0.0833333 29:-0.169231 30:-0.128713 31:-0.284211 32:-0.234375 33:-0.28125 34:0.00970874 35:-0.0315789 36:-0.125 
0.21522553016425405 1:-0.03125 2:0.309091 3:0.285714 4:0.00826446 5:-0.129032 6:-0.0909091 7:-0.0105263 8:-0.21875 9:-0.28125 10:-0.242718 11:-0.157895 12:-0.21875 13:-0.129032 14:0.346154 15:0.326087 16:-0.0338983 17:-0.15625 18:0.106796 19:0.0843373 20:-0.138211 21:0.0769231 22:0.262136 23:0.222222 24:-0.024 25:0.125 26:0.519231 27:0.425287 29:0.138462 30:0.485149 31:0.284211 32:0.078125 33:0.25 34:0.631068 35:0.578947 36:0.140625 
0.0089633786372164907 1:-0.03125 2:0.454545 3:0.595238 4:0.107438 6:0.527273 7:0.431579 8:0.046875 9:-0.15625 10:0.398058 11:0.326316 12:0.046875 13:-0.0322581 14:0.403846 15:0.282609 17:-0.0625 18:0.417476 19:0.349398 20:0.00813008 21:-0.169231 22:0.495146 23:0.6 24:0.072 25:0.09375 26:0.557692 27:0.517241 28:0.0666667 29:0.107692 30:0.50495 31:0.452632 32:0.078125 33:-0.03125 34:0.398058 35:0.347368 36:0.078125 
0.046044470203431997 1:-0.0625 2:0.327273 3:0.452381 4:0.0413223 5:-0.258065 6:0.0181818 7:0.136842 8:-0.0625 9:-0.40625 10:0.00970874 11:-0.115789 12:-0.1875 13:0.129032 14:0.557692 15:0.543478 16:0.101695 17:-0.03125 18:0.398058 19:0.301205 20:-0.0243902 21:-0.138462 22:-0.0291262 23:0.0444444 24:-0.2 25:-0.0625 26:0.519231 27:0.402299 29:-0.138462 30:0.386139 31:0.347368 32:-0.046875 33:-0.15625 34:0.106796 35:0.0736842 36:-0.09375 
0.13822937809406158 1:-0.0625 2:0.436364 3:0.380952 4:0.00826446 5:-0.129032 6:0.272727 7:0.347368 8:-0.046875 9:-0.15625 10:0.106796 11:0.0736842 12:-0.09375 13:0.16129 14:0.615385 15:0.347826 16:0.0338983 17:0.125 18:0.533981 19:0.421687 20:-0.0243902 21:0.138462 22:0.456311 23:0.355556 24:0.104 25:0.125 26:0.634615 27:0.586207 28:0.0833333 29:0.261538 30:0.584158 31:0.515789 32:0.046875 33:0.125 34:0.553398 35:0.431579 36:0.046875 
0.73991597712207258 1:-0.125 2:0.163636 3:0.142857 4:-0.0909091 5:-0.0967742 6:0.163636 7:0.136842 8:-0.125 9:-0.125 10:0.165049 11:0.136842 12:-0.078125 13:0.129032 14:0.230769 15:0.217391 17:0.09375 18:0.320388 19:0.156627 20:-0.138211 21:-0.138462 22:0.0873786 23:0.0222222 24:-0.2 25:-0.1875 26:0.0769231 27:-0.0114943 28:-0.216667 29:-0.169231 30:0.188119 31:0.136842 32:-0.0625 33:-0.0625 34:0.339806 35:0.136842 36:-0.0625 
0.023265824692937954 1:-0.125 2:0.527273 3:0.642857 4:0.0743802 5:-0.0967742 6:0.363636 7:0.368421 8:0.015625 9:-0.375 10:0.203883 11:0.284211 12:0.015625 14:0.461538 15:0.5 16:0.0677966 17:-0.25 18:0.242718 19:0.156627 20:-0.0569106 21:-0.353846 22:0.242718 23:0.288889 24:-0.056 25:-0.15625 26:0.230769 27:0.172414 28:-0.0333333 29:-0.384615 30:-0.049505 31:0.0526316 32:-0.15625 33:-0.40625 34:0.165049 35:0.136842 36:-0.015625 
0.17214932905759742 1:-0.15625 2:0.163636 3:0.142857 4:-0.0247934 5:-0.387097 6:-0.127273 7:0.0526316 8:-0.15625 9:-0.40625 10:0.165049 11:0.136842 12:-0.015625 13:-0.0322581 14:0.403846 15:0.391304 16:0.0677966 17:-0.28125 18:0.0873786 19:0.156627 20:-0.105691 21:-0.384615 22:0.00970874 23:-0.0666667 24:-0.168 25:0.09375 26:0.557692 27:0.632184 28:0.0666667 29:-0.0153846 30:0.425743 31:0.263158 32:0.015625 33:-0.15625 34:-0.0291262 35:-0.0105263 36:-0.21875 
2.14992093520488 1:-0.15625 2:0.381818 3:0.380952 4:-0.0578512 5:-0.129032 6:0.309091 7:0.263158 8:-0.109375 9:-0.15625 10:0.320388 11:0.157895 12:-0.109375 13:-0.258065 14:0.346154 15:0.23913 16:-0.0847458 17:-0.28125 18:0.262136 19:0.301205 20:-0.138211 21:-0.138462 22:0.262136 23:0.333333 24:-0.024 25:-0.25 26:0.365385 27:0.333333 28:-0.116667 29:-0.230769 30:0.148515 31:0.284211 32:-0.09375 33:-0.125 34:0.203883 35:0.368421 36:0.015625 
0.00037526266933580831 1:-0.15625 2:0.545455 3:0.619048 4:0.0743802 5:-0.129032 6:0.472727 7:0.347368 8:0.015625 9:-0.15625 10:0.475728 11:0.452632 12:-0.046875 13:0.0967742 14:0.615385 15:0.326087 16:-0.0338983 17:-0.15625 18:0.533981 19:0.39759 20:-0.138211 21:-0.261538 22:0.456311 23:0.422222 24:-0.072 25:-0.125 26:0.365385 27:0.333333 28:-0.05 29:-0.107692 30:0.485149 31:0.284211 32:-0.03125 33:-0.25 34:0.378641 35:0.178947 36:-0.09375 
0.087328356056325565 1:-0.1875 2:0.563636 3:0.571429 4:0.107438 5:-0.387097 6:-0.0545455 7:0.410526 8:0.21875 9:-0.8125 10:-0.68932 11:0.305263 12:0.453125 14:0.634615 15:0.434783 16:0.101695 17:-0.15625 18:0.572816 19:0.39759 20:0.0406504 21:-0.476923 22:-0.165049 23:0.333333 24:0.104 25:-0.15625 26:0.519231 27:0.517241 28:0.05 29:-0.138462 30:0.663366 31:0.347368 32:0.0625 33:-0.375 34:0.184466 35:0.263158 36:0.0625 
2.8294601895104186 1:-0.25 2:0.0181818 3:0.142857 4:-0.0909091 5:-0.225806 6:-0.0545455 7:0.0526316 8:-0.125 9:-0.5 10:-0.145631 11:-0.0315789 12:-0.125 13:-0.258065 14:0.0769231 15:0.108696 16:-0.0847458 17:-0.28125 18:0.00970874 19:0.060241 20:-0.138211 21:-0.384615 22:-0.0679612 23:0.0222222 24:-0.072 25:-0.28125 26:0.0769231 27:0.172414 28:-0.15 29:-0.261538 30:0.108911 31:0.0526316 32:-0.125 33:-0.1875 34:0.0873786 35:0.0526316 36:-0.125 
0.12514730817417652 1:-0.25 2:0.0545455 3:-0.0952381 4:-0.173554 5:-0.225806 6:0.0545455 7:0.0105263 8:-0.15625 9:-0.125 10:0.203883 11:0.0947368 12:-0.09375 13:-0.354839 14:0.0769231 15:-0.0652174 16:-0.186441 17:-0.25 18:0.165049 19:0.156627 20:-0.170732 21:-0.107692 22:0.242718 23:0.2 24:-0.056 25:0.09375 26:0.307692 27:0.172414 28:-0.116667 29:-0.0153846 30:0.346535 31:0.136842 32:-0.09375 33:0.09375 34:0.242718 35:0.242105 36:-0.015625 
0.11168065426516247 1:-0.25 2:0.163636 3:0.142857 4:-0.0247934 5:-0.354839 6:0.163636 7:0.221053 8:-0.078125 9:-0.375 10:0.0873786 11:0.221053 12:-0.015625 13:-0.387097 14:-0.0769231 15:0.0217391 16:-0.152542 17:-0.40625 18:0.165049 19:0.156627 20:-0.0569106 21:-0.138462 22:0.398058 23:0.311111 24:0.008 25:-0.28125 26:0.0769231 27:0.172414 28:-0.0833333 29:-0.384615 30:0.029703 31:-0.115789 32:-0.1875 33:-0.28125 34:-0.0679612 35:0.136842 36:-0.125 
0.23477296732943886 1:-0.25 2:0.290909 3:0.309524 4:-0.0413223 5:-0.0967742 6:0.290909 7:0.284211 8:-0.03125 9:-0.125 10:0.456311 11:0.284211 12:-0.03125 13:-0.580645 14:-0.0769231 15:0.108696 17:-0.25 18:0.320388 19:0.253012 20:-0.121951 21:-0.230769 22:0.398058 23:0.4 24:-0.056 25:-0.75 26:-0.865385 27:0.37931 28:0.516667 29:-0.630769 30:-0.386139 31:0.326316 32:0.171875 33:-0.40625 34:0.165049 35:0.136842 36:-0.15625 
0.15525161812183041 1:-0.25 2:0.363636 3:0.404762 4:0.00826446 5:-0.0967742 6:0.436364 7:0.368421 8:0.015625 9:-0.125 10:0.456311 11:0.368421 12:0.015625 14:0.538462 15:0.5 16:0.0677966 17:-0.03125 18:0.475728 19:0.373494 20:-0.0569106 21:-0.0153846 22:0.475728 23:0.511111 24:0.008 25:-0.15625 26:0.538462 27:0.609195 28:0.0333333 29:-0.0153846 30:0.663366 31:0.536842 32:0.046875 33:-0.03125 34:0.475728 35:0.431579 36:0.046875 
0.38733977923290402 1:-0.25 2:0.545455 3:0.47619 4:0.0413223 5:-0.225806 6:0.454545 7:0.326316 8:0.046875 9:-0.03125 10:0.553398 11:0.431579 12:0.046875 14:0.538462 15:0.413043 16:0.0677966 17:-0.15625 18:0.553398 19:0.493976 20:0.00813008 21:0.230769 22:0.631068 23:0.511111 24:0.072 25:-0.28125 26:0.326923 27:0.356322 28:-0.0333333 29:-0.169231 30:0.445545 31:0.305263 32:-0.015625 33:-0.1875 34:0.339806 35:0.305263 36:-0.015625 
0.038049082606987396 1:-0.28125 2:-0.0181818 3:0.0714286 4:-0.123967 6:0.236364 7:0.452632 8:0.015625 9:-0.15625 10:0.184466 11:0.157895 12:-0.109375 13:0.225806 14:0.25 15:0.23913 16:0.0338983 17:0.1875 18:0.359223 19:0.39759 20:0.0243902 21:-0.0461538 22:0.262136 23:0.333333 24:-0.136 25:0.5 26:0.692308 27:0.793103 28:0.133333 29:0.507692 30:0.663366 31:0.473684 32:0.015625 33:0.125 34:0.203883 35:0.0947368 36:-0.265625 
0.029630793011242277 1:-0.28125 2:-0.0545455 3:-0.238095 4:-0.256198 5:-0.483871 6:-0.345455 7:-0.284211 8:-0.359375 9:-0.40625 10:-0.223301 11:-0.284211 12:-0.296875 13:-0.387097 14:-0.115385 15:-0.130435 16:-0.288136 17:-0.28125 18:-0.106796 19:-0.108434 20:-0.333333 21:-0.384615 22:0.0485437 23:-0.0444444 24:-0.2 25:-0.28125 26:0.25 27:0.195402 28:-0.116667 29:-0.261538 30:0.287129 31:0.157895 32:-0.09375 33:-0.375 34:0.262136 35:0.263158 36:-0.046875 
1.7589976929292086 1:-0.28125 2:0.0363636 3:-0.0238095 4:-0.173554 5:-0.258065 6:0.0363636 7:-0.0947368 8:-0.203125 9:-0.28125 10:0.00970874 11:-0.178947 12:-0.15625 13:-0.354839 14:-0.115385 15:-0.195652 16:-0.220339 17:-0.375 18:0.0485437 19:-0.0843373 20:-0.268293 21:-0.230769 22:0.0485437 23:0.0666667 24:-0.136 25:-0.125 26:0.0769231 27:-0.0114943 28:-0.216667 29:-0.230769 30:0.188119 31:0.136842 32:-0.125 33:-0.375 34:0.0873786 35:0.0526316 36:-0.125 
0.6708654124836505 1:-0.28125 2:0.0363636 3:-0.119048 4:-0.22314 5:-0.258065 6:-0.0545455 7:-0.178947 8:-0.15625 9:-0.15625 10:0.184466 11:0.157895 12:-0.09375 13:-0.354839 14:0.0384615 15:-0.108696 16:-0.220339 17:-0.25 18:0.0485437 19:0.0120482 20:-0.203252 21:-0.230769 22:0.126214 23:0.0666667 24:-0.136 25:-0.25 26:0.153846 27:0.172414 28:-0.15 29:-0.353846 30:0.108911 31:0.0526316 32:-0.125 33:-0.25 34:0.0873786 35:-0.0315789 36:-0.1875 
0.23736295826191078 1:-0.28125 2:0.163636 3:0.0714286 4:-0.123967 5:-0.387097 6:0.109091 7:0.0736842 8:-0.15625 9:-0.15625 10:0.106796 11:-0.0947368 12:-0.15625 13:-0.129032 14:0.25 15:0.0434783 16:-0.0338983 17:-0.375 18:0.106796 19:-0.0120482 20:-0.203252 21:-0.261538 22:-0.0679612 23:0.0444444 24:-0.184 25:-0.25 26:0.115385 27:0.126437 28:-0.183333 29:-0.353846 30:0.0693069 31:-0.157895 32:-0.265625 33:-0.375 34:0.0485437 35:-0.157895 36:-0.21875 
0.094369315812854113 1:-0.28125 2:0.254545 3:0.333333 4:-0.0743802 5:-0.258065 6:0.254545 7:0.305263 8:-0.0625 9:-0.1875 10:0.417476 11:0.305263 12:-0.0625 13:-0.258065 14:0.307692 15:0.130435 16:-0.0338983 17:-0.28125 18:0.398058 19:0.301205 20:-0.0894309 21:-0.261538 22:0.475728 23:0.533333 24:-0.024 25:-0.28125 27:0.0114943 28:-0.183333 29:-0.261538 30:0.207921 31:0.157895 32:-0.046875 33:-0.15625 34:0.359223 35:0.347368 36:-0.046875 
0.013415190039674649 1:-0.28125 2:0.454545 3:0.47619 4:-0.0247934 5:-0.258065 6:0.0909091 7:0.242105 8:0.046875 9:-0.65625 10:-0.650485 11:0.326316 12:0.5 13:-0.16129 14:0.576923 15:0.391304 16:0.135593 17:-0.1875 18:0.669903 19:0.590361 20:0.0731707 21:-0.384615 22:0.00970874 23:0.488889 24:0.248 25:-0.03125 26:0.634615 27:0.770115 28:0.116667 29:-0.0153846 30:0.683168 31:0.452632 32:0.078125 33:-0.15625 34:0.572816 35:0.347368 36:0.078125 
0.016425658771599655 1:-0.28125 2:0.472727 3:0.619048 4:0.0743802 5:-0.129032 6:0.381818 7:0.557895 8:0.015625 9:-0.15625 10:0.572816 11:0.557895 12:0.015625 13:-0.258065 14:0.442308 15:0.23913 16:0.0338983 17:-0.28125 18:0.533981 19:0.39759 20:-0.0894309 21:-0.261538 22:0.533981 23:0.422222 24:-0.024 25:-0.59375 26:-0.25 27:0.218391 28:-0.05 29:-0.353846 30:0.326733 31:0.284211 32:-0.09375 33:-0.25 34:0.378641 35:0.284211 36:-0.03125 
0.26102610431927792 1:-0.28125 2:0.472727 3:0.619048 4:0.0743802 5:-0.258065 6:0.472727 7:0.557895 8:0.078125 9:-0.15625 10:0.475728 11:0.557895 12:0.015625 13:-0.354839 14:0.25 15:0.23913 16:-0.152542 17:-0.28125 18:0.456311 19:0.301205 20:-0.0243902 21:-0.261538 22:0.533981 23:0.422222 24:-0.024 25:-0.6875 26:-0.326923 27:0.126437 28:0.0666667 29:-0.569231 30:-0.227723 31:0.178947 32:-0.03125 33:-0.375 34:0.300971 35:0.284211 36:-0.09375 
0.5405378248548397 1:-0.375 2:-0.0181818 3:-0.190476 4:-0.173554 5:-0.354839 6:-0.163636 7:-0.157895 8:-0.15625 9:-0.59375 10:-0.320388 11:-0.242105 12:-0.15625 13:-0.225806 14:0.0769231 15:0.108696 16:-0.0677966 17:-0.25 18:0.00970874 19:0.060241 20:-0.170732 21:-0.476923 22:-0.145631 23:0.0222222 24:-0.104 25:-0.28125 26:0.0769231 27:0.172414 28:-0.116667 29:-0.261538 30:0.029703 31:0.0526316 32:-0.09375 33:-0.40625 34:-0.0679612 35:-0.0315789 36:-0.09375 
0.27231875319494275 1:-0.375 2:-0.0909091 3:-0.190476 4:-0.239669 5:-0.225806 6:-0.0181818 7:-0.157895 8:-0.15625 9:-0.25 10:0.126214 11:-0.0736842 12:-0.15625 13:-0.225806 14:0.230769 15:0.0217391 16:-0.186441 17:-0.125 18:0.165049 19:-0.0361446 20:-0.235772 21:-0.353846 22:0.0873786 23:0.0222222 24:-0.168 25:-0.15625 26:0.230769 27:0.287356 28:-0.116667 29:0.107692 30:0.267327 31:0.242105 32:-0.015625 33:0.09375 34:0.320388 35:0.136842 36:-0.09375 
0.30601444451932613 1:-0.375 2:-0.2 3:-0.119048 4:-0.22314 5:-0.451613 6:-0.272727 7:-0.0947368 8:-0.15625 9:-0.59375 10:-0.359223 11:-0.0947368 12:-0.203125 13:-0.354839 14:0.0384615 15:-0.195652 16:-0.152542 17:-0.375 18:-0.106796 19:-0.180723 20:-0.203252 21:-0.569231 22:-0.320388 23:-0.2 24:-0.136 25:-0.25 26:0.0769231 27:0.172414 28:-0.1 29:-0.230769 30:0.029703 31:0.0526316 32:-0.125 33:-0.5 34:-0.145631 35:-0.0315789 36:-0.125 
0.045775551715644472 1:-0.375 2:-0.327273 3:0.047619 4:0.0909091 5:-0.580645 6:-0.563636 7:0.136842 8:0.328125 9:-0.6875 10:-0.825243 11:0.326316 12:0.546875 13:-0.129032 14:0.153846 15:0.0217391 16:-0.152542 17:-0.28125 18:0.00970874 19:0.060241 20:-0.138211 21:-0.384615 22:-0.203883 23:0.0222222 24:0.008 25:-0.0625 26:0.403846 27:0.356322 28:-0.0333333 29:-0.0461538 30:0.445545 31:0.221053 32:-0.0625 33:-0.1875 34:0.00970874 35:-0.0315789 36:-0.125 
1.5403917212395053 1:-0.375 2:0.0181818 3:0.047619 4:-0.206612 5:-0.354839 6:0.0181818 7:-0.0315789 8:-0.125 9:-0.25 10:0.165049 11:0.0526316 12:-0.078125 13:-0.129032 14:0.0769231 15:0.108696 16:-0.0847458 17:-0.40625 18:0.0873786 19:0.060241 20:-0.203252 21:-0.261538 22:0.165049 23:0.111111 24:-0.072 25:-0.28125 27:-0.0114943 28:-0.15 29:-0.169231 30:0.267327 31:0.136842 32:-0.015625 33:-0.1875 34:0.165049 35:0.221053 36:-0.0625 
0.22324166647494367 1:-0.375 2:0.0181818 3:0.238095 4:-0.0247934 5:-0.354839 6:-0.327273 7:0.0526316 8:0.09375 9:-0.59375 10:-0.533981 11:0.136842 12:0.328125 13:-0.129032 14:0.384615 15:0.217391 17:-0.15625 18:0.165049 19:0.060241 20:-0.203252 21:-0.261538 22:0.00970874 23:0.111111 24:-0.072 25:-0.28125 26:-0.0769231 27:0.172414 28:-0.15 29:-0.0461538 30:0.445545 31:0.305263 32:-0.015625 33:-0.0625 34:0.417476 35:0.221053 36:-0.0625 
0.53400122907601444 1:-0.40625 2:-0.0545455 3:-0.142857 4:-0.206612 5:-0.258065 6:-0.127273 7:0.136842 8:-0.125 9:-0.0625 10:0.417476 11:0.305263 12:-0.015625 13:-0.129032 14:-0.0384615 15:-0.0434783 16:-0.220339 17:-0.28125 18:-0.242718 19:-0.180723 20:-0.268293 21:-0.261538 22:0.0485437 23:0.133333 24:-0.088 25:-0.15625 26:0.0961538 27:0.103448 28:-0.116667 29:0.0769231 30:0.287129 31:0.157895 32:-0.046875 33:0.1875 34:0.262136 35:0.263158 36:0.015625 
0.546131905396402 1:-0.40625 2:-0.163636 3:-0.0238095 4:-0.239669 5:-0.387097 6:-0.163636 7:-0.0947368 8:-0.28125 9:-0.28125 10:-0.106796 11:-0.0947368 12:-0.28125 13:-0.354839 14:0.0961538 15:-0.0434783 16:-0.20339 17:-0.28125 18:0.262136 19:0.180723 20:-0.138211 21:-0.261538 22:0.262136 23:0.222222 24:-0.072 25:-0.25 26:0.365385 27:0.218391 28:-0.05 29:-0.230769 30:0.326733 31:0.284211 32:-0.03125 33:-0.375 34:0.300971 35:0.284211 36:-0.03125 
1.3622804954151542 1:-0.40625 2:-0.181818 3:-0.309524 4:-0.371901 5:-0.516129 6:-0.254545 7:-0.263158 8:-0.28125 9:-0.28125 10:0.00970874 11:-0.0315789 12:-0.15625 13:-0.258065 15:-0.23913 16:-0.237288 17:-0.5 18:-0.300971 19:-0.325301 20:-0.414634 21:-0.384615 22:-0.223301 23:-0.244444 24:-0.28 25:-0.40625 26:-0.115385 27:-0.0804598 28:-0.316667 29:-0.261538 30:-0.0891089 31:-0.0947368 32:-0.28125 33:-0.40625 34:0.0485437 35:-0.0947368 36:-0.21875 
0.21072061684008167 1:-0.46875 2:-0.0909091 3:-0.0952381 4:-0.239669 5:-0.354839 6:-0.0181818 7:0.0105263 8:-0.21875 9:-0.375 10:-0.106796 11:-0.157895 12:-0.21875 13:-0.354839 15:-0.173913 16:-0.186441 17:-0.25 18:0.165049 19:0.060241 20:-0.170732 21:-0.353846 22:0.0873786 23:0.0222222 24:-0.168 25:-0.28125 26:0.153846 27:0.0804598 28:-0.183333 29:-0.261538 30:0.346535 31:0.136842 32:-0.15625 33:-0.28125 34:0.320388 35:0.136842 36:-0.15625 
0.16927841291457035 1:-0.5 2:-0.0545455 3:-0.166667 4:-0.256198 5:-0.354839 6:-0.0545455 7:-0.0315789 8:-0.125 9:-0.25 10:0.242718 11:0.0526316 12:-0.1875 13:-0.387097 14:0.0769231 15:-0.0652174 16:-0.220339 17:-0.28125 18:0.242718 19:0.060241 20:-0.203252 21:-0.138462 22:0.242718 23:0.311111 24:-0.072 25:-0.5 27:-0.0114943 28:-0.216667 29:-0.384615 30:0.108911 31:-0.0315789 32:-0.1875 33:-0.28125 34:0.0873786 35:0.0526316 36:-0.125 
0.14155212038262455 1:-0.5 2:0.163636 3:0.142857 4:-0.0909091 5:-0.483871 6:0.236364 7:0.221053 8:-0.015625 9:-0.5 10:0.165049 11:0.221053 12:-0.125 13:-0.258065 14:0.307692 15:0.217391 16:-0.0847458 17:-0.40625 18:0.320388 19:0.373494 20:-0.0569106 21:-0.261538 22:0.320388 23:0.311111 24:-0.072 25:-0.28125 26:0.230769 27:0.356322 28:-0.0833333 29:-0.261538 30:0.366337 31:0.305263 32:-0.0625 33:-0.28125 34:0.417476 35:0.515789 36:-0.015625 
0.18882633612015506 1:-0.59375 2:-0.163636 3:-0.190476 4:-0.289256 5:-0.451613 6:-0.0909091 7:-0.0736842 8:-0.21875 9:-0.375 10:0.0485437 11:0.0105263 12:-0.21875 13:-0.483871 14:-0.0769231 15:-0.0652174 16:-0.305085 17:-0.375 18:0.00970874 19:-0.156627 20:-0.235772 21:-0.230769 22:0.165049 23:0.111111 24:-0.104 25:-0.40625 27:-0.0804598 28:-0.25 29:-0.261538 30:0.188119 31:0.0526316 32:-0.15625 33:-0.28125 34:0.320388 35:0.136842 36:-0.15625 
0.15132669537444052 1:-0.59375 2:-0.163636 3:-0.190476 4:-0.289256 5:-0.580645 6:-0.163636 7:-0.157895 8:-0.21875 9:-0.46875 10:-0.106796 11:-0.157895 12:-0.265625 13:-0.354839 14:0.0769231 15:0.0217391 16:-0.237288 17:-0.59375 18:-0.0679612 19:-0.253012 20:-0.349593 21:-0.476923 22:0.00970874 23:0.0222222 24:-0.216 25:-0.28125 26:0.153846 27:-0.0114943 28:-0.183333 29:-0.384615 30:0.108911 31:-0.178947 32:-0.21875 33:-0.40625 34:0.320388 35:0.242105 36:-0.09375 
0.075670327085119865 1:-0.625 2:-0.2 3:-0.333333 4:-0.322314 5:-0.483871 6:-0.0545455 7:-0.0315789 8:-0.296875 9:-0.5 10:0.0873786 11:0.136842 12:-0.125 13:-0.483871 14:-0.173077 15:-0.369565 16:-0.338983 17:-0.5 18:0.106796 19:-0.0120482 20:-0.268293 21:-0.384615 22:0.242718 23:0.133333 24:-0.088 25:-0.59375 26:-0.0769231 27:-0.172414 28:-0.3 29:-0.569231 30:0.029703 31:-0.0947368 32:-0.3125 33:-0.59375 34:0.00970874 35:-0.0947368 36:-0.3125 
0.23387979262045255 1:-0.625 2:-0.2 3:-0.428571 4:-0.38843 5:-0.612903 6:-0.2 7:-0.284211 8:-0.359375 9:-0.5 10:-0.0679612 11:-0.115789 12:-0.296875 13:-0.612903 14:-0.173077 15:-0.282609 16:-0.338983 17:-0.5 18:-0.106796 19:-0.277108 20:-0.333333 21:-0.384615 22:-0.0291262 23:-0.111111 24:-0.2 25:-0.59375 26:-0.0769231 27:-0.0804598 28:-0.35 29:-0.569231 30:-0.128713 31:-0.263158 32:-0.375 33:-0.59375 34:-0.0679612 35:-0.0947368 36:-0.265625 
0.14415357881837415 1:-0.625 2:-0.218182 3:-0.380952 4:-0.305785 5:-0.709677 6:-0.290909 7:-0.242105 8:-0.28125 9:-0.625 10:-0.242718 11:-0.242105 12:-0.328125 13:-0.580645 14:-0.153846 15:-0.217391 16:-0.322034 17:-0.6875 18:-0.145631 19:-0.204819 20:-0.365854 21:-0.661538 22:-0.145631 23:-0.222222 24:-0.296 25:-0.59375 26:0.0384615 27:0.0344828 28:-0.25 29:-0.569231 30:-0.00990099 31:-0.0736842 32:-0.265625 33:-0.59375 34:-0.106796 35:0.0105263 36:-0.265625 
0.25503533767825076 1:-0.625 2:-0.272727 3:-0.333333 4:-0.256198 5:-0.612903 6:-0.2 7:-0.284211 8:-0.234375 9:-0.5 10:-0.0679612 11:-0.115789 12:-0.296875 13:-0.612903 14:-0.173077 15:-0.195652 16:-0.288136 17:-0.625 18:-0.106796 19:-0.180723 20:-0.333333 21:-0.476923 22:0.106796 23:0.0444444 24:-0.2 25:-0.6875 26:-0.153846 27:-0.172414 28:-0.3 29:-0.661538 30:-0.049505 31:-0.178947 32:-0.203125 33:-0.59375 34:0.106796 35:-0.0105263 36:-0.203125 
0.68702853485605808 1:-0.6875 2:-0.290909 3:-0.285714 4:-0.289256 5:-0.580645 6:-0.290909 7:-0.326316 8:-0.265625 9:-0.375 10:-0.106796 11:-0.242105 12:-0.265625 13:-0.580645 14:-0.346154 15:-0.434783 16:-0.423729 17:-0.5 18:-0.203883 19:-0.349398 20:-0.349593 21:-0.230769 22:0.0873786 23:0.111111 24:-0.104 25:-0.65625 26:-0.346154 27:-0.448276 28:-0.383333 29:-0.630769 30:-0.188119 31:-0.347368 32:-0.34375 33:-0.40625 34:-0.126214 35:-0.263158 36:-0.28125 
0.78344298180311489 1:0.09375 2:0.236364 3:0.142857 4:-0.107438 6:0.236364 7:0.136842 8:-0.09375 9:0.09375 10:0.242718 11:0.242105 12:-0.015625 13:-0.16129 14:0.153846 15:0.0217391 16:-0.118644 17:-0.1875 18:0.0873786 19:0.060241 20:-0.235772 21:-0.169231 22:0.0873786 23:0.0222222 24:-0.168 25:-0.40625 26:0.173077 27:0.103448 28:-0.183333 29:-0.138462 30:0.128713 31:-0.0947368 32:-0.15625 33:-0.15625 34:0.106796 35:-0.0105263 36:-0.15625 
0.05837798211003118 1:0.125 2:0.527273 3:0.404762 4:0.00826446 5:0.16129 6:0.436364 7:0.368421 8:0.015625 9:0.125 10:0.456311 11:0.284211 12:0.078125 13:0.16129 14:0.634615 15:0.5 16:0.118644 17:0.25 18:0.553398 19:0.590361 20:0.00813008 21:0.138462 22:0.553398 23:0.511111 24:0.072 25:0.375 26:0.615385 27:0.609195 28:0.1 29:0.384615 30:0.50495 31:0.431579 32:0.046875 33:-0.03125 34:0.00970874 35:0.242105 36:-0.015625 
0.0029983403686871376 1:0.1875 2:0.181818 3:0.285714 4:0.00826446 5:0.225806 6:0.272727 7:0.347368 8:0.0625 9:-0.0625 10:0.262136 11:0.263158 12:-0.15625 13:0.548387 14:0.692308 15:0.695652 16:0.169492 17:0.5 18:0.631068 19:0.542169 20:-0.0243902 21:0.138462 22:0.203883 23:0.155556 24:-0.248 25:0.625 26:0.711538 27:0.83908 28:0.15 29:0.384615 30:0.683168 31:0.515789 32:0.046875 33:-0.03125 34:0.0873786 35:-0.0315789 36:-0.125 
0.21439131241016726 1:0.3125 2:0.690909 3:0.619048 4:0.123967 5:-0.0322581 6:0.527273 7:0.452632 8:0.015625 9:-0.15625 10:0.533981 11:0.347368 12:-0.046875 13:0.16129 14:0.615385 15:0.347826 16:0.0338983 17:-0.125 18:0.533981 19:0.421687 20:-0.0731707 21:-0.107692 22:0.456311 23:0.444444 24:-0.008 25:-0.03125 26:0.307692 27:0.264368 28:-0.1 29:-0.0153846 30:0.50495 31:0.326316 32:-0.015625 33:-0.125 34:0.553398 35:0.431579 36:-0.015625 
0.15699969918119955 1:0.375 2:0.545455 3:0.571429 4:0.0413223 6:0.0181818 7:-0.0315789 8:-0.125 9:-0.25 10:0.00970874 11:-0.0315789 12:-0.1875 13:0.419355 14:0.461538 15:0.413043 17:-0.03125 18:0.00970874 19:-0.0361446 20:-0.268293 21:-0.261538 22:-0.0679612 23:0.0222222 24:-0.136 25:0.1875 26:0.326923 27:0.356322 28:0.0333333 29:0.323077 30:0.267327 31:0.0526316 32:-0.0625 33:-0.1875 34:-0.145631 35:-0.284211 36:-0.234375 
0.12745388106299255 1:0.625 2:0.618182 3:0.833333 4:0.157025 5:0.419355 6:0.545455 7:0.515789 8:0.046875 9:-0.03125 10:0.0873786 11:-0.0315789 12:-0.125 13:0.419355 14:0.615385 15:0.630435 16:0.135593 17:0.375 18:0.475728 19:0.493976 20:-0.0569106 21:-0.0153846 22:0.00970874 23:0.0222222 24:-0.2 25:0.0625 26:0.0769231 27:0.172414 28:-0.0333333 29:0.2 30:0.366337 31:0.305263 32:0.046875 33:0.3125 34:0.242718 35:0.0526316 36:-0.0625 
0.15715912959306144 2:0.436364 3:0.404762 4:0.00826446 5:-0.0967742 6:0.436364 7:0.473684 8:0.015625 10:0.631068 11:0.473684 12:0.015625 13:-0.0967742 14:0.538462 15:0.5 16:0.0677966 17:-0.125 18:0.475728 19:0.493976 20:-0.0569106 21:-0.230769 22:0.475728 23:0.6 24:0.008 25:-0.03125 26:0.384615 27:0.37931 28:-0.0333333 29:-0.0153846 30:0.425743 31:0.431579 32:0.046875 33:-0.15625 34:0.475728 35:0.431579 36:0.046875 
1.5274290641608765 1:-0.25 2:-0.236364 4:-0.107438 5:-0.0967742 6:-0.0909091 7:-0.157895 8:-0.21875 9:-0.25 10:-0.106796 11:0.0105263 12:-0.15625 13:-0.0967742 15:0.0217391 16:-0.186441 17:-0.125 18:-0.0679612 19:-0.0361446 20:-0.284553 21:-0.230769 22:-0.0679612 23:-0.177778 24:-0.216 25:-0.28125 26:-0.211538 27:-0.172414 28:-0.383333 29:-0.138462 30:-0.049505 31:-0.431579 32:-0.484375 33:-0.15625 34:-0.126214 35:-0.431579 36:-0.546875 
0.12909586136424961 1:-0.375 2:-0.418182 4:-0.0413223 5:-0.225806 6:-0.236364 7:0.0105263 8:-0.09375 9:-0.125 10:-0.0291262 11:-0.157895 12:-0.21875 14:0.0769231 15:0.0217391 16:-0.237288 17:-0.125 18:0.00970874 19:0.060241 20:-0.235772 21:-0.107692 22:-0.0679612 23:0.0222222 24:-0.216 25:-0.03125 27:-0.0804598 28:-0.383333 29:-0.261538 30:-0.188119 31:-0.178947 32:-0.34375 33:-0.15625 34:-0.0679612 35:-0.431579 36:-0.484375 
0.023269524745647755 1:-0.40625 2:-0.345455 3:-0.547619 4:-0.487603 5:-0.258065 6:-0.345455 7:-0.536842 8:-0.5625 9:-0.28125 10:-0.300971 11:-0.621053 12:-0.625 13:-0.870968 14:-0.807692 15:0.0434783 16:0.271186 17:-0.59375 18:-0.495146 19:-0.301205 20:-0.317073 21:-0.353846 22:-0.359223 23:-0.466667 24:-0.584 25:-0.875 26:-0.923077 27:0.218391 28:0.366667 29:-0.846154 30:-0.80198 31:0.0105263 32:0.015625 33:-0.59375 34:-0.514563 35:-0.410526 36:-0.5625 
0.0090238282221663801 1:-0.40625 2:-0.436364 3:0.142857 4:-0.0247934 5:0.258065 6:0.163636 7:0.0526316 8:-0.21875 9:0.5 10:0.553398 11:0.242105 12:-0.09375 13:-0.709677 14:-0.807692 15:0.391304 16:0.559322 17:-0.71875 18:-0.68932 19:0.46988 20:0.252033 21:-0.169231 22:-0.145631 23:0.111111 24:-0.104 25:-0.8125 26:-0.807692 27:0.517241 28:0.55 29:-0.784615 30:-0.80198 31:0.452632 32:0.484375 33:-0.625 34:-0.533981 35:0.263158 36:0.078125 
0.057914370837416754 1:-0.5 2:-0.618182 3:-0.452381 4:-0.487603 5:-0.387097 6:-0.509091 7:-0.326316 8:-0.328125 9:-0.40625 10:-0.592233 11:-0.157895 12:-0.046875 13:-0.580645 14:-0.576923 15:-0.456522 16:-0.322034 17:-0.6875 18:-0.572816 19:-0.204819 20:-0.138211 21:-0.753846 22:-0.805825 23:0.222222 24:0.376 25:-0.96875 26:-0.923077 27:0.0344828 28:0.316667 29:-0.846154 30:-0.80198 31:0.0947368 32:0.140625 33:-0.6875 34:-0.631068 35:0.0947368 36:0.140625 
0.070333221004194105 1:-0.5 2:-0.727273 3:-0.0238095 4:0.322314 5:-0.806452 6:-0.872727 7:-0.0947368 8:0.1875 9:-0.71875 10:-0.805825 11:-0.0105263 12:0.078125 13:-0.0322581 14:-0.230769 15:0.0434783 16:0.0338983 17:-0.59375 18:-0.68932 19:-0.0120482 20:0.0894309 21:-0.569231 22:-0.572816 23:-0.0444444 24:-0.024 26:0.115385 27:-0.149425 28:-0.3 29:-0.230769 30:-0.0891089 31:-0.242105 32:-0.328125 33:-0.125 34:0.0485437 35:-0.157895 36:-0.390625 
0.0092389256772845776 1:-0.59375 2:-0.6 3:-0.47619 4:-0.338843 5:-0.677419 6:-0.6 7:-0.178947 8:-0.09375 9:-0.78125 10:-0.805825 11:0.157895 12:0.34375 13:-0.967742 14:-0.923077 15:-0.0217391 16:0.355932 17:-0.875 18:-0.805825 19:0.108434 20:0.105691 21:-0.661538 22:-0.631068 23:0.155556 24:0.168 25:-1 26:-0.961538 27:0.264368 28:0.45 29:-0.876923 30:-0.920792 31:0.136842 32:0.375 33:-0.6875 34:-0.708738 35:-0.0315789 36:0.046875 
0.010899652413626996 1:-0.65625 2:-0.672727 3:0.142857 4:0.305785 5:-0.870968 6:-0.963636 7:0.642105 8:0.828125 9:-0.96875 10:-1 11:0.768421 12:0.828125 13:-0.483871 14:-0.576923 15:-0.326087 16:-0.372881 17:-0.625 18:-0.68932 19:0.156627 20:0.0731707 21:-0.784615 22:-0.961165 23:0.488889 24:0.664 25:-0.40625 26:-0.480769 27:-0.333333 28:-0.366667 29:-0.384615 30:-0.584158 31:-0.157895 32:-0.046875 33:-0.625 34:-0.805825 35:0.263158 36:0.359375 
0.068476366242433293 1:-0.65625 2:-0.672727 3:0.357143 4:0.520661 5:-0.870968 6:-0.963636 7:0.536842 8:0.625 9:-0.875 10:-0.805825 11:0.431579 12:0.625 13:-0.387097 15:0.391304 16:0.254237 17:-0.8125 18:-0.68932 19:0.349398 20:0.430894 21:-0.692308 22:-0.572816 23:0.377778 24:0.424 25:-0.15625 26:0.557692 27:0.402299 28:0.0666667 29:-0.476923 30:-0.148515 31:0.263158 32:0.078125 33:-0.625 34:-0.475728 35:-0.0105263 36:0.1875 
0.019228565496954026 1:-0.6875 2:-0.672727 3:0.047619 4:0.0909091 5:-0.225806 6:-0.254545 7:-0.136842 8:-0.234375 9:-0.125 10:0.0873786 11:-0.221053 12:-0.359375 13:-0.741935 14:-0.807692 15:0.217391 16:0.338983 17:-0.28125 18:-0.281553 19:-0.108434 20:-0.333333 21:-0.0153846 22:0.0873786 23:-0.222222 24:-0.392 25:-0.8125 26:-0.903846 27:0.264368 28:0.466667 29:-0.6 30:-0.683168 31:-0.115789 32:-0.015625 33:-0.1875 34:-0.223301 35:-0.368421 36:-0.53125 
0.14379035142452129 1:-0.6875 2:-0.836364 3:0.357143 4:0.570248 5:-0.903226 6:-0.836364 7:0.431579 8:0.546875 9:-0.8125 10:-0.76699 11:0.221053 12:0.328125 13:-0.387097 14:-0.211538 15:-0.0652174 17:-0.53125 18:-0.339806 19:0.060241 20:0.00813008 21:-0.507692 22:-0.281553 23:0.2 24:0.008 25:-0.1875 27:-0.0114943 28:-0.15 29:-0.261538 30:-0.128713 31:0.136842 32:-0.015625 33:-0.40625 34:-0.223301 35:0.136842 36:0.046875 
0.0055138724285116406 1:-0.71875 2:-0.563636 3:0.0714286 4:0.123967 5:-0.483871 6:-0.163636 7:-0.0105263 8:-0.21875 9:-0.28125 10:0.184466 11:0.157895 12:-0.15625 13:-0.870968 14:-0.961538 15:0.326087 16:0.694915 17:-0.78125 18:-0.805825 19:0.39759 20:0.430894 21:-0.661538 22:-0.300971 23:0.0444444 24:-0.024 25:-0.78125 26:-0.807692 27:0.218391 28:0.5 29:-0.661538 30:-0.683168 31:0.0105263 32:0.25 33:-0.59375 34:-0.456311 35:0.0105263 36:-0.03125 
0.049836903938436261 1:-0.71875 2:-0.672727 3:-0.380952 4:-0.355372 5:-0.612903 6:-0.727273 7:-0.389474 8:-0.328125 9:-0.625 10:-0.708738 11:-0.326316 12:-0.328125 13:-0.774194 14:-0.75 15:-0.130435 16:0.0338983 17:-0.6875 18:-0.747573 19:-0.373494 20:-0.252033 21:-0.846154 22:-0.864078 23:-0.288889 24:-0.136 25:-0.78125 26:-0.923077 27:0.218391 28:0.183333 29:-0.753846 30:-0.80198 31:-0.0736842 32:-0.09375 33:-0.875 34:-0.864078 35:-0.157895 36:-0.09375 
0.027326110709754579 1:-0.78125 2:-0.818182 3:0.380952 4:0.471074 5:-0.677419 6:-0.345455 7:-0.0105263 8:-0.046875 9:-0.28125 10:0.106796 11:-0.0105263 12:-0.203125 13:-0.677419 14:-0.692308 15:-0.0217391 16:0.288136 17:-0.59375 18:-0.456311 19:0.0120482 20:-0.0731707 21:-0.446154 22:-0.106796 23:-0.2 24:-0.312 25:-0.5 26:-0.346154 27:-0.126437 28:-0.15 29:-0.476923 30:-0.267327 31:-0.136842 32:-0.125 33:-0.375 34:-0.281553 35:-0.136842 36:-0.1875 
0.026436626636751819 1:-0.78125 2:-0.872727 3:0.0952381 4:0.322314 5:-0.677419 6:-0.872727 7:0.178947 8:0.3125 9:-0.78125 10:-0.805825 11:0.178947 12:0.359375 13:-0.903226 14:-0.923077 15:0.195652 16:0.491525 17:-0.6875 18:-0.650485 19:0.060241 20:0.0569106 21:-0.230769 22:-0.203883 23:-0.0888889 24:-0.216 25:-0.875 26:-0.961538 27:0.37931 28:0.583333 29:-0.723077 30:-0.80198 31:0.242105 32:0.296875 33:-0.28125 34:-0.281553 35:-0.0947368 36:-0.28125 
0.00076226612777105767 1:-0.8125 2:-0.909091 3:0.047619 4:0.22314 5:-0.806452 6:-0.872727 7:0.136842 8:0.21875 9:-0.8125 10:-0.902913 11:0.136842 12:0.328125 13:-0.806452 14:-0.865385 15:-0.130435 16:0.220339 17:-0.71875 18:-0.805825 19:-0.0120482 20:0.0406504 21:-0.6 22:-0.747573 23:0.0444444 24:0.152 25:-0.59375 26:-0.692308 27:0.0114943 28:0.116667 29:-0.569231 30:-0.564356 31:-0.0947368 32:-0.046875 33:-0.375 34:-0.436893 35:-0.263158 36:-0.15625 
7.7465250822835149e-05 1:-0.8125 2:-0.909091 3:0.166667 4:0.322314 5:-0.709677 6:-0.672727 7:-0.326316 8:-0.328125 9:-0.625 10:-0.708738 11:-0.389474 12:-0.328125 13:-0.677419 14:-0.807692 15:0.0434783 16:0.20339 17:-0.78125 18:-0.747573 19:-0.108434 20:-0.0243902 21:-0.661538 22:-0.747573 23:-0.288889 24:-0.184 25:-0.875 26:-0.961538 27:0.425287 28:0.433333 29:-0.753846 30:-0.920792 31:0.178947 32:0.1875 33:-0.78125 34:-0.805825 35:-0.0736842 36:-0.09375 
0.0016811189839616924 1:-0.875 2:-0.818182 3:0.714286 4:0.719008 5:-0.967742 6:-0.909091 7:0.873684 8:0.890625 9:-0.875 10:-0.902913 11:0.873684 12:0.953125 13:-0.612903 14:-0.75 15:0.282609 16:0.372881 17:-0.625 18:-0.805825 19:0.46988 20:0.430894 21:-0.784615 22:-0.961165 23:0.955556 24:0.952 25:-0.8125 26:-0.807692 27:0.517241 28:0.616667 29:-0.6 30:-0.643564 31:0.263158 32:0.25 33:-0.8125 34:-0.747573 35:0.452632 36:0.71875 
0.023122718044341128 1:-0.90625 2:-0.927273 3:0.142857 4:0.22314 5:-1 6:-0.927273 7:0.136842 8:0.265625 9:-1 10:-0.92233 11:0.136842 12:0.21875 13:-0.741935 14:-0.961538 15:0.0217391 16:0.135593 17:-0.875 18:-0.961165 19:0.060241 20:0.0731707 21:-0.846154 22:-0.902913 23:0.2 24:0.2 25:-0.71875 26:-0.75 27:-0.0114943 28:0.1 29:-0.692308 30:-0.742574 31:-0.115789 32:-0.015625 33:-0.90625 34:-0.902913 35:0.136842 36:0.21875 
0.0046455237250508001 1:-0.96875 2:-0.909091 3:0.97619 4:0.933884 5:-0.870968 6:-0.909091 7:0.873684 8:0.953125 9:-0.875 10:-0.961165 11:1 12:0.890625 13:-0.612903 14:-0.807692 15:0.391304 16:0.508475 17:-0.8125 18:-0.961165 19:0.975904 20:0.902439 21:-0.692308 22:-0.902913 23:0.955556 24:0.952 25:-0.625 26:-0.653846 27:0.310345 28:0.25 29:-0.784615 30:-0.742574 31:0.452632 32:0.71875 33:-0.9375 34:-0.941748 35:0.789474 36:1 
0.012832067968505636 1:-1 2:-0.927273 3:0.142857 4:0.272727 5:-1 6:-0.927273 7:0.136842 8:0.21875 9:-0.90625 10:-0.92233 11:0.136842 12:0.328125 13:-0.870968 14:-0.961538 15:0.0217391 16:0.135593 17:-0.875 18:-0.902913 19:0.156627 20:0.138211 21:-0.846154 22:-0.864078 23:0.2 24:0.2 25:-0.71875 26:-0.75 27:-0.103448 28:-0.0333333 29:-0.876923 30:-0.90099 31:0.136842 32:0.21875 33:-0.90625 34:-0.961165 35:0.136842 36:0.21875 
0.031419313985978019 1:0.21875 2:0.163636 3:0.047619 4:-0.239669 5:0.548387 6:0.454545 7:0.242105 8:-0.09375 9:0.5 10:0.553398 11:0.326316 12:-0.09375 13:-0.709677 14:-0.692308 15:0.391304 16:0.322034 17:-0.1875 18:-0.145631 19:0.060241 20:-0.170732 21:0.323077 22:0.339806 23:0.2 24:-0.168 25:-0.8125 26:-0.807692 27:0.517241 28:0.5 29:-0.6 30:-0.524752 31:0.263158 32:0.078125 33:0.09375 34:0.106796 35:0.0736842 36:-0.21875 
0.029190409915826939 1:0.21875 2:0.309091 3:0.142857 4:-0.173554 5:0.419355 6:0.309091 7:0.326316 8:-0.09375 9:0.375 10:0.398058 11:0.242105 12:-0.09375 13:-0.709677 14:-0.75 15:0.391304 16:0.372881 17:-0.28125 18:-0.223301 19:0.156627 20:-0.170732 21:0.323077 22:0.339806 23:0.2 24:-0.216 25:-0.8125 26:-0.865385 27:0.517241 28:0.616667 29:-0.6 30:-0.584158 31:0.263158 32:0.1875 33:-0.03125 34:-0.0291262 35:-0.0105263 36:-0.28125 
0.054219297381732659 1:0.34375 2:0.309091 3:0.0714286 4:-0.239669 5:0.387097 6:0.236364 7:0.0736842 8:-0.21875 9:0.21875 10:0.242718 11:0.157895 12:-0.21875 13:0.580645 14:0.519231 15:0.0434783 16:-0.20339 17:0.0625 18:-0.0679612 19:-0.0120482 20:-0.203252 21:-0.569231 22:-0.572816 23:0.422222 24:0.264 25:0.5 26:0.442308 27:0.333333 28:-0.183333 29:0.138462 30:-0.00990099 31:0.0947368 32:-0.15625 33:-0.59375 34:-0.747573 35:0.368421 36:0.359375 
0.016810420539663255 1:0.1875 2:0.272727 3:0.166667 4:-0.173554 5:0.225806 6:0.109091 7:-0.178947 8:-0.375 9:-0.375 10:-0.300971 11:-0.642105 12:-0.8125 13:0.419355 14:0.365385 15:0.152174 16:-0.152542 17:0.125 18:0.126214 19:-0.180723 20:-0.560976 21:-0.446154 22:-0.378641 23:-0.688889 24:-0.84 25:0.25 26:0.384615 27:0.172414 28:-0.216667 29:-0.0153846 30:0.108911 31:-0.221053 32:-0.53125 33:-0.5 34:-0.417476 35:-0.726316 36:-0.8125 
0.033180657573467491 1:0.21875 2:0.236364 3:0.166667 4:-0.173554 5:0.129032 6:0.0363636 7:-0.157895 8:-0.390625 9:-0.28125 10:-0.242718 11:-0.621053 12:-0.6875 13:0.354839 14:0.442308 15:0.326087 16:-0.0338983 17:0.0625 18:0.262136 19:-0.0120482 20:-0.252033 21:-0.0461538 22:0.00970874 23:-0.288889 24:-0.424 25:0.375 26:0.519231 27:0.425287 28:-0.05 29:0.384615 30:0.485149 31:0.284211 32:-0.09375 33:0.25 34:0.300971 35:0.0947368 36:-0.15625 
0.0072207481920049318 1:0.3125 2:0.327273 3:0.047619 4:-0.140496 5:0.225806 6:0.0909091 7:-0.115789 8:-0.234375 9:-0.28125 10:-0.436893 11:0.136842 12:0.046875 13:0.677419 14:0.461538 15:0.326087 16:-0.101695 17:0.625 18:0.475728 19:0.180723 20:-0.203252 21:0.107692 22:0.0485437 23:-0.0444444 24:-0.2 25:0.65625 26:0.615385 27:0.402299 28:-0.0666667 29:0.661538 30:0.742574 31:0.263158 32:-0.046875 33:0.53125 34:0.456311 35:0.157895 36:-0.203125 
0.022910735376239656 1:0.375 2:0.290909 3:0.190476 4:-0.173554 5:0.16129 6:0.0545455 7:-0.157895 8:-0.5 9:-0.46875 10:-0.378641 11:-0.705263 12:-0.84375 13:0.290323 14:0.384615 15:0.108696 16:-0.186441 17:-0.03125 18:0.0873786 19:-0.253012 20:-0.593496 21:-0.476923 22:-0.417476 23:-0.711111 24:-0.808 25:0.375 26:0.384615 27:0.172414 28:-0.183333 29:-0.0153846 30:0.108911 31:-0.347368 32:-0.484375 33:-0.53125 34:-0.339806 35:-0.726316 36:-0.734375 
0.14246898239949599 1:0.53125 2:0.363636 3:0.166667 4:-0.22314 5:-0.129032 6:-0.2 7:-0.178947 8:-0.203125 9:-0.6875 10:-0.68932 11:-0.0105263 12:0.234375 13:0.83871 14:0.615385 15:0.347826 16:-0.0847458 17:0.25 18:0.203883 19:0.0120482 20:-0.382114 21:-0.230769 22:-0.320388 23:-0.0222222 24:-0.136 25:0.90625 26:0.634615 27:0.494253 28:-0.0333333 29:0.630769 30:0.584158 31:0.326316 32:-0.125 33:0.375 34:0.320388 35:0.136842 36:-0.296875 
0.031897663019208281 1:0.75 2:0.636364 3:0.380952 4:0.00826446 5:0.806452 6:0.545455 7:0.347368 8:-0.046875 9:0.46875 10:0.475728 11:0.157895 12:-0.109375 13:0.354839 14:0.173077 15:-0.217391 16:-0.322034 17:-0.0625 18:0.106796 19:-0.301205 20:-0.495935 21:0.415385 22:0.456311 23:0.222222 24:-0.136 25:-0.25 26:-0.115385 27:-0.425287 28:-0.666667 29:-0.230769 30:-0.0891089 31:-0.410526 32:-0.5 34:0.203883 35:-0.0736842 36:-0.265625 
2.2521471582813577 1:-0.03125 2:-0.0545455 3:-0.119048 4:-0.371901 5:-0.129032 6:-0.254545 7:-0.178947 8:-0.28125 9:-0.28125 10:-0.339806 11:-0.0947368 12:-0.21875 13:-0.16129 14:-0.0769231 15:-0.23913 16:-0.372881 17:-0.0625 18:0.00970874 19:-0.228916 20:-0.349593 21:-0.0461538 22:0.00970874 23:-0.155556 24:-0.28 25:-0.03125 26:-0.0384615 27:-0.149425 28:-0.366667 29:-0.0153846 30:0.0693069 31:-0.157895 32:-0.28125 33:-0.03125 34:0.106796 35:-0.0947368 36:-0.28125 
0.5936406486527035 1:-0.03125 2:0.109091 3:-0.0238095 4:-0.173554 5:-0.129032 6:0.0363636 7:-0.0947368 8:-0.328125 9:-0.03125 10:0.0485437 11:-0.157895 12:-0.328125 13:-0.129032 14:0.25 15:0.130435 16:-0.0847458 17:-0.15625 18:0.106796 19:-0.0120482 20:-0.252033 21:-0.138462 22:0.106796 23:-0.0444444 24:-0.248 25:-0.125 26:0.288462 27:0.126437 28:-0.116667 29:-0.230769 30:0.227723 31:0.0947368 32:-0.21875 33:-0.25 34:0.0485437 35:-0.242105 36:-0.328125 
0.023205803867038129 1:-0.0625 2:-0.0545455 3:-0.309524 4:-0.338843 5:0.0967742 6:0.0363636 7:-0.178947 8:-0.265625 9:0.0625 10:0.106796 11:-0.0105263 12:-0.265625 13:0.16129 14:0.192308 15:-0.0217391 16:-0.152542 18:0.126214 19:-0.0843373 20:-0.268293 21:0.0153846 22:0.126214 23:0.0666667 24:-0.2 25:0.125 26:0.307692 27:0.0804598 28:-0.15 29:-0.0153846 30:0.346535 31:0.0526316 32:-0.1875 33:0.125 34:0.398058 35:0.221053 36:-0.078125 
1.1242996184839662 1:-0.15625 2:-0.127273 3:0.166667 4:-0.0578512 5:0.0967742 6:0.109091 7:0.157895 8:-0.15625 9:0.0625 10:0.262136 11:0.0736842 12:-0.203125 13:-0.225806 14:-0.115385 15:0.0652174 16:0.0338983 17:0.125 18:0.203883 19:0.204819 20:-0.138211 21:0.138462 22:0.203883 23:0.0666667 24:-0.2 25:-0.125 26:-0.0769231 27:0.264368 28:0.0333333 29:-0.0153846 30:0.188119 31:0.221053 32:-0.078125 33:-0.03125 34:0.242718 35:0.0526316 36:-0.1875 
1.4511452568675509 1:-0.1875 2:-0.127273 3:-0.238095 4:-0.38843 5:-0.0322581 6:-0.0545455 7:-0.2 8:-0.296875 9:-0.0625 10:0.00970874 11:-0.2 12:-0.296875 14:-0.0384615 15:-0.195652 16:-0.338983 17:-0.03125 18:0.0485437 19:-0.180723 20:-0.333333 21:-0.0153846 22:0.106796 23:-0.0444444 24:-0.264 25:0.0625 26:0.0961538 27:-0.172414 28:-0.3 29:0.0769231 30:0.128713 31:-0.0105263 32:-0.265625 33:0.0625 34:0.184466 35:-0.0105263 36:-0.265625 
0.75522672056583839 1:-0.1875 2:-0.345455 3:-0.428571 4:-0.38843 5:-0.258065 6:-0.272727 7:-0.368421 8:-0.46875 9:-0.1875 10:-0.145631 11:-0.452632 12:-0.46875 14:-0.115385 15:-0.434783 16:-0.542373 17:-0.15625 18:-0.242718 19:-0.542169 20:-0.577236 21:-0.138462 22:-0.242718 23:-0.6 24:-0.504 25:-0.15625 26:-0.0769231 27:-0.425287 28:-0.533333 29:-0.138462 30:-0.049505 31:-0.410526 32:-0.4375 33:-0.15625 34:0.00970874 35:-0.326316 36:-0.484375 
0.11701476643914897 1:-0.25 2:-0.163636 3:0.0952381 4:0.00826446 5:0.16129 6:0.127273 7:0.178947 8:-0.09375 9:0.125 10:0.203883 11:0.0105263 12:-0.21875 13:-0.0967742 14:-0.0769231 15:0.195652 16:0.0677966 17:-0.03125 18:0.165049 19:0.253012 20:-0.121951 21:-0.0153846 22:0.242718 23:0.111111 24:-0.168 25:-0.15625 26:0.307692 27:0.287356 28:-0.0333333 29:0.107692 30:0.425743 31:0.136842 32:-0.15625 33:0.09375 34:0.320388 35:0.0526316 36:-0.21875 
0.47541909749844391 1:-0.25 2:-0.254545 3:0.238095 4:-0.0247934 6:0.0181818 7:0.0526316 8:-0.1875 9:0.25 10:0.398058 11:0.136842 12:-0.125 13:-0.258065 14:-0.288462 15:0.108696 16:0.0677966 17:-0.03125 18:0.00970874 19:-0.0361446 20:-0.268293 21:0.230769 22:0.320388 23:0.0222222 24:-0.2 25:-0.40625 26:-0.230769 27:0.172414 28:0.0333333 29:-0.261538 30:-0.207921 31:0.221053 32:0.046875 33:-0.0625 34:-0.0679612 35:0.136842 36:-0.125 
0.35281284479731911 1:-0.28125 2:-0.127273 3:-0.214286 4:-0.338843 5:-0.354839 6:-0.2 7:-0.326316 8:-0.4375 9:-0.28125 10:-0.223301 11:-0.410526 12:-0.375 13:0.0322581 14:-0.0384615 15:-0.108696 16:-0.271186 17:0.125 18:0.126214 19:0.0120482 20:-0.317073 21:0.0153846 22:0.0485437 23:-0.2 24:-0.312 25:-0.03125 26:0.0769231 27:0.0804598 28:-0.216667 29:0.261538 30:0.425743 31:0.136842 32:-0.125 33:0.25 34:0.320388 35:0.0526316 36:-0.1875 
1.0949870789298406 1:-0.28125 2:-0.127273 3:-0.404762 4:-0.438017 5:-0.129032 6:-0.0545455 7:-0.263158 8:-0.40625 9:0.09375 10:0.00970874 11:-0.178947 12:-0.34375 13:-0.0322581 15:-0.326087 16:-0.372881 17:-0.1875 18:0.00970874 19:-0.421687 20:-0.414634 21:-0.0461538 22:0.00970874 23:-0.333333 24:-0.408 25:-0.15625 26:0.0961538 27:-0.0804598 28:-0.366667 29:-0.0153846 30:0.0693069 31:-0.157895 32:-0.328125 33:-0.03125 34:0.0485437 35:-0.326316 36:-0.28125 
0.28676566791682695 1:-0.28125 2:-0.327273 3:-0.119048 4:-0.305785 6:0.0181818 7:-0.263158 8:-0.40625 9:-0.15625 10:0.00970874 11:-0.263158 12:-0.40625 13:-0.612903 14:-0.692308 15:-0.152174 17:-0.1875 18:-0.223301 19:-0.421687 20:-0.593496 21:-0.0461538 22:0.00970874 23:-0.244444 24:-0.456 25:-0.15625 26:-0.173077 27:-0.241379 28:-0.5 29:-0.138462 30:-0.00990099 31:-0.242105 32:-0.515625 33:-0.03125 34:0.0485437 35:-0.242105 36:-0.390625 
0.8184237330580707 1:-0.375 2:-0.2 3:-0.380952 4:-0.471074 5:-0.258065 6:-0.272727 7:-0.410526 8:-0.375 9:-0.375 10:-0.300971 11:-0.494737 12:-0.375 13:0.16129 14:0.115385 15:-0.0217391 16:-0.271186 18:0.0485437 19:-0.277108 20:-0.382114 21:-0.107692 22:-0.106796 23:-0.377778 24:-0.424 25:0.25 26:0.384615 27:0.172414 28:-0.15 29:0.261538 30:0.346535 31:0.0526316 32:-0.1875 33:-0.03125 34:0.00970874 35:-0.136842 36:-0.296875 
0.19651421718433687 1:-0.625 2:-0.709091 3:-0.142857 4:-0.0247934 5:-0.16129 6:-0.272727 7:-0.368421 8:-0.53125 9:-0.0625 10:0.00970874 11:-0.284211 12:-0.46875 13:-0.129032 14:-0.173077 15:-0.282609 16:-0.474576 17:-0.15625 18:-0.0291262 19:-0.277108 20:-0.577236 21:-0.0153846 22:0.0485437 23:-0.2 24:-0.376 25:0.0625 26:0.0961538 27:-0.264368 28:-0.35 29:-0.0461538 30:0.128713 31:-0.0947368 32:-0.4375 33:-0.0625 34:0.106796 35:-0.263158 36:-0.4375 
0.074253759748905551 1:-0.625 2:-0.763636 3:-0.0238095 4:0.190083 5:-0.612903 6:-0.618182 7:-0.157895 8:0.078125 9:-0.40625 10:-0.300971 11:-0.157895 12:-0.28125 13:-0.258065 14:-0.153846 15:-0.304348 16:-0.322034 17:-0.0625 18:0.106796 19:-0.204819 20:-0.365854 21:0.0769231 22:0.184466 23:-0.222222 24:-0.296 25:0.125 26:0.288462 27:0.0344828 28:-0.3 29:0.138462 30:0.405941 31:0.0105263 32:-0.265625 33:0.125 34:0.300971 35:0.0105263 36:-0.265625 
0.57838360395491084 1:0.0625 2:0.0363636 3:-0.0238095 4:-0.289256 5:0.0967742 6:0.109091 7:-0.0105263 8:-0.265625 9:0.0625 10:0.00970874 11:-0.178947 12:-0.3125 13:0.0322581 14:0.115385 15:-0.0217391 16:-0.220339 17:-0.125 18:0.203883 19:-0.0843373 20:-0.203252 21:-0.107692 22:0.126214 23:0.0666667 24:-0.072 25:0.125 26:0.384615 27:0.264368 28:-0.1 29:0.138462 30:0.346535 31:0.221053 32:-0.015625 33:0.125 34:0.475728 35:0.221053 36:-0.015625 
0.49336272783116103 1:0.09375 2:-0.0545455 3:-0.214286 4:-0.305785 5:-0.387097 6:-0.327273 7:-0.431579 8:-0.34375 9:-0.53125 10:-0.281553 11:-0.347368 12:-0.40625 13:0.354839 14:0.230769 15:0.0217391 16:-0.237288 17:0.0625 18:0.0873786 19:-0.13253 20:-0.349593 21:-0.261538 22:-0.223301 23:-0.333333 24:-0.344 25:0.21875 26:0.307692 27:0.103448 28:-0.25 29:0.107692 30:0.207921 31:-0.0105263 32:-0.21875 33:0.09375 34:0.0485437 35:-0.242105 36:-0.28125 
0.67114197868203596 1:0.3125 2:0.363636 3:0.285714 4:-0.107438 5:0.225806 6:0.109091 7:0.0736842 8:-0.15625 9:-0.15625 10:-0.223301 11:-0.0947368 12:-0.203125 13:0.290323 14:0.442308 15:0.152174 16:-0.0847458 17:0.125 18:0.203883 19:0.0120482 20:-0.268293 21:-0.107692 22:-0.106796 23:-0.111111 24:-0.2 25:0.125 26:0.230769 27:-0.0114943 28:-0.216667 29:0.261538 30:0.346535 31:0.0526316 32:-0.1875 33:0.125 34:0.0873786 35:-0.0315789 36:-0.1875 
1.7432193641597928 1:-0.03125 2:-0.0181818 3:-0.119048 4:-0.239669 6:-0.0909091 7:-0.0947368 8:-0.21875 9:-0.03125 10:-0.106796 11:-0.0947368 12:-0.21875 13:0.0967742 14:0.0961538 15:-0.217391 16:-0.322034 17:-0.0625 18:0.106796 19:-0.0120482 20:-0.252033 21:-0.0461538 22:-0.0679612 23:-0.0444444 24:-0.248 25:0.125 26:0.115385 27:-0.149425 28:-0.3 29:0.0153846 30:0.0693069 31:-0.157895 32:-0.265625 34:0.0485437 35:0.0105263 36:-0.21875 
0.069003289875116947 1:-0.03125 2:-0.0181818 3:-0.380952 4:-0.487603 5:-0.129032 6:-0.163636 7:-0.326316 8:-0.515625 9:-0.15625 10:-0.106796 11:-0.389474 12:-0.5625 13:-0.258065 14:-0.153846 15:-0.543478 16:-0.627119 17:-0.28125 18:-0.223301 19:-0.373494 20:-0.609756 21:-0.261538 22:-0.145631 23:-0.466667 24:-0.536 25:-0.25 26:-0.115385 27:-0.517241 28:-0.55 29:-0.230769 30:-0.0891089 31:-0.557895 32:-0.5625 33:-0.125 34:-0.184466 35:-0.494737 36:-0.5625 
2.7400373830660176 1:-0.03125 2:-0.0181818 3:-0.380952 4:-0.487603 6:-0.0909091 7:-0.389474 8:-0.390625 9:-0.03125 10:0.0485437 11:-0.326316 12:-0.390625 13:-0.0322581 14:-0.0769231 15:-0.304348 16:-0.389831 17:-0.0625 18:-0.0679612 19:-0.373494 20:-0.430894 21:-0.138462 22:0.00970874 23:-0.288889 24:-0.36 25:-0.125 26:-0.115385 27:-0.241379 28:-0.366667 29:-0.107692 30:-0.168317 31:-0.242105 32:-0.265625 33:-0.125 34:-0.184466 35:-0.242105 36:-0.328125 
1.9860871041364927 1:-0.03125 2:-0.0545455 3:-0.214286 4:-0.371901 5:0.129032 6:0.0181818 7:-0.178947 8:-0.34375 9:0.09375 10:0.165049 11:-0.178947 12:-0.28125 13:-0.16129 14:-0.307692 15:-0.326087 16:-0.440678 17:-0.0625 18:-0.0679612 19:-0.228916 20:-0.414634 21:0.0769231 22:0.00970874 23:-0.155556 24:-0.28 25:-0.28125 26:-0.423077 27:-0.494253 28:-0.433333 29:-0.138462 30:-0.0891089 31:-0.326316 32:-0.328125 33:-0.03125 34:0.106796 35:-0.242105 36:-0.28125 
0.30994972747316973 1:-0.03125 2:-0.0545455 3:-0.309524 4:-0.438017 6:-0.254545 7:-0.431579 8:-0.484375 9:-0.15625 10:-0.126214 11:-0.494737 12:-0.546875 13:-0.258065 14:-0.307692 15:-0.717391 16:-0.677966 17:-0.40625 18:-0.300971 19:-0.759036 20:-0.707317 21:-0.384615 22:-0.300971 23:-0.644444 24:-0.584 25:-0.28125 26:-0.25 27:-0.793103 28:-0.616667 29:-0.261538 30:-0.287129 31:-0.684211 32:-0.625 33:-0.28125 34:-0.242718 35:-0.621053 36:-0.625 
3.8954022067293126 1:-0.03125 2:-0.0545455 3:-0.357143 4:-0.438017 6:-0.0545455 7:-0.389474 8:-0.46875 9:-0.125 10:-0.0679612 11:-0.389474 12:-0.40625 14:-0.0769231 15:-0.391304 16:-0.423729 17:-0.15625 18:-0.126214 19:-0.39759 20:-0.463415 21:-0.138462 22:-0.281553 23:-0.311111 24:-0.392 25:-0.0625 27:-0.195402 28:-0.466667 29:-0.0461538 30:-0.049505 31:-0.452632 32:-0.421875 33:-0.1875 34:-0.145631 35:-0.368421 36:-0.421875 
1.6990475633613134 1:-0.03125 2:-0.0909091 3:-0.190476 4:-0.305785 5:-0.129032 6:-0.218182 7:-0.326316 8:-0.328125 9:-0.28125 10:-0.0291262 11:-0.326316 12:-0.390625 13:-0.258065 14:-0.153846 15:-0.304348 16:-0.457627 17:-0.375 18:-0.300971 19:-0.566265 20:-0.495935 21:-0.353846 22:-0.145631 23:-0.466667 24:-0.472 25:-0.375 26:-0.25 27:-0.425287 28:-0.433333 29:-0.353846 30:-0.227723 31:-0.410526 32:-0.390625 33:-0.25 34:-0.242718 35:-0.410526 36:-0.390625 
0.3888737502741324 1:-0.03125 2:-0.0909091 3:-0.380952 4:-0.421488 6:0.109091 7:-0.0947368 8:-0.328125 9:0.09375 10:0.106796 11:-0.157895 12:-0.390625 13:-0.0322581 15:-0.304348 16:-0.457627 17:-0.15625 18:0.00970874 19:-0.373494 20:-0.495935 21:-0.138462 22:0.00970874 23:-0.377778 24:-0.424 25:0.125 26:-0.0384615 27:-0.149425 28:-0.433333 29:0.0153846 30:-0.00990099 31:-0.410526 32:-0.5 33:-0.125 34:-0.184466 35:-0.557895 36:-0.5625 
2.0495603702045 1:-0.03125 2:-0.0909091 3:-0.452381 4:-0.421488 6:-0.0181818 7:-0.326316 8:-0.390625 9:0.09375 10:0.106796 11:-0.157895 12:-0.328125 13:-0.0322581 14:-0.0769231 15:-0.369565 16:-0.389831 17:-0.15625 18:0.00970874 19:-0.373494 20:-0.430894 21:-0.0461538 22:0.00970874 23:-0.222222 24:-0.296 25:-0.125 26:-0.192308 27:-0.241379 28:-0.3 29:-0.107692 30:-0.168317 31:-0.242105 32:-0.328125 33:-0.125 34:-0.106796 35:-0.242105 36:-0.328125 
0.24944182350679875 1:-0.03125 2:-0.127273 3:-0.309524 4:-0.438017 6:-0.127273 7:-0.494737 8:-0.484375 9:-0.15625 10:-0.126214 11:-0.578947 12:-0.546875 13:-0.258065 14:-0.230769 15:-0.652174 16:-0.559322 17:-0.40625 18:-0.300971 19:-0.759036 20:-0.658537 21:-0.384615 22:-0.300971 23:-0.488889 24:-0.52 25:-0.28125 26:-0.365385 27:-0.563218 28:-0.566667 29:-0.384615 30:-0.287129 31:-0.473684 32:-0.453125 33:-0.28125 34:-0.300971 35:-0.536842 36:-0.5625 
1.3301692886072387 1:-0.03125 2:-0.127273 3:-0.571429 4:-0.520661 5:-0.129032 6:-0.181818 7:-0.578947 8:-0.546875 9:-0.15625 10:-0.126214 11:-0.494737 12:-0.546875 13:-0.387097 14:-0.307692 15:-0.717391 16:-0.627119 17:-0.40625 18:-0.300971 19:-0.590361 20:-0.593496 21:-0.261538 22:-0.223301 23:-0.488889 24:-0.584 25:-0.40625 26:-0.307692 27:-0.494253 28:-0.5 29:-0.261538 30:-0.287129 31:-0.536842 32:-0.5625 33:-0.28125 34:-0.300971 35:-0.621053 36:-0.625 
0.13870084490621137 1:-0.03125 2:-0.163636 3:-0.285714 4:-0.421488 6:-0.0909091 7:-0.157895 8:-0.328125 9:0.09375 10:0.242718 11:0.0736842 12:-0.15625 13:-0.0322581 14:-0.0769231 15:-0.217391 16:-0.322034 17:-0.15625 18:-0.145631 19:-0.204819 20:-0.365854 21:0.2 22:0.184466 23:0.0444444 24:-0.136 25:-0.25 26:-0.25 27:-0.333333 28:-0.483333 29:-0.230769 30:-0.306931 31:-0.326316 32:-0.4375 33:0.125 34:0.203883 35:0.0947368 36:-0.09375 
0.50575190800279579 1:-0.03125 2:-0.163636 3:-0.380952 4:-0.487603 5:-0.129032 6:-0.0909091 7:-0.326316 8:-0.453125 9:-0.03125 10:-0.0291262 11:-0.326316 12:-0.453125 13:-0.129032 14:-0.0769231 15:-0.304348 16:-0.508475 17:-0.15625 18:-0.0679612 19:-0.373494 20:-0.544715 21:-0.138462 22:-0.145631 23:-0.288889 24:-0.424 26:0.0384615 27:-0.241379 28:-0.483333 29:0.0153846 30:-0.00990099 31:-0.326316 32:-0.5 33:-0.125 34:-0.184466 35:-0.410526 36:-0.4375 
0.23831858954579374 1:-0.03125 2:0.0181818 3:-0.119048 4:-0.371901 6:-0.0545455 7:-0.0947368 8:-0.34375 9:-0.03125 10:0.00970874 11:-0.263158 12:-0.40625 13:0.0967742 14:0.0769231 15:-0.0652174 16:-0.305085 17:-0.1875 18:-0.145631 19:-0.590361 20:-0.593496 21:-0.261538 22:-0.300971 23:-0.644444 24:-0.632 25:0.21875 26:0.230769 27:0.0114943 28:-0.25 29:-0.0153846 30:0.0693069 31:-0.242105 32:-0.453125 33:-0.28125 34:-0.242718 35:-0.747368 36:-0.5625 
0.026983693027934828 1:-0.03125 2:0.163636 3:-0.047619 4:-0.305785 6:0.0181818 7:-0.0947368 8:-0.34375 9:-0.03125 10:0.00970874 11:-0.0947368 12:-0.34375 13:0.225806 14:0.230769 15:-0.0652174 16:-0.186441 17:0.0625 18:0.0873786 19:-0.0361446 20:-0.349593 21:-0.169231 22:-0.145631 23:-0.488889 24:-0.52 25:0.09375 26:0.173077 27:0.0114943 28:-0.25 29:0.230769 30:0.267327 31:-0.0105263 32:-0.21875 33:-0.03125 34:0.0485437 35:-0.242105 36:-0.453125 
0.33732871878458498 1:-0.0625 2:-0.0545455 3:-0.333333 4:-0.38843 5:-0.0322581 6:-0.0545455 7:-0.284211 8:-0.421875 9:-0.0625 10:-0.145631 11:-0.515789 12:-0.46875 13:-0.129032 14:-0.115385 15:-0.434783 16:-0.474576 17:-0.28125 18:-0.242718 19:-0.542169 20:-0.577236 21:-0.261538 22:-0.300971 23:-0.511111 24:-0.552 25:-0.28125 26:-0.365385 27:-0.609195 28:-0.533333 29:-0.353846 30:-0.346535 31:-0.578947 32:-0.4375 33:-0.59375 34:-0.495146 35:-0.326316 36:-0.15625 
2.428592186138705 1:-0.0625 2:-0.127273 3:-0.142857 4:-0.256198 5:0.0967742 6:0.0909091 7:-0.115789 8:-0.234375 9:0.0625 10:0.00970874 11:-0.115789 12:-0.296875 14:-0.0384615 15:-0.282609 16:-0.338983 17:-0.15625 18:-0.106796 19:-0.180723 20:-0.447154 21:-0.0153846 22:-0.106796 23:-0.2 24:-0.376 25:-0.28125 26:-0.307692 27:-0.333333 28:-0.416667 29:-0.138462 30:-0.128713 31:-0.326316 32:-0.4375 33:-0.0625 34:-0.0679612 35:-0.178947 36:-0.3125 
0.1148616616920841 1:-0.0625 2:-0.127273 3:-0.333333 4:-0.504132 5:-0.258065 6:-0.2 7:-0.515789 8:-0.59375 9:-0.28125 10:-0.145631 11:-0.515789 12:-0.59375 13:-0.258065 14:-0.25 15:-0.586957 16:-0.661017 17:-0.28125 18:-0.165049 19:-0.542169 20:-0.691057 21:-0.384615 22:-0.242718 23:-0.511111 24:-0.616 25:-0.28125 26:-0.230769 27:-0.517241 28:-0.716667 29:-0.353846 30:-0.207921 31:-0.410526 32:-0.59375 33:-0.375 34:-0.223301 35:-0.494737 36:-0.59375 
0.088798771502781135 1:-0.0625 2:-0.127273 3:-0.52381 4:-0.570248 5:-0.258065 6:-0.127273 7:-0.368421 8:-0.53125 9:-0.28125 10:-0.0679612 11:-0.452632 12:-0.46875 13:-0.129032 14:-0.0384615 15:-0.369565 16:-0.474576 17:-0.15625 18:-0.165049 19:-0.180723 20:-0.512195 21:-0.138462 22:-0.106796 23:-0.288889 24:-0.44 25:0.0625 26:0.173077 27:0.0114943 28:-0.183333 29:0.0769231 30:0.128713 31:0.0736842 32:-0.15625 33:0.0625 34:0.184466 35:0.0736842 36:-0.203125 
1.5109003381599064 1:-0.125 2:-0.0909091 3:-0.190476 4:-0.289256 5:-0.354839 6:-0.418182 7:-0.242105 8:-0.328125 9:-0.46875 10:-0.514563 11:-0.157895 12:-0.265625 15:-0.26087 16:-0.305085 17:-0.03125 18:-0.145631 19:-0.253012 20:-0.349593 21:-0.353846 22:-0.339806 23:-0.177778 24:-0.28 25:-0.03125 27:-0.172414 28:-0.383333 29:-0.0153846 30:0.029703 31:-0.0947368 32:-0.34375 33:-0.15625 34:-0.203883 35:-0.178947 36:-0.28125 
0.15899193089069016 1:-0.125 2:-0.0909091 3:-0.190476 4:-0.421488 5:0.16129 6:0.0545455 7:0.0105263 8:-0.21875 9:0.125 10:0.126214 11:0.0105263 12:-0.21875 13:0.16129 14:0.153846 15:-0.0652174 16:-0.237288 17:0.125 18:0.0873786 19:-0.0361446 20:-0.284553 21:0.138462 22:0.0873786 23:-0.0888889 24:-0.216 25:0.09375 26:0.153846 27:-0.0114943 28:-0.25 29:0.107692 30:0.029703 31:-0.0315789 32:-0.21875 33:0.09375 34:0.0873786 35:-0.0315789 36:-0.21875 
0.071550015230545258 1:-0.125 2:-0.127273 3:-0.452381 4:-0.504132 5:-0.225806 6:-0.327273 7:-0.557895 8:-0.578125 9:-0.25 10:-0.339806 11:-0.557895 12:-0.53125 14:0.0769231 15:-0.217391 16:-0.288136 17:-0.03125 18:0.00970874 19:-0.204819 20:-0.333333 21:-0.261538 22:-0.281553 23:-0.222222 24:-0.264 25:0.0625 26:0.0769231 27:-0.195402 28:-0.4 29:0.0769231 30:0.108911 31:-0.2 32:-0.296875 33:0.0625 34:0.0873786 35:-0.2 36:-0.296875 
0.63622368278358354 1:-0.15625 2:-0.0545455 3:-0.119048 4:-0.289256 5:-0.258065 6:-0.2 7:-0.263158 8:-0.4375 9:-0.375 10:-0.300971 11:-0.494737 12:-0.4375 13:-0.0967742 14:-0.192308 15:-0.369565 16:-0.40678 17:-0.375 18:-0.242718 19:-0.46988 20:-0.447154 21:-0.353846 22:-0.242718 23:-0.377778 24:-0.376 25:-0.59375 26:-0.480769 27:-0.494253 28:-0.4 29:-0.476923 30:-0.405941 31:-0.557895 32:-0.40625 33:-0.5 34:-0.339806 35:-0.557895 36:-0.40625 
0.5539975406514106 1:-0.15625 2:-0.0545455 3:-0.404762 4:-0.520661 5:-0.129032 6:-0.0545455 7:-0.431579 8:-0.484375 9:-0.15625 10:-0.0679612 11:-0.347368 12:-0.546875 13:-0.16129 14:-0.0769231 15:-0.326087 16:-0.491525 17:-0.1875 18:-0.0679612 19:-0.325301 20:-0.528455 21:-0.261538 22:-0.145631 23:-0.155556 24:-0.344 25:-0.28125 26:-0.25 27:-0.0804598 28:-0.25 29:-0.261538 30:-0.287129 31:-0.0947368 32:-0.15625 33:-0.40625 34:-0.359223 35:-0.157895 36:-0.15625 
0.44044867464398108 1:-0.15625 2:-0.127273 3:-0.214286 4:-0.289256 5:-0.129032 6:-0.0545455 7:-0.0947368 8:-0.265625 9:-0.28125 10:-0.145631 11:-0.263158 12:-0.4375 13:-0.225806 14:-0.192308 15:-0.456522 16:-0.40678 17:-0.125 18:-0.184466 19:-0.373494 20:-0.447154 21:-0.353846 22:-0.242718 23:-0.377778 24:-0.376 25:-0.375 26:-0.423077 27:-0.402299 28:-0.4 29:-0.569231 30:-0.465347 31:-0.473684 32:-0.359375 33:-0.5 34:-0.417476 35:-0.557895 36:-0.40625 
0.26676211024218199 1:-0.15625 2:-0.127273 3:-0.214286 4:-0.338843 5:-0.258065 6:-0.345455 7:-0.326316 8:-0.375 9:-0.15625 10:-0.145631 11:-0.326316 12:-0.4375 13:-0.225806 14:-0.115385 15:-0.456522 16:-0.457627 17:-0.375 18:-0.242718 19:-0.46988 20:-0.560976 21:-0.230769 22:-0.242718 23:-0.377778 24:-0.424 25:-0.25 26:-0.211538 27:-0.494253 28:-0.516667 29:-0.230769 30:-0.188119 31:-0.305263 32:-0.40625 33:0.125 34:0.165049 35:0.0526316 36:-0.1875 
0.20046825926018477 1:-0.15625 2:-0.127273 3:-0.309524 4:-0.520661 6:-0.0545455 7:-0.178947 8:-0.484375 9:-0.03125 10:0.00970874 11:-0.431579 12:-0.546875 13:0.0967742 14:0.0769231 15:-0.152174 16:-0.372881 17:-0.1875 18:0.00970874 19:-0.325301 20:-0.528455 21:-0.169231 22:-0.0679612 23:-0.422222 24:-0.456 25:0.09375 26:0.230769 27:-0.0804598 28:-0.366667 29:-0.0153846 30:0.128713 31:-0.157895 32:-0.390625 33:-0.28125 34:0.0485437 35:-0.326316 36:-0.453125 
0.95622156589092222 1:-0.15625 2:-0.127273 3:-0.404762 4:-0.438017 6:-0.0545455 7:-0.178947 8:-0.34375 9:-0.03125 10:0.00970874 11:-0.0947368 12:-0.34375 13:-0.16129 14:-0.153846 15:-0.413043 16:-0.440678 17:-0.1875 18:-0.0679612 19:-0.421687 20:-0.414634 21:-0.169231 22:-0.0679612 23:-0.155556 24:-0.344 25:-0.28125 26:-0.173077 27:-0.333333 28:-0.433333 29:-0.138462 30:-0.0891089 31:-0.242105 32:-0.328125 33:-0.03125 34:-0.0291262 35:-0.157895 36:-0.328125 
0.14995646856683151 1:-0.15625 2:-0.127273 3:-0.404762 4:-0.520661 5:-0.129032 6:-0.181818 7:-0.431579 8:-0.609375 9:-0.15625 10:-0.126214 11:-0.494737 12:-0.546875 13:-0.0322581 14:-0.153846 15:-0.413043 16:-0.559322 17:-0.28125 18:-0.223301 19:-0.686747 20:-0.658537 21:-0.261538 22:-0.223301 23:-0.577778 24:-0.584 25:-0.15625 26:-0.25 27:-0.563218 28:-0.683333 29:-0.138462 30:-0.227723 31:-0.536842 32:-0.625 33:-0.15625 34:-0.242718 35:-0.536842 36:-0.625 
0.30558832033261768 1:-0.15625 2:-0.127273 3:-0.571429 4:-0.520661 5:-0.129032 6:-0.272727 7:-0.578947 8:-0.59375 9:-0.375 10:-0.300971 11:-0.578947 12:-0.546875 13:-0.225806 14:-0.192308 15:-0.543478 16:-0.59322 17:-0.125 18:-0.184466 19:-0.566265 20:-0.626016 21:-0.230769 22:-0.242718 23:-0.622222 24:-0.6 25:-0.125 26:-0.211538 27:-0.586207 28:-0.633333 29:-0.230769 30:-0.128713 31:-0.389474 32:-0.53125 33:-0.125 34:-0.145631 35:-0.557895 36:-0.53125 
2.6942966043737342 1:-0.15625 2:-0.163636 3:-0.190476 4:-0.421488 6:-0.163636 7:-0.242105 8:-0.390625 9:-0.03125 10:-0.0291262 11:-0.157895 12:-0.328125 13:-0.129032 14:-0.153846 15:-0.369565 16:-0.457627 17:-0.0625 18:-0.0679612 19:-0.204819 20:-0.365854 21:-0.138462 22:-0.145631 23:-0.133333 24:-0.296 25:-0.25 26:-0.25 27:-0.425287 28:-0.483333 29:-0.230769 30:-0.227723 31:-0.326316 32:-0.4375 33:-0.25 34:-0.320388 35:-0.326316 36:-0.4375 
1.3690976296847068 1:-0.15625 2:-0.181818 3:-0.571429 4:-0.586777 5:-0.129032 6:-0.181818 7:-0.494737 8:-0.546875 9:-0.15625 10:-0.203883 11:-0.431579 12:-0.546875 13:-0.387097 14:-0.307692 15:-0.717391 16:-0.627119 17:-0.28125 18:-0.300971 19:-0.686747 20:-0.658537 21:-0.261538 22:-0.223301 23:-0.577778 24:-0.584 25:-0.28125 26:-0.25 27:-0.655172 28:-0.683333 29:-0.261538 30:-0.227723 31:-0.536842 32:-0.515625 33:-0.28125 34:-0.165049 35:-0.536842 36:-0.515625 
0.39163470816495871 1:-0.15625 2:-0.181818 3:-0.571429 4:-0.586777 5:-0.258065 6:-0.254545 7:-0.578947 8:-0.546875 9:-0.15625 10:-0.0679612 11:-0.494737 12:-0.484375 13:-0.387097 14:-0.442308 15:-0.565217 16:-0.627119 17:-0.1875 18:-0.223301 19:-0.421687 20:-0.528455 21:-0.261538 22:-0.145631 23:-0.488889 24:-0.52 25:-0.40625 26:-0.423077 27:-0.724138 28:-0.75 29:-0.384615 30:-0.346535 31:-0.536842 32:-0.5625 33:-0.28125 34:-0.242718 35:-0.389474 36:-0.453125 
0.74750107669207011 1:-0.15625 2:-0.2 3:-0.380952 4:-0.471074 5:-0.0322581 6:-0.127273 7:-0.178947 8:-0.3125 9:-0.15625 10:-0.145631 11:-0.178947 12:-0.3125 13:-0.225806 14:-0.25 15:-0.456522 16:-0.457627 17:-0.25 18:-0.242718 19:-0.373494 20:-0.495935 21:-0.230769 22:-0.320388 23:-0.288889 24:-0.424 25:0.125 26:0.153846 27:0.0804598 28:-0.216667 29:0.384615 30:0.346535 31:0.0526316 32:-0.125 33:0.125 34:0.0873786 35:-0.0315789 36:-0.296875 
0.60469207028342331 1:-0.15625 2:-0.254545 3:-0.119048 4:-0.239669 5:-0.129032 6:-0.254545 7:-0.178947 8:-0.21875 9:-0.28125 10:-0.203883 11:-0.263158 12:-0.21875 13:0.225806 14:0.0769231 15:-0.23913 16:-0.305085 17:-0.0625 18:0.00970874 19:-0.0361446 20:-0.284553 21:-0.0461538 22:0.00970874 23:-0.0666667 24:-0.168 25:0.34375 26:0.384615 27:0.195402 28:-0.316667 29:0.230769 30:0.128713 31:-0.0947368 32:-0.28125 33:-0.03125 34:0.0485437 35:-0.0947368 36:-0.21875 
0.00044795615934594416 1:-0.1875 2:-0.0545455 3:-0.333333 4:-0.504132 5:-0.16129 6:-0.0545455 7:-0.368421 8:-0.46875 9:-0.1875 10:0.00970874 11:-0.368421 12:-0.46875 14:-0.0384615 15:-0.369565 16:-0.474576 17:-0.15625 18:-0.0291262 19:-0.373494 20:-0.512195 21:-0.261538 22:-0.165049 23:-0.288889 24:-0.376 25:-0.15625 26:-0.153846 27:-0.333333 28:-0.483333 29:-0.261538 30:-0.128713 31:-0.326316 32:-0.4375 33:-0.375 34:-0.359223 35:-0.263158 36:-0.265625 
1.2792443749479081 1:-0.1875 2:-0.127273 3:-0.428571 4:-0.38843 5:-0.16129 6:-0.127273 7:-0.2 8:-0.359375 9:-0.0625 10:0.00970874 11:-0.2 12:-0.296875 13:-0.129032 14:-0.115385 15:-0.282609 16:-0.338983 17:-0.03125 18:-0.0291262 19:-0.180723 20:-0.382114 21:-0.0153846 22:0.0485437 23:-0.111111 24:-0.264 25:-0.0625 27:-0.264368 28:-0.35 29:0.0769231 30:0.128713 31:-0.178947 32:-0.265625 33:0.0625 34:0.106796 35:-0.0105263 36:-0.265625 
2.4577358254342037 1:-0.1875 2:-0.2 3:-0.333333 4:-0.256198 5:-0.387097 6:-0.345455 7:-0.2 8:-0.296875 9:-0.0625 10:-0.0679612 11:-0.115789 12:-0.234375 13:-0.129032 14:-0.25 15:-0.369565 16:-0.338983 17:-0.28125 18:-0.242718 19:-0.445783 20:-0.382114 21:-0.0153846 22:-0.0291262 23:-0.2 24:-0.312 25:0.0625 27:-0.0804598 28:-0.35 29:-0.138462 30:-0.049505 31:-0.178947 32:-0.3125 33:-0.28125 34:-0.300971 35:-0.326316 36:-0.375 
2.8073486807774422 1:-0.1875 2:-0.2 3:-0.428571 4:-0.454545 5:-0.16129 6:-0.127273 7:-0.368421 8:-0.359375 9:-0.1875 10:-0.0679612 11:-0.2 12:-0.359375 13:-0.258065 14:-0.173077 15:-0.369565 16:-0.40678 17:-0.15625 18:-0.106796 19:-0.277108 20:-0.382114 21:-0.0153846 22:-0.0291262 23:-0.111111 24:-0.312 25:-0.0625 26:0.0961538 27:-0.172414 28:-0.35 29:-0.0461538 30:0.029703 31:-0.263158 32:-0.3125 33:0.0625 34:0.106796 35:-0.178947 36:-0.265625 
1.6553478532982895 1:-0.28125 2:-0.0545455 3:-0.309524 4:-0.289256 5:-0.129032 6:-0.127273 7:-0.178947 8:-0.265625 9:-0.15625 10:0.00970874 11:-0.0947368 12:-0.265625 13:-0.354839 14:-0.192308 15:-0.456522 16:-0.338983 17:-0.25 18:-0.184466 19:-0.46988 20:-0.447154 21:-0.107692 22:-0.184466 23:-0.288889 24:-0.376 25:-0.375 26:-0.346154 27:-0.310345 28:-0.333333 29:-0.353846 30:-0.405941 31:-0.389474 32:-0.359375 33:-0.59375 34:-0.475728 35:-0.473684 36:-0.359375 
1.8035660046077489 1:-0.28125 2:-0.218182 3:-0.380952 4:-0.421488 5:-0.129032 6:-0.163636 7:-0.242105 8:-0.328125 9:-0.03125 10:-0.0291262 11:-0.157895 12:-0.328125 13:-0.0322581 14:0.0961538 15:-0.217391 16:-0.322034 17:-0.0625 18:0.00970874 19:-0.301205 20:-0.365854 21:0.0769231 22:0.106796 23:-0.133333 24:-0.248 25:0.125 26:0.288462 27:0.0344828 28:-0.183333 29:0.138462 30:0.227723 31:0.0105263 32:-0.15625 34:0.126214 35:-0.0736842 36:-0.21875 
1.224163826889868 1:-0.28125 2:-0.272727 3:-0.47619 4:-0.404959 5:-0.354839 6:-0.345455 7:-0.494737 8:-0.375 9:-0.375 10:-0.300971 11:-0.410526 12:-0.4375 13:0.0322581 14:0.0384615 15:-0.282609 16:-0.338983 17:-0.125 18:-0.106796 19:-0.46988 20:-0.495935 21:-0.230769 22:-0.242718 23:-0.466667 24:-0.424 25:0.25 26:0.307692 27:0.0804598 28:-0.216667 29:-0.0153846 30:0.029703 31:-0.136842 32:-0.296875 33:-0.125 34:-0.145631 35:-0.305263 36:-0.40625 
0.1951315649435483 1:-0.28125 2:-0.272727 3:-0.595238 4:-0.570248 5:-0.16129 6:-0.127273 7:-0.368421 8:-0.46875 9:-0.0625 10:0.00970874 11:-0.284211 12:-0.359375 13:-0.258065 14:-0.25 15:-0.586957 16:-0.542373 17:-0.28125 18:-0.165049 19:-0.542169 20:-0.512195 21:-0.138462 22:-0.106796 23:-0.355556 24:-0.44 25:-0.46875 26:-0.365385 27:-0.517241 28:-0.6 29:-0.261538 30:-0.287129 31:-0.494737 32:-0.484375 33:-0.28125 34:-0.359223 35:-0.578947 36:-0.484375 
4.4529585244851111 1:-0.28125 2:-0.290909 3:-0.452381 4:-0.355372 6:-0.0909091 7:-0.242105 8:-0.328125 9:-0.15625 10:-0.106796 11:-0.157895 12:-0.390625 13:-0.129032 14:-0.0769231 15:-0.217391 16:-0.322034 17:-0.28125 18:-0.300971 19:-0.373494 20:-0.430894 21:-0.138462 22:-0.145631 23:-0.288889 24:-0.424 25:-0.25 26:-0.115385 27:-0.425287 28:-0.483333 29:-0.353846 30:-0.227723 31:-0.410526 32:-0.5 33:-0.25 34:-0.242718 35:-0.410526 36:-0.4375 
0.44282767755098285 1:-0.28125 2:-0.290909 3:-0.619048 4:-0.487603 5:-0.387097 6:-0.454545 7:-0.473684 8:-0.453125 9:-0.5 10:-0.592233 11:-0.473684 12:-0.390625 13:-0.129032 14:-0.0769231 15:-0.543478 16:-0.508475 17:-0.375 18:-0.300971 19:-0.566265 20:-0.609756 21:-0.446154 22:-0.436893 23:-0.466667 24:-0.472 26:-0.0384615 27:-0.425287 28:-0.55 29:-0.230769 30:-0.0891089 31:-0.494737 32:-0.5625 33:-0.125 34:-0.0291262 35:-0.410526 36:-0.4375 
0.28605466484184688 1:-0.28125 2:-0.345455 3:-0.380952 4:-0.404959 5:-0.129032 6:-0.2 7:-0.326316 8:-0.4375 9:-0.0625 10:-0.0679612 11:-0.178947 12:-0.3125 13:-0.354839 14:-0.25 15:-0.456522 16:-0.525424 17:-0.25 18:-0.242718 19:-0.46988 20:-0.495935 21:-0.230769 22:-0.242718 23:-0.288889 24:-0.424 25:-0.25 26:-0.211538 27:-0.310345 28:-0.45 29:0.138462 30:0.188119 31:0.0526316 32:-0.1875 33:0.375 34:0.320388 35:0.0526316 36:-0.125 
0.34875411581230192 1:-0.375 2:-0.254545 3:-0.738095 4:-0.619835 5:-0.225806 6:-0.254545 7:-0.642105 8:-0.640625 9:-0.25 10:-0.339806 11:-0.726316 12:-0.640625 13:-0.258065 14:-0.211538 15:-0.630435 16:-0.576271 17:-0.28125 18:-0.281553 19:-0.662651 20:-0.609756 21:-0.261538 22:-0.339806 23:-0.711111 24:-0.6 25:-0.28125 26:-0.230769 27:-0.632184 28:-0.583333 29:-0.261538 30:-0.207921 31:-0.6 32:-0.59375 33:-0.40625 34:-0.300971 35:-0.6 36:-0.59375 
0.29223481299516918 1:-0.375 2:-0.345455 3:-0.571429 4:-0.404959 5:-0.354839 6:-0.345455 7:-0.410526 8:-0.4375 9:-0.28125 10:-0.145631 11:-0.578947 12:-0.484375 13:-0.0967742 14:-0.115385 15:-0.456522 16:-0.457627 17:-0.25 18:-0.242718 19:-0.566265 20:-0.495935 21:-0.230769 22:-0.106796 23:-0.288889 24:-0.376 25:-0.03125 27:-0.126437 28:-0.333333 29:-0.107692 30:-0.128713 31:-0.305263 32:-0.40625 33:-0.125 34:-0.145631 35:-0.305263 36:-0.359375 
0.71664133256767448 1:-0.40625 2:-0.345455 3:-0.190476 4:-0.239669 5:-0.258065 6:-0.163636 7:-0.326316 8:-0.453125 9:-0.15625 10:-0.0291262 11:-0.389474 12:-0.515625 13:-0.451613 14:-0.307692 15:-0.217391 16:-0.271186 17:-0.375 18:-0.223301 19:-0.46988 20:-0.495935 21:-0.261538 22:-0.0679612 23:-0.377778 24:-0.472 25:-0.46875 26:-0.461538 27:-0.333333 28:-0.366667 29:-0.446154 30:-0.366337 31:-0.494737 32:-0.390625 33:-0.375 34:-0.242718 35:-0.326316 36:-0.4375 
1.5979632958216077 1:-0.40625 2:-0.345455 3:-0.238095 4:-0.322314 5:-0.0322581 6:-0.127273 7:-0.115789 8:-0.234375 9:0.0625 10:0.165049 11:-0.115789 12:-0.234375 13:-0.258065 14:-0.25 15:-0.434783 16:-0.338983 17:-0.03125 18:-0.0291262 19:-0.277108 20:-0.382114 21:-0.138462 22:-0.106796 23:-0.111111 24:-0.376 25:-0.15625 26:-0.0769231 27:-0.172414 28:-0.35 29:-0.261538 30:-0.287129 31:-0.326316 32:-0.375 33:-0.15625 34:-0.145631 35:-0.326316 36:-0.4375 
0.37762973317798032 1:-0.40625 2:-0.345455 3:-0.452381 4:-0.355372 5:-0.387097 6:-0.4 7:-0.473684 8:-0.390625 9:-0.625 10:-0.475728 11:-0.473684 12:-0.390625 13:-0.354839 14:-0.153846 15:-0.369565 16:-0.457627 17:-0.28125 18:-0.223301 19:-0.46988 20:-0.430894 21:-0.353846 22:-0.300971 23:-0.466667 24:-0.36 25:0.125 26:0.115385 27:0.0344828 28:-0.3 29:0.0153846 30:0.0693069 31:-0.242105 32:-0.328125 33:-0.125 34:-0.106796 35:-0.410526 36:-0.4375 
0.42018184512609208 1:-0.40625 2:-0.345455 3:-0.595238 4:-0.570248 5:-0.258065 6:-0.272727 7:-0.515789 8:-0.59375 9:-0.28125 10:-0.223301 11:-0.6 12:-0.59375 13:-0.258065 14:-0.307692 15:-0.586957 16:-0.59322 17:-0.28125 18:-0.300971 19:-0.710843 20:-0.691057 21:-0.384615 22:-0.359223 23:-0.666667 24:-0.616 25:-0.59375 26:-0.5 27:-0.264368 28:-0.3 29:-0.353846 30:-0.346535 31:-0.494737 32:-0.59375 33:-0.46875 34:-0.359223 35:-0.578947 36:-0.546875 
0.84239216360287605 1:-0.40625 2:-0.4 3:-0.619048 4:-0.355372 5:-0.387097 6:-0.345455 7:-0.389474 8:-0.328125 9:-0.40625 10:-0.359223 11:-0.473684 12:-0.390625 13:-0.258065 14:-0.0769231 15:-0.217391 16:-0.322034 17:-0.375 18:-0.145631 19:-0.373494 20:-0.495935 21:-0.261538 22:-0.223301 23:-0.377778 24:-0.36 26:-0.0384615 27:-0.0574713 28:-0.3 29:0.138462 30:0.148515 31:0.0105263 32:-0.265625 34:0.0485437 35:-0.242105 36:-0.328125 
1.8180993109619921 1:-0.40625 2:-0.472727 3:-0.52381 4:-0.454545 5:-0.387097 6:-0.527273 7:-0.452632 8:-0.359375 9:-0.5 10:-0.572816 11:-0.515789 12:-0.359375 13:-0.258065 14:-0.307692 15:-0.586957 16:-0.542373 17:-0.28125 18:-0.242718 19:-0.614458 20:-0.512195 21:-0.384615 22:-0.417476 23:-0.444444 24:-0.44 25:-0.0625 27:-0.333333 28:-0.533333 29:-0.138462 30:-0.049505 31:-0.494737 32:-0.484375 33:-0.375 34:-0.300971 35:-0.494737 36:-0.546875 
1.2846850625634576 1:-0.40625 2:-0.472727 3:-0.595238 4:-0.636364 5:-0.16129 6:-0.272727 7:-0.368421 8:-0.46875 9:-0.28125 10:-0.145631 11:-0.515789 12:-0.53125 13:-0.387097 14:-0.423077 15:-0.73913 16:-0.728814 17:-0.40625 18:-0.359223 19:-0.614458 20:-0.626016 21:-0.261538 22:-0.242718 23:-0.355556 24:-0.44 25:-0.46875 26:-0.442308 27:-0.609195 28:-0.766667 29:-0.446154 30:-0.425743 31:-0.578947 32:-0.65625 33:-0.46875 34:-0.436893 35:-0.494737 36:-0.546875 
0.12415156979026004 1:-0.5 2:-0.509091 3:-0.547619 4:-0.487603 5:-0.129032 6:-0.163636 7:-0.326316 8:-0.453125 9:0.09375 10:0.106796 11:-0.157895 12:-0.390625 13:-0.451613 14:-0.5 15:-0.456522 16:-0.389831 17:-0.15625 18:-0.223301 19:-0.46988 20:-0.495935 21:-0.0461538 22:0.00970874 23:-0.133333 24:-0.424 25:-0.46875 26:-0.461538 27:-0.517241 28:-0.55 29:-0.230769 30:-0.227723 31:-0.410526 32:-0.4375 34:0.0485437 35:-0.242105 36:-0.390625 
0.70332440204632274 1:-0.71875 2:-0.654545 3:-0.690476 4:-0.454545 5:-0.612903 6:-0.527273 7:-0.515789 8:-0.421875 9:-0.40625 10:-0.359223 11:-0.515789 12:-0.46875 13:-0.612903 14:-0.480769 15:-0.521739 16:-0.40678 17:-0.625 18:-0.359223 19:-0.614458 20:-0.512195 21:-0.384615 22:-0.300971 23:-0.6 24:-0.376 25:-0.375 26:-0.307692 27:-0.517241 28:-0.416667 29:-0.353846 30:-0.287129 31:-0.410526 32:-0.4375 33:-0.28125 34:-0.145631 35:-0.578947 36:-0.484375 
0.14209030151601737 1:0.0625 2:-0.0545455 3:-0.119048 4:-0.338843 5:-0.129032 6:-0.127273 7:-0.178947 8:-0.3125 9:-0.28125 10:-0.300971 11:-0.326316 12:-0.375 13:0.0322581 14:0.0384615 15:-0.369565 16:-0.457627 17:-0.25 18:-0.106796 19:-0.46988 20:-0.495935 21:-0.353846 22:-0.242718 23:-0.377778 24:-0.488 25:-0.03125 26:-0.0769231 27:-0.310345 28:-0.583333 29:-0.230769 30:-0.188119 31:-0.473684 32:-0.46875 33:-0.25 34:-0.203883 35:-0.305263 36:-0.40625 
0.13049062573673642 1:0.0625 2:-0.0545455 3:-0.142857 4:-0.322314 5:0.0967742 6:-0.0545455 7:-0.2 8:-0.296875 9:0.0625 10:0.0873786 11:-0.2 12:-0.234375 14:-0.115385 15:-0.282609 16:-0.40678 17:-0.03125 18:-0.0291262 19:-0.180723 20:-0.382114 21:0.107692 22:0.242718 23:0.133333 24:-0.136 25:-0.0625 26:-0.0769231 27:-0.172414 28:-0.35 29:-0.138462 30:-0.128713 31:-0.178947 32:-0.3125 33:0.1875 34:0.184466 35:-0.0105263 36:-0.15625 
2.4634365105719813 1:0.0625 2:0.0181818 3:-0.238095 4:-0.322314 5:-0.16129 6:-0.2 7:-0.2 8:-0.359375 9:-0.40625 10:-0.359223 11:-0.284211 12:-0.359375 14:0.0384615 15:-0.130435 16:-0.288136 17:-0.03125 18:-0.0291262 19:-0.108434 20:-0.333333 21:-0.261538 22:-0.300971 23:-0.355556 24:-0.312 25:0.0625 26:0.0961538 27:-0.264368 28:-0.35 29:-0.0461538 30:0.128713 31:-0.178947 32:-0.3125 33:-0.15625 34:-0.223301 35:-0.263158 36:-0.3125 
0.079424489812191565 1:0.0625 2:0.0181818 3:-0.238095 4:-0.38843 5:0.0967742 6:0.0181818 7:-0.284211 8:-0.359375 9:0.0625 10:0.0873786 11:-0.368421 12:-0.359375 13:-0.129032 14:-0.115385 15:-0.521739 16:-0.542373 17:-0.28125 18:-0.242718 19:-0.614458 20:-0.626016 21:-0.261538 22:-0.165049 23:-0.511111 24:-0.504 25:-0.15625 26:-0.0769231 27:-0.517241 28:-0.533333 29:-0.138462 30:-0.207921 31:-0.578947 32:-0.59375 33:-0.375 34:-0.300971 35:-0.578947 36:-0.546875 
0.367170943566896 1:0.0625 2:0.0181818 3:-0.333333 4:-0.454545 5:0.0967742 6:0.0181818 7:-0.2 8:-0.359375 9:0.0625 10:0.0873786 11:-0.284211 12:-0.359375 13:0.129032 14:0.0961538 15:-0.195652 16:-0.40678 17:-0.15625 18:-0.106796 19:-0.542169 20:-0.577236 21:-0.261538 22:-0.242718 23:-0.511111 24:-0.552 25:-0.15625 27:-0.425287 28:-0.483333 29:-0.138462 30:-0.049505 31:-0.494737 32:-0.484375 33:-0.15625 34:-0.223301 35:-0.578947 36:-0.59375 
1.1172873968346249 1:0.0625 2:0.0363636 3:-0.309524 4:-0.404959 5:-0.129032 6:-0.127273 7:-0.326316 8:-0.375 9:-0.0625 10:-0.0679612 11:-0.263158 12:-0.375 13:0.0322581 14:-0.0384615 15:-0.195652 16:-0.338983 17:-0.125 18:-0.0291262 19:-0.180723 20:-0.382114 21:-0.107692 22:-0.106796 23:-0.2 24:-0.312 25:-0.25 26:-0.153846 27:-0.218391 28:-0.266667 29:-0.230769 30:-0.267327 31:-0.221053 32:-0.234375 33:-0.25 34:-0.203883 35:-0.221053 36:-0.234375 
1.7874554888952259 1:0.0625 2:0.0909091 3:-0.142857 4:-0.256198 5:0.0967742 6:-0.0545455 7:-0.115789 8:-0.296875 9:0.0625 10:0.00970874 11:-0.2 12:-0.296875 13:-0.129032 14:-0.115385 15:-0.195652 16:-0.40678 17:-0.03125 18:-0.106796 19:-0.277108 20:-0.447154 21:-0.0153846 22:-0.0291262 23:-0.111111 24:-0.312 25:-0.15625 26:-0.153846 27:-0.333333 28:-0.483333 29:-0.0461538 30:-0.049505 31:-0.178947 32:-0.3125 33:-0.15625 34:-0.145631 35:-0.178947 36:-0.3125 
0.77643110243795688 1:0.09375 2:-0.0181818 3:-0.380952 4:-0.421488 6:-0.0181818 7:-0.326316 8:-0.453125 9:-0.03125 10:-0.0291262 11:-0.389474 12:-0.390625 13:-0.129032 14:-0.0769231 15:-0.369565 16:-0.389831 17:-0.0625 18:-0.0679612 19:-0.301205 20:-0.430894 21:-0.0461538 22:-0.0679612 23:-0.288889 24:-0.36 25:-0.125 26:-0.0384615 27:-0.149425 28:-0.366667 29:-0.107692 30:-0.0891089 31:-0.242105 32:-0.328125 33:-0.125 34:-0.184466 35:-0.242105 36:-0.265625 
0.57572117565161984 1:0.09375 2:0.0181818 3:-0.047619 4:-0.239669 5:0.129032 6:0.163636 7:-0.0315789 8:-0.15625 9:0.21875 10:0.165049 11:-0.0315789 12:-0.28125 13:0.225806 14:0.230769 15:-0.0652174 16:-0.237288 17:-0.1875 18:-0.145631 19:-0.325301 20:-0.284553 21:-0.384615 22:-0.300971 23:-0.155556 24:-0.28 25:0.34375 26:0.173077 27:0.0114943 28:-0.25 29:-0.138462 30:-0.227723 31:-0.326316 32:-0.328125 33:-0.28125 34:-0.242718 35:-0.389474 36:-0.328125 
0.48441830321884677 1:0.09375 2:0.0363636 3:-0.190476 4:-0.421488 5:-0.129032 6:-0.163636 7:-0.389474 8:-0.515625 9:-0.28125 10:-0.242718 11:-0.536842 12:-0.515625 13:-0.129032 14:-0.0769231 15:-0.369565 16:-0.508475 17:-0.15625 18:-0.145631 19:-0.566265 20:-0.609756 21:-0.261538 22:-0.223301 23:-0.555556 24:-0.584 25:-0.375 26:-0.326923 27:-0.678161 28:-0.666667 29:-0.230769 30:-0.168317 31:-0.494737 32:-0.5 33:-0.25 34:-0.242718 35:-0.642105 36:-0.609375 
3.5573399198098783 1:0.09375 2:0.163636 3:-0.047619 4:-0.239669 5:0.129032 6:0.0181818 7:-0.178947 8:-0.34375 9:-0.03125 10:0.00970874 11:-0.263158 12:-0.40625 13:-0.0322581 15:-0.326087 16:-0.372881 17:-0.0625 18:0.00970874 19:-0.325301 20:-0.479675 21:-0.0461538 22:-0.145631 23:-0.488889 24:-0.456 25:-0.15625 26:-0.115385 27:-0.402299 28:-0.5 29:-0.261538 30:-0.227723 31:-0.473684 32:-0.515625 33:-0.28125 34:-0.300971 35:-0.536842 36:-0.5625 
0.88338011861207311 1:0.125 2:-0.0181818 3:-0.190476 4:-0.289256 5:0.16129 6:0.0545455 7:-0.157895 8:-0.328125 9:0.125 10:-0.0291262 11:-0.157895 12:-0.390625 14:0.0769231 15:-0.26087 16:-0.372881 17:-0.125 18:-0.0679612 19:-0.445783 20:-0.463415 21:-0.0153846 22:-0.0679612 23:-0.355556 24:-0.456 25:-0.03125 26:-0.0769231 27:-0.264368 28:-0.45 29:-0.0153846 30:-0.049505 31:-0.494737 32:-0.484375 33:-0.15625 34:-0.126214 35:-0.578947 36:-0.546875 
0.63370415803180258 1:0.125 2:0.0909091 3:-0.166667 4:-0.256198 5:0.16129 6:0.163636 7:-0.0315789 8:-0.296875 9:0.125 10:0.242718 11:-0.136842 12:-0.359375 15:-0.130435 16:-0.355932 17:-0.03125 18:0.00970874 19:-0.301205 20:-0.463415 21:-0.0153846 22:-0.203883 23:-0.4 24:-0.472 25:-0.1875 26:-0.153846 27:-0.54023 28:-0.583333 29:-0.261538 30:-0.287129 31:-0.663158 32:-0.640625 33:-0.40625 34:-0.300971 35:-0.663158 36:-0.640625 
0.32144161572973473 1:0.125 2:0.163636 3:-0.166667 4:-0.38843 5:0.16129 6:0.0181818 7:-0.221053 8:-0.359375 9:-0.125 10:0.00970874 11:-0.389474 12:-0.46875 14:-0.211538 15:-0.478261 16:-0.508475 17:-0.15625 18:-0.126214 19:-0.566265 20:-0.609756 21:-0.138462 22:-0.126214 23:-0.466667 24:-0.536 25:-0.40625 26:-0.307692 27:-0.701149 28:-0.7 29:-0.384615 30:-0.287129 31:-0.663158 32:-0.59375 33:-0.28125 34:-0.300971 35:-0.6 36:-0.59375 
1.1101593740427154 1:0.1875 2:0.0363636 3:-0.119048 4:-0.22314 5:-0.258065 6:-0.127273 7:-0.178947 8:-0.3125 9:-0.375 10:-0.145631 11:-0.326316 12:-0.4375 13:-0.0967742 14:-0.0384615 15:-0.0217391 16:-0.220339 18:-0.0291262 19:-0.0843373 20:-0.317073 21:0.138462 22:0.126214 23:0.0666667 24:-0.248 25:-0.25 26:-0.211538 27:0.264368 28:-0.0333333 29:-0.0153846 30:0.108911 31:0.0526316 32:-0.1875 33:0.25 34:0.398058 35:0.136842 36:-0.125 
0.41055611457942953 1:0.1875 2:0.254545 3:-0.142857 4:-0.206612 5:0.0967742 6:0.163636 7:-0.0315789 8:-0.234375 9:0.0625 10:0.165049 11:-0.115789 12:-0.296875 14:-0.115385 15:-0.434783 16:-0.474576 17:-0.03125 18:-0.0291262 19:-0.373494 20:-0.447154 21:-0.138462 22:-0.0291262 23:-0.2 24:-0.376 25:-0.0625 26:-0.153846 27:-0.517241 28:-0.6 29:-0.261538 30:-0.207921 31:-0.494737 32:-0.546875 33:-0.375 34:-0.223301 35:-0.642105 36:-0.59375 
0.081397989906278001 1:0.21875 2:0.0909091 3:-0.047619 4:-0.305785 5:0.258065 6:0.0909091 7:-0.178947 8:-0.34375 9:0.21875 10:0.165049 11:0.0526316 12:-0.28125 13:-0.387097 14:-0.307692 15:-0.23913 16:-0.305085 17:-0.0625 18:-0.0679612 19:-0.13253 20:-0.284553 21:0.0769231 22:0.165049 23:-0.0666667 24:-0.216 25:-0.28125 26:-0.25 27:-0.402299 28:-0.366667 29:-0.0153846 30:-0.00990099 31:-0.242105 32:-0.328125 33:-0.15625 34:-0.106796 35:-0.157895 36:-0.390625 
0.1364698150634682 1:0.21875 2:0.309091 3:0.285714 4:-0.123967 6:-0.0909091 7:-0.242105 8:-0.28125 9:-0.40625 10:-0.359223 11:-0.536842 12:-0.328125 13:0.0967742 14:0.173077 15:0.23913 16:0.0338983 17:0.1875 18:0.106796 19:-0.108434 20:-0.252033 21:-0.261538 22:-0.0679612 23:-0.133333 24:-0.296 25:-0.125 26:-0.115385 27:0.333333 28:-0.05 29:-0.107692 30:-0.00990099 31:0.0105263 32:-0.21875 34:-0.0291262 35:-0.0736842 36:-0.265625 
0.79218712497104404 1:0.3125 2:0.254545 3:0.047619 4:-0.256198 5:-0.0322581 6:-0.0545455 7:-0.284211 8:-0.421875 9:-0.0625 10:-0.0679612 11:-0.452632 12:-0.46875 13:-0.129032 14:-0.115385 15:-0.434783 16:-0.542373 17:-0.28125 18:-0.242718 19:-0.614458 20:-0.577236 21:-0.138462 22:-0.165049 23:-0.511111 24:-0.504 25:-0.15625 26:-0.153846 27:-0.517241 28:-0.6 29:-0.261538 30:-0.207921 31:-0.578947 32:-0.59375 33:-0.15625 34:-0.145631 35:-0.578947 36:-0.546875 
0.013660743061137041 1:0.5625 2:0.490909 3:0.238095 4:-0.0743802 5:0.483871 6:0.4 7:0.221053 8:-0.125 9:0.0625 10:0.242718 11:-0.115789 12:-0.296875 13:0.129032 14:0.0961538 15:-0.195652 16:-0.40678 17:0.09375 18:-0.0291262 19:-0.373494 20:-0.626016 21:-0.138462 22:-0.106796 23:-0.444444 24:-0.68 25:-0.15625 26:-0.153846 27:-0.517241 28:-0.65 29:-0.138462 30:-0.207921 31:-0.578947 32:-0.703125 33:-0.28125 34:-0.223301 35:-0.578947 36:-0.65625 
2.5471209059605919 2:-0.0181818 3:-0.380952 4:-0.421488 5:0.0322581 6:-0.0909091 7:-0.326316 8:-0.390625 9:-0.125 10:-0.0291262 11:-0.157895 12:-0.328125 14:-0.0769231 15:-0.26087 16:-0.0677966 17:-0.03125 18:-0.0679612 19:-0.349398 20:-0.414634 21:-0.107692 22:-0.0679612 23:-0.266667 24:-0.392 25:-0.15625 26:-0.211538 27:-0.356322 28:-0.45 29:-0.138462 30:-0.108911 31:-0.263158 32:-0.40625 33:-0.15625 34:-0.0679612 35:-0.347368 36:-0.40625 
0.055033857730915105 2:-0.0181818 3:-0.380952 4:-0.471074 5:-0.225806 6:-0.163636 7:-0.410526 8:-0.4375 9:-0.375 10:-0.242718 11:-0.410526 12:-0.5 14:-0.0769231 15:-0.347826 16:-0.559322 17:-0.25 18:-0.203883 19:-0.542169 20:-0.528455 21:-0.230769 22:-0.203883 23:-0.266667 24:-0.392 25:0.21875 26:0.153846 27:-0.0114943 28:-0.383333 29:-0.138462 30:-0.049505 31:-0.347368 32:-0.484375 33:0.09375 34:0.0873786 35:-0.0315789 36:-0.21875 
-0.658348619066632 1:-0.03125 2:-0.0545455 3:-0.047619 4:-0.239669 5:0.258065 6:0.236364 7:-0.0315789 8:-0.21875 9:0.21875 10:0.320388 11:-0.0315789 12:-0.21875 13:-0.258065 14:-0.230769 15:0.195652 16:0.0677966 17:-0.0625 18:-0.0679612 19:0.156627 20:-0.170732 21:0.0769231 22:0.165049 23:-0.0666667 24:-0.216 25:-0.28125 26:-0.25 27:0.0114943 29:-0.138462 30:-0.00990099 31:0.263158 32:-0.046875 33:0.09375 34:0.242718 35:-0.0105263 36:-0.21875 
-2.5667718477587163 1:-0.03125 2:-0.127273 3:-0.261905 4:-0.0909091 6:-0.127273 7:-0.305263 8:-0.359375 9:-0.125 10:-0.0679612 11:-0.305263 12:-0.40625 13:-0.129032 14:-0.211538 15:-0.391304 16:-0.423729 17:-0.15625 18:-0.126214 19:-0.301205 20:-0.463415 21:-0.138462 22:-0.0679612 23:-0.311111 24:-0.392 25:-0.1875 26:-0.153846 27:-0.37931 28:-0.466667 29:-0.261538 30:-0.128713 31:-0.515789 32:-0.421875 33:-0.1875 34:-0.145631 35:-0.368421 36:-0.421875 
-0.043840025905738184 1:-0.03125 2:-0.127273 3:-0.261905 4:-0.322314 5:-0.225806 6:-0.2 7:-0.221053 8:-0.234375 9:-0.25 10:-0.281553 11:-0.221053 12:-0.234375 14:-0.0769231 15:-0.130435 16:-0.220339 17:-0.15625 18:-0.203883 19:-0.108434 20:-0.268293 21:-0.138462 22:-0.203883 23:-0.133333 24:-0.2 25:0.1875 26:0.230769 27:-0.0114943 28:-0.266667 29:0.2 30:0.108911 31:-0.2 32:-0.296875 33:-0.0625 34:0.00970874 35:-0.0315789 36:-0.234375 
-0.89240672077978889 1:-0.03125 2:-0.2 3:-0.261905 4:-0.322314 5:-0.354839 6:-0.381818 7:-0.221053 8:-0.296875 9:-0.5 10:-0.417476 11:-0.221053 12:-0.296875 15:-0.130435 16:-0.355932 17:-0.15625 18:-0.203883 19:-0.204819 20:-0.333333 21:-0.261538 22:-0.339806 23:-0.0444444 24:-0.2 25:-0.1875 26:-0.0769231 27:-0.195402 28:-0.4 29:-0.0461538 30:0.029703 31:-0.2 32:-0.296875 33:-0.0625 34:0.00970874 35:-0.2 36:-0.296875 
-0.22116825986734204 1:-0.03125 2:0.0181818 3:-0.404762 4:-0.520661 5:-0.516129 6:-0.381818 7:-0.726316 8:-0.734375 9:-0.65625 10:-0.475728 11:-0.642105 12:-0.671875 13:0.225806 14:0.326923 15:0.108696 16:-0.186441 17:-0.1875 18:0.00970874 19:-0.518072 20:-0.593496 21:-0.384615 22:-0.436893 23:-0.644444 24:-0.76 25:0.21875 26:0.307692 27:0.195402 28:-0.183333 29:0.107692 30:0.128713 31:-0.157895 32:-0.390625 33:-0.28125 34:-0.242718 35:-0.621053 36:-0.6875 
-0.20082726867411704 1:-0.03125 2:0.163636 3:0.47619 4:-0.0247934 5:0.16129 6:0.236364 7:0.515789 8:0.09375 9:0.125 10:0.398058 11:0.515789 12:0.046875 13:0.129032 14:0.384615 15:0.413043 16:0.0677966 17:0.09375 18:0.398058 19:0.493976 20:0.00813008 21:0.107692 22:0.398058 23:0.511111 24:0.072 25:-0.0625 26:0.326923 27:0.356322 28:-0.0333333 29:-0.0461538 30:0.366337 31:0.410526 32:-0.015625 33:0.0625 34:0.242718 35:0.305263 36:0.046875 
-2.6858895632482356 1:-0.0625 2:-0.127273 3:-0.309524 4:-0.404959 5:-0.0322581 6:-0.127273 7:-0.326316 8:-0.375 9:-0.15625 10:0.00970874 11:-0.326316 12:-0.375 13:-0.0967742 14:-0.115385 15:-0.282609 16:-0.338983 17:-0.125 18:-0.184466 19:-0.277108 20:-0.317073 21:-0.107692 22:-0.184466 23:-0.2 24:-0.312 25:-0.25 26:-0.211538 27:-0.218391 28:-0.266667 29:-0.230769 30:-0.128713 31:-0.221053 32:-0.296875 33:-0.25 34:-0.145631 35:-0.221053 36:-0.234375 
-0.33658206574348615 1:-0.0625 2:-0.2 3:-0.571429 4:-0.586777 5:-0.258065 6:-0.272727 7:-0.494737 8:-0.546875 9:-0.375 10:-0.223301 11:-0.642105 12:-0.59375 13:0.0322581 14:0.0384615 15:-0.108696 16:-0.457627 17:-0.25 18:-0.184466 19:-0.638554 20:-0.626016 21:-0.446154 22:-0.456311 23:-0.777778 24:-0.728 25:-0.03125 27:-0.310345 28:-0.45 29:-0.107692 30:-0.049505 31:-0.389474 32:-0.46875 33:-0.25 34:-0.281553 35:-0.557895 36:-0.578125 
-0.90206479136630413 1:-0.0625 2:0.0363636 3:-0.380952 4:-0.471074 5:-0.129032 6:-0.0545455 7:-0.410526 8:-0.484375 9:-0.28125 10:-0.145631 11:-0.410526 12:-0.546875 13:-0.225806 14:-0.192308 15:-0.608696 16:-0.59322 17:-0.25 18:-0.242718 19:-0.73494 20:-0.674797 21:-0.230769 22:-0.320388 23:-0.533333 24:-0.664 25:-0.375 26:-0.423077 27:-0.678161 28:-0.75 29:-0.353846 30:-0.405941 31:-0.642105 32:-0.6875 33:-0.5 34:-0.475728 35:-0.642105 36:-0.6875 
-0.050094851082402581 1:-0.0625 2:0.0909091 3:0.333333 4:0.107438 5:0.354839 6:0.163636 7:0.221053 8:-0.125 9:-0.28125 10:-0.300971 11:-0.2 12:-0.234375 13:0.258065 14:0.230769 15:0.434783 16:0.101695 17:0.21875 18:0.398058 19:0.301205 20:-0.154472 21:-0.0153846 22:-0.0291262 23:-0.2 24:-0.264 25:-0.0625 26:0.173077 27:0.402299 28:0.05 29:0.0769231 30:0.207921 31:0.263158 32:0.015625 33:0.1875 34:0.106796 35:-0.0947368 36:-0.203125 
-0.071267597362824786 1:-0.0625 2:0.109091 3:0.380952 4:0.0578512 5:0.0967742 6:0.109091 7:0.263158 8:0.015625 9:0.1875 10:0.106796 11:-0.0947368 12:-0.203125 13:-0.0967742 14:-0.192308 15:0.26087 16:0.101695 17:-0.125 18:-0.106796 19:0.325301 20:-0.0731707 21:-0.107692 22:-0.0291262 23:0.0666667 24:-0.2 25:-0.375 26:-0.346154 27:0.264368 28:0.0833333 29:-0.230769 30:-0.326733 31:0.221053 32:0.09375 33:-0.25 34:-0.203883 35:0.221053 36:-0.015625 
-7.0274943793108289 1:-0.125 2:-0.127273 3:-0.261905 4:-0.322314 5:-0.0967742 6:-0.127273 7:-0.305263 8:-0.40625 9:-0.125 10:-0.145631 11:-0.305263 12:-0.359375 13:-0.129032 14:-0.134615 15:-0.391304 16:-0.423729 17:-0.15625 18:-0.126214 19:-0.39759 20:-0.463415 21:-0.0153846 22:-0.126214 23:-0.4 24:-0.392 25:-0.1875 26:-0.0769231 27:-0.287356 28:-0.4 29:-0.169231 30:-0.128713 31:-0.284211 32:-0.359375 33:-0.1875 34:-0.145631 35:-0.368421 36:-0.421875 
-10 1:-0.125 2:-0.163636 3:-0.285714 4:-0.355372 5:0.0322581 6:-0.0181818 7:-0.242105 8:-0.328125 10:-0.0291262 11:-0.157895 12:-0.328125 13:-0.0967742 14:-0.153846 15:-0.26087 16:-0.305085 17:-0.125 18:-0.0679612 19:-0.253012 20:-0.349593 21:-0.107692 22:-0.0679612 23:-0.266667 24:-0.392 25:-0.15625 26:-0.134615 27:-0.264368 28:-0.383333 29:-0.138462 30:-0.108911 31:-0.347368 32:-0.40625 33:-0.15625 34:-0.126214 35:-0.347368 36:-0.40625 
-4.4607202347460522 1:-0.125 2:-0.2 3:-0.261905 4:-0.322314 5:-0.0967742 6:-0.127273 7:-0.221053 8:-0.296875 9:-0.125 10:-0.0679612 11:-0.305263 12:-0.40625 13:-0.129032 14:-0.134615 15:-0.304348 16:-0.355932 17:-0.15625 18:-0.126214 19:-0.39759 20:-0.463415 21:-0.138462 22:-0.126214 23:-0.311111 24:-0.392 25:-0.1875 26:-0.153846 27:-0.103448 28:-0.333333 29:-0.169231 30:-0.049505 31:-0.284211 32:-0.359375 33:-0.1875 34:-0.145631 35:-0.284211 36:-0.359375 
-1.6917434873477204 1:-0.125 2:-0.2 3:-0.357143 4:-0.38843 6:-0.127273 7:-0.221053 8:-0.078125 9:-0.03125 10:-0.0679612 11:-0.305263 12:-0.359375 14:-0.134615 15:-0.478261 16:-0.423729 17:-0.15625 18:-0.203883 19:-0.39759 20:-0.463415 21:-0.138462 22:-0.126214 23:-0.222222 24:-0.392 25:-0.1875 26:-0.153846 27:-0.37931 28:-0.466667 29:-0.169231 30:-0.128713 31:-0.368421 32:-0.421875 33:-0.28125 34:-0.145631 35:-0.515789 36:-0.421875 
-4.8819747422620932 1:-0.15625 2:-0.0545455 3:-0.380952 4:-0.404959 5:-0.0322581 6:-0.0545455 7:-0.263158 8:-0.3125 9:0.0625 10:0.106796 11:-0.0947368 12:-0.3125 13:-0.0967742 14:-0.192308 15:-0.282609 16:-0.338983 17:-0.125 18:-0.106796 19:-0.277108 20:-0.382114 21:0.0153846 22:0.0485437 23:-0.2 24:-0.312 25:-0.25 26:-0.153846 27:-0.218391 28:-0.266667 29:-0.107692 30:-0.128713 31:-0.221053 32:-0.296875 33:-0.125 34:-0.0679612 35:-0.221053 36:-0.296875 
-0.10001134397985177 1:-0.15625 2:-0.0545455 3:-0.5 4:-0.520661 5:-0.129032 6:-0.127273 7:-0.347368 8:-0.546875 9:-0.15625 10:-0.0679612 11:-0.431579 12:-0.484375 13:-0.16129 14:-0.0769231 15:-0.326087 16:-0.491525 17:-0.28125 18:-0.145631 19:-0.228916 20:-0.414634 21:-0.261538 22:-0.300971 23:-0.155556 24:-0.28 25:-0.28125 26:-0.307692 27:-0.0804598 28:-0.183333 29:-0.384615 30:-0.346535 31:-0.157895 32:-0.15625 33:-0.40625 34:-0.417476 35:-0.0105263 36:-0.109375 
-7.2309311498445314 1:-0.15625 2:-0.0909091 3:-0.380952 4:-0.487603 6:-0.0909091 7:-0.326316 8:-0.453125 9:-0.15625 10:-0.0291262 11:-0.326316 12:-0.453125 13:-0.129032 14:-0.0769231 15:-0.369565 16:-0.508475 17:-0.15625 18:-0.145631 19:-0.373494 20:-0.495935 21:-0.261538 22:-0.145631 23:-0.288889 24:-0.424 26:-0.0384615 27:-0.333333 28:-0.55 29:-0.107692 30:-0.168317 31:-0.410526 32:-0.4375 33:-0.25 34:-0.320388 35:-0.326316 36:-0.390625 
-0.23909740880925309 1:-0.15625 2:-0.0909091 3:-0.547619 4:-0.487603 5:-0.129032 6:-0.218182 7:-0.621053 8:-0.5625 9:-0.40625 10:-0.417476 11:-0.894737 12:-0.796875 13:-0.451613 14:-0.307692 15:-0.782609 16:-0.694915 17:-0.59375 18:-0.359223 19:-0.831325 20:-0.772358 21:-0.446154 22:-0.436893 23:-0.866667 24:-0.76 25:-0.59375 26:-0.461538 27:-0.83908 28:-0.866667 29:-0.446154 30:-0.366337 31:-0.705263 32:-0.671875 33:-0.375 34:-0.378641 35:-0.642105 36:-0.609375 
-0.44593193642626444 1:-0.15625 2:-0.127273 3:-0.380952 4:-0.520661 5:-0.129032 6:-0.2 7:-0.326316 8:-0.4375 9:-0.28125 10:-0.145631 11:-0.326316 12:-0.4375 13:0.0322581 14:-0.0384615 15:-0.369565 16:-0.525424 17:-0.125 18:-0.184466 19:-0.46988 20:-0.495935 21:-0.230769 22:-0.320388 23:-0.288889 24:-0.376 25:-0.03125 27:-0.310345 28:-0.516667 29:-0.230769 30:-0.188119 31:-0.305263 32:-0.40625 33:-0.375 34:-0.339806 35:-0.305263 36:-0.359375 
-1.8329299490303272 1:-0.15625 2:-0.163636 3:-0.190476 4:-0.305785 5:-0.129032 6:-0.163636 7:-0.157895 8:-0.28125 9:-0.28125 10:-0.165049 11:-0.242105 12:-0.28125 13:-0.129032 14:-0.0769231 15:-0.217391 16:-0.271186 17:-0.15625 18:-0.0679612 19:-0.204819 20:-0.252033 21:-0.138462 22:0.00970874 23:-0.0444444 24:-0.248 26:0.115385 27:-0.0574713 28:-0.183333 29:0.261538 30:0.326733 31:0.0947368 32:-0.15625 33:0.25 34:0.300971 35:0.0947368 36:-0.15625 
-3.9235499968367575 1:-0.15625 2:-0.181818 3:-0.309524 4:-0.438017 5:-0.129032 6:-0.127273 7:-0.347368 8:-0.40625 9:-0.03125 10:0.00970874 11:-0.178947 12:-0.34375 13:-0.258065 14:-0.153846 15:-0.565217 16:-0.440678 17:-0.1875 18:-0.145631 19:-0.421687 20:-0.479675 21:-0.169231 22:-0.0679612 23:-0.333333 24:-0.344 25:-0.28125 26:-0.25 27:-0.333333 28:-0.433333 29:-0.261538 30:-0.148515 31:-0.326316 32:-0.390625 33:-0.15625 34:-0.106796 35:-0.242105 36:-0.328125 
-2.2287385375326227 1:-0.15625 2:-0.181818 3:-0.404762 4:-0.438017 5:-0.129032 6:-0.327273 7:-0.347368 8:-0.40625 9:-0.40625 10:-0.339806 11:-0.431579 12:-0.34375 13:-0.0322581 14:-0.0769231 15:-0.5 16:-0.440678 17:-0.1875 18:-0.145631 19:-0.421687 20:-0.479675 21:-0.169231 22:-0.300971 23:-0.422222 24:-0.408 25:-0.03125 26:0.0384615 27:-0.333333 28:-0.433333 29:-0.0153846 30:-0.00990099 31:-0.242105 32:-0.390625 33:-0.15625 34:-0.106796 35:-0.473684 36:-0.515625 
-0.40444115479846687 1:-0.15625 2:-0.218182 3:-0.714286 4:-0.603306 5:-0.387097 6:-0.454545 7:-0.894737 8:-0.796875 9:-0.625 10:-0.533981 11:-0.831579 12:-0.796875 13:-0.580645 14:-0.365385 15:-0.782609 16:-0.745763 17:-0.46875 18:-0.436893 19:-1 20:-0.837398 21:-0.569231 22:-0.495146 23:-0.777778 24:-0.76 25:-0.46875 26:-0.384615 27:-0.747126 28:-0.733333 29:-0.353846 30:-0.366337 31:-0.642105 32:-0.609375 33:-0.375 34:-0.378641 35:-0.557895 36:-0.5625 
-1.844172956661519 1:-0.15625 2:-0.254545 3:-0.214286 4:-0.239669 5:-0.258065 6:-0.254545 7:-0.263158 8:-0.21875 9:-0.15625 10:-0.203883 11:-0.178947 12:-0.21875 13:-0.0322581 15:-0.0652174 16:-0.237288 17:-0.0625 18:0.00970874 19:-0.13253 20:-0.235772 21:-0.0461538 22:-0.223301 23:-0.155556 24:-0.216 25:0.21875 26:0.0961538 27:-0.0804598 28:-0.316667 29:-0.0153846 30:0.0693069 31:-0.0947368 32:-0.21875 33:-0.03125 34:-0.0291262 35:-0.0947368 36:-0.21875 
-0.57196748415963194 1:-0.15625 2:-0.327273 3:-0.404762 4:-0.438017 5:-0.387097 6:-0.381818 7:-0.431579 8:-0.34375 9:-0.53125 10:-0.475728 11:-0.263158 12:-0.40625 13:-0.16129 14:-0.153846 15:-0.413043 16:-0.440678 17:-0.1875 18:-0.300971 19:-0.518072 20:-0.479675 21:-0.384615 22:-0.359223 23:-0.488889 24:-0.456 25:-0.03125 26:-0.0384615 27:-0.241379 28:-0.433333 29:-0.138462 30:-0.0891089 31:-0.473684 32:-0.515625 33:-0.28125 34:-0.242718 35:-0.621053 36:-0.5625 
-1.7109617247077618 1:-0.15625 2:0.109091 3:0.0714286 4:-0.123967 5:-0.129032 6:0.163636 7:0.157895 8:-0.15625 9:-0.15625 10:0.242718 11:-0.0105263 12:-0.21875 13:-0.129032 14:0.173077 15:0.23913 16:-0.0338983 17:-0.28125 18:0.184466 19:0.180723 20:-0.203252 21:-0.0461538 22:0.184466 23:0.222222 24:-0.136 26:0.288462 27:0.333333 29:0.138462 30:0.227723 31:0.368421 32:0.015625 34:0.203883 35:0.284211 36:-0.03125 
-0.57382929630771806 1:-0.15625 2:0.109091 3:0.166667 4:-0.123967 5:-0.258065 6:-0.163636 7:-0.0105263 8:-0.109375 9:-0.40625 10:-0.165049 11:0.157895 12:0.015625 13:-0.0322581 14:0.25 15:0.23913 16:-0.152542 17:-0.375 18:-0.0679612 19:0.0843373 20:-0.203252 21:-0.353846 22:-0.0679612 23:0.133333 24:-0.136 25:0.125 26:0.192308 27:0.126437 28:-0.3 29:-0.230769 30:-0.00990099 31:-0.0736842 32:-0.265625 33:-0.375 34:-0.0291262 35:-0.0736842 36:-0.265625 
-1.9337866635055387 1:-0.15625 2:0.309091 3:0.285714 4:-0.123967 5:-0.129032 6:0.236364 7:0.157895 8:-0.109375 9:-0.15625 10:0.184466 11:0.0736842 12:-0.109375 13:-0.258065 14:0.25 15:0.23913 16:-0.0847458 17:-0.15625 18:0.262136 19:0.301205 20:-0.0894309 21:-0.138462 22:0.184466 23:0.333333 24:-0.024 25:-0.25 26:0.115385 27:0.333333 28:-0.116667 29:-0.107692 30:0.227723 31:0.368421 32:0.015625 34:0.300971 35:0.284211 36:0.015625 
-0.91517910447645379 1:-0.1875 2:-0.0545455 3:-0.428571 4:-0.504132 5:-0.16129 6:-0.0545455 7:-0.368421 8:-0.46875 9:-0.1875 10:-0.0679612 11:-0.284211 12:-0.46875 13:-0.129032 14:-0.0384615 15:-0.369565 16:-0.474576 17:-0.28125 18:-0.165049 19:-0.373494 20:-0.447154 21:-0.261538 22:-0.242718 23:-0.0444444 24:-0.2 25:-0.28125 26:-0.153846 27:-0.333333 28:-0.483333 29:-0.353846 30:-0.346535 31:-0.263158 32:-0.265625 33:-0.375 34:-0.359223 35:-0.0947368 36:-0.15625 
-0.43569409883658833 1:-0.1875 2:0.0181818 3:0.452381 4:0.107438 5:-0.0322581 6:0.0909091 7:0.305263 8:0.109375 9:0.3125 10:0.242718 11:0.221053 12:-0.125 13:0.129032 14:0.230769 15:0.23913 16:0.0338983 17:0.21875 18:0.242718 19:0.518072 20:0.0406504 21:0.230769 22:0.398058 23:0.333333 24:-0.088 25:0.0625 26:0.25 27:0.310345 29:-0.0461538 30:0.207921 31:0.347368 32:0.0625 33:0.0625 34:0.184466 35:0.263158 36:0.015625 
-3.0548452214561519 1:-0.1875 2:0.4 3:0.238095 4:-0.0247934 5:-0.16129 6:0.163636 7:0.136842 8:-0.0625 9:-0.1875 10:0.165049 11:0.136842 12:-0.125 13:-0.129032 14:0.307692 15:0.130435 16:-0.101695 17:-0.15625 18:0.184466 19:0.0843373 20:-0.154472 21:-0.138462 22:0.242718 23:0.222222 24:-0.136 25:-0.15625 26:0.25 27:0.310345 28:-0.0666667 29:-0.138462 30:0.207921 31:0.263158 32:-0.046875 33:-0.28125 34:0.184466 35:0.157895 36:-0.15625 
-0.39479680717539423 1:-0.25 2:-0.163636 3:-0.642857 4:-0.652893 5:-0.354839 6:-0.290909 7:-0.494737 8:-0.5 9:-0.375 10:-0.184466 11:-0.242105 12:-0.265625 14:-0.0769231 15:-0.347826 16:-0.559322 17:-0.375 18:-0.203883 19:-0.638554 20:-0.593496 21:-0.230769 22:-0.0679612 23:-0.0888889 24:-0.216 25:0.375 26:0.384615 27:0.172414 28:-0.25 29:-0.0153846 30:0.267327 31:-0.0947368 32:-0.34375 33:0.09375 34:0.398058 35:0.242105 36:-0.15625 
-0.39992181930468301 1:-0.25 2:-0.2 3:0.238095 4:0.0413223 5:-0.0967742 6:-0.127273 7:0.221053 8:0.046875 9:-0.03125 10:0.165049 11:0.221053 12:-0.078125 13:-0.129032 14:0.153846 15:0.304348 16:0.0677966 17:-0.15625 18:0.320388 19:0.277108 20:-0.0569106 21:0.107692 22:0.398058 23:0.2 24:-0.136 25:-0.1875 26:0.0769231 27:0.264368 28:0.0333333 29:-0.169231 30:0.188119 31:0.136842 32:-0.0625 33:-0.28125 34:0.165049 35:0.136842 36:-0.0625 
-0.05644474856171712 1:-0.25 2:-0.236364 3:-0.47619 4:-0.421488 5:-0.0967742 6:-0.236364 7:-0.326316 8:-0.390625 9:-0.375 10:-0.242718 11:-0.410526 12:-0.390625 13:-0.354839 14:-0.423077 15:-0.434783 16:-0.372881 17:-0.59375 18:-0.475728 19:-0.542169 20:-0.414634 21:-0.476923 22:-0.417476 23:-0.533333 24:-0.392 25:-0.65625 26:-0.596154 27:-0.356322 28:-0.25 29:-0.723077 30:-0.70297 31:-0.494737 32:-0.28125 33:-0.75 34:-0.592233 35:-0.642105 36:-0.34375 
-0.1403598932899783 1:-0.25 2:-0.254545 3:-0.357143 4:-0.438017 5:-0.354839 6:-0.381818 7:-0.305263 8:-0.359375 9:-0.5 10:-0.417476 11:-0.389474 12:-0.359375 14:-0.134615 15:-0.478261 16:-0.576271 17:-0.40625 18:-0.475728 19:-0.73494 20:-0.674797 21:-0.507692 22:-0.533981 23:-0.622222 24:-0.664 25:0.1875 26:0.230769 27:-0.103448 28:-0.333333 29:-0.169231 30:-0.207921 31:-0.663158 32:-0.8125 33:-0.625 34:-0.572816 35:-0.873684 36:-0.9375 
-0.055639996742650071 1:-0.25 2:-0.327273 3:0.238095 4:-0.0247934 5:-0.354839 6:-0.381818 7:0.221053 8:0.09375 9:-0.25 10:-0.339806 11:0.221053 12:0.09375 13:-0.387097 14:-0.403846 15:0.108696 16:0.135593 17:-0.40625 18:-0.398058 19:0.156627 20:0.0731707 21:-0.384615 22:-0.339806 23:0.311111 24:0.136 25:-0.28125 26:-0.153846 27:-0.103448 28:-0.216667 29:-0.384615 30:-0.346535 31:-0.0315789 32:-0.015625 33:-0.5 34:-0.300971 35:0.136842 36:0.046875 
-1.4675029750041799 1:-0.25 2:0.236364 3:0.238095 4:-0.140496 5:-0.354839 6:0.309091 7:0.136842 8:-0.125 9:-0.25 10:0.242718 11:0.221053 12:-0.078125 13:-0.258065 14:0.307692 15:0.0217391 16:-0.152542 17:-0.28125 18:0.320388 19:0.156627 20:-0.203252 21:-0.261538 22:0.320388 23:0.311111 24:0.008 25:-0.5 26:-0.153846 27:0.172414 28:-0.0833333 29:-0.384615 30:0.188119 31:0.0526316 32:-0.1875 33:-0.1875 34:0.242718 35:0.305263 36:-0.0625 
-1.7306797161070748 1:-0.25 2:0.290909 3:0.190476 4:-0.107438 5:-0.225806 6:0.290909 7:0.284211 8:-0.09375 9:-0.25 10:0.126214 11:0.284211 12:-0.09375 13:-0.225806 14:0.307692 15:0.195652 16:-0.118644 17:-0.375 18:0.398058 19:0.156627 20:-0.170732 21:-0.230769 22:0.242718 23:0.288889 24:-0.056 25:-0.28125 26:0.307692 27:0.0804598 28:-0.183333 29:-0.261538 30:0.346535 31:0.136842 32:-0.15625 33:-0.28125 34:0.320388 35:0.242105 36:-0.015625 
-0.15981257088812245 1:-0.28125 2:-0.2 3:-0.142857 4:-0.206612 5:-0.387097 6:-0.4 7:-0.0315789 8:-0.015625 9:-0.5 10:-0.300971 11:0.136842 12:0.046875 13:-0.387097 14:-0.173077 15:-0.195652 16:-0.338983 17:-0.40625 18:-0.300971 19:-0.0120482 20:-0.0894309 21:-0.384615 22:-0.359223 23:0.0444444 24:-0.024 25:-0.46875 26:-0.230769 27:-0.264368 28:-0.3 29:-0.353846 30:-0.128713 31:-0.0105263 32:-0.15625 33:-0.375 34:-0.359223 35:-0.0105263 36:-0.09375 
-0.84643027119017622 1:-0.28125 2:-0.2 3:-0.595238 4:-0.454545 5:-0.16129 6:-0.2 7:-0.368421 8:-0.421875 9:-0.1875 10:-0.0679612 11:-0.368421 12:-0.359375 13:-0.258065 14:-0.25 15:-0.369565 16:-0.40678 17:-0.28125 18:-0.165049 19:-0.373494 20:-0.447154 21:-0.138462 22:-0.106796 23:-0.2 24:-0.312 25:-0.0625 27:-0.172414 28:-0.233333 29:-0.0461538 30:0.128713 31:-0.178947 32:-0.3125 33:-0.0625 34:0.00970874 35:-0.263158 36:-0.3125 
-0.95785795502927218 1:-0.28125 2:-0.218182 3:-0.285714 4:-0.305785 5:-0.258065 6:-0.218182 7:-0.326316 8:-0.328125 9:-0.28125 10:-0.242718 11:-0.326316 12:-0.390625 13:-0.129032 15:-0.130435 16:-0.271186 17:-0.0625 18:-0.0679612 19:-0.204819 20:-0.317073 21:-0.138462 22:0.00970874 23:-0.133333 24:-0.248 25:0.25 26:0.288462 27:0.126437 28:-0.183333 29:0.261538 30:0.326733 31:0.178947 32:-0.15625 34:0.378641 35:0.178947 36:-0.15625 
-2.7445638022952776 1:-0.28125 2:-0.290909 3:-0.380952 4:-0.421488 5:-0.258065 6:-0.218182 7:-0.326316 8:-0.390625 9:-0.15625 10:-0.106796 11:-0.242105 12:-0.328125 13:-0.0322581 15:-0.217391 16:-0.20339 17:-0.0625 18:0.106796 19:-0.204819 20:-0.365854 21:-0.0461538 22:0.00970874 23:-0.222222 24:-0.296 25:0.25 26:0.365385 27:0.126437 28:-0.116667 29:0.138462 30:0.326733 31:0.0105263 32:-0.15625 33:0.125 34:0.203883 35:0.0105263 36:-0.15625 
-0.11636843537473246 1:-0.28125 2:-0.290909 3:-0.714286 4:-0.735537 5:-0.483871 6:-0.509091 7:-0.684211 8:-0.6875 9:-0.5 10:-0.475728 11:-0.621053 12:-0.625 13:-0.0322581 15:-0.369565 16:-0.457627 17:-0.375 18:-0.300971 19:-0.566265 20:-0.658537 21:-0.446154 22:-0.359223 23:-0.555556 24:-0.584 25:0.25 26:0.288462 27:0.126437 28:-0.183333 29:0.138462 30:0.227723 31:-0.157895 32:-0.390625 33:-0.25 34:-0.106796 35:-0.557895 36:-0.609375 
-0.50509382729372776 1:-0.28125 2:-0.345455 3:-0.452381 4:-0.603306 5:-0.258065 6:-0.218182 7:-0.242105 8:-0.328125 9:0.21875 10:0.242718 11:0.0736842 12:-0.15625 13:-0.129032 14:-0.153846 15:-0.456522 16:-0.508475 17:0.0625 18:0.00970874 19:-0.204819 20:-0.365854 21:0.2 22:0.262136 23:0.0444444 24:-0.072 25:-0.125 26:-0.0384615 27:-0.149425 28:-0.433333 29:0.138462 30:0.148515 31:0.0105263 32:-0.21875 33:0.125 34:0.126214 35:0.0105263 36:-0.21875 
