svm_type c_svc
kernel_type polynomial
degree 3
gamma 1
coef0 1
nr_class 2
total_sv 607
rho -3.0904969631491177
label 0 1
nr_sv 313 294
SV
0.65723905818695716 1:-0.59375 2:-0.236364 3:-0.285714 4:-0.355372 5:-0.677419 6:-0.290909 7:-0.326316 8:-0.265625 9:-0.6875 10:-0.242718 11:-0.242105 12:-0.265625 13:-0.677419 14:-0.211538 15:-0.347826 16:-0.372881 17:-0.59375 18:-0.281553 19:-0.445783 20:-0.349593 21:-0.569231 22:-0.339806 23:-0.355556 24:-0.392 25:-0.65625 26:-0.288462 27:-0.448276 28:-0.383333 29:-0.723077 30:-0.326733 31:-0.494737 32:-0.40625 33:-0.65625 34:-0.339806 35:-0.431579 36:-0.34375 
0.0055165675918108902 1:-0.65625 2:-0.127273 3:-0.119048 4:-0.305785 5:-0.645161 6:-0.127273 7:-0.178947 8:-0.28125 9:-0.53125 10:-0.126214 11:-0.178947 12:-0.34375 13:-0.612903 15:-0.152174 16:-0.186441 17:-0.625 18:-0.145631 19:-0.325301 20:-0.349593 21:-0.6 22:-0.145631 23:-0.244444 24:-0.344 25:-0.71875 26:-0.25 27:-0.241379 28:-0.316667 29:-0.6 30:-0.227723 31:-0.242105 32:-0.328125 33:-0.625 34:-0.165049 35:-0.242105 36:-0.328125 
0.2132016076477399 1:-0.6875 2:-0.0545455 3:-0.214286 4:-0.289256 5:-0.677419 6:-0.2 7:-0.326316 8:-0.3125 9:-0.78125 10:-0.223301 11:-0.326316 12:-0.4375 13:-0.580645 14:-0.0384615 15:-0.108696 16:-0.220339 17:-0.6875 18:-0.106796 19:-0.180723 20:-0.317073 21:-0.661538 22:-0.184466 23:-0.2 24:-0.312 25:-0.5 26:-0.0769231 27:-0.126437 28:-0.333333 29:-0.476923 30:-0.188119 31:-0.305263 32:-0.40625 33:-0.59375 34:-0.203883 35:-0.305263 36:-0.359375 
0.031730111650554088 1:-0.6875 2:-0.127273 3:-0.047619 4:-0.256198 5:-0.483871 6:-0.127273 7:-0.136842 8:-0.296875 9:-0.5 10:-0.203883 11:-0.305263 12:-0.40625 13:-0.645161 14:-0.0769231 15:-0.217391 16:-0.288136 17:-0.53125 18:-0.126214 19:-0.204819 20:-0.398374 21:-0.507692 22:-0.203883 23:-0.311111 24:-0.328 25:-0.625 26:-0.153846 27:-0.287356 28:-0.333333 29:-0.6 30:-0.128713 31:-0.284211 32:-0.359375 33:-0.625 34:-0.145631 35:-0.368421 36:-0.359375 
0.20658792751711955 1:0.125 2:0.454545 3:0.47619 4:0.0413223 5:0.419355 6:0.618182 7:0.642105 8:0.15625 9:0.625 10:0.728155 11:0.747368 12:0.15625 15:0.217391 17:0.21875 18:0.475728 19:0.614458 20:0.0731707 21:0.384615 22:0.631068 23:0.733333 24:0.136 25:0.0625 26:0.0769231 27:0.264368 28:-0.0833333 29:-0.169231 30:-0.128713 31:0.0526316 32:-0.125 33:0.0625 34:0.0873786 35:0.136842 36:-0.015625 
0.11908594724027116 1:0.375 2:0.309091 3:0.142857 4:-0.239669 6:0.163636 7:-0.0947368 8:-0.34375 9:0.09375 10:0.398058 11:0.242105 12:-0.15625 13:0.483871 14:0.75 15:0.5 16:0.135593 17:0.3125 18:0.592233 19:0.349398 20:-0.0569106 21:0.2 22:0.592233 23:0.377778 24:0.008 25:0.21875 26:0.461538 27:0.402299 28:-0.0666667 29:-0.0153846 30:0.346535 31:0.263158 32:-0.046875 33:-0.15625 34:0.398058 35:0.347368 36:0.015625 
0.12312738713742521 1:0.625 2:0.618182 3:0.833333 4:0.157025 5:0.419355 6:0.545455 7:0.515789 8:0.046875 9:-0.03125 10:0.0873786 11:-0.0315789 12:-0.125 13:0.419355 14:0.615385 15:0.630435 16:0.135593 17:0.375 18:0.475728 19:0.493976 20:-0.0569106 21:-0.0153846 22:0.00970874 23:0.0222222 24:-0.2 25:0.0625 26:0.0769231 27:0.172414 28:-0.0333333 29:0.2 30:0.366337 31:0.305263 32:0.046875 33:0.3125 34:0.242718 35:0.0526316 36:-0.0625 
0.093436362342403212 1:0.65625 2:0.6 3:0.619048 4:0.0578512 5:0.709677 6:0.690909 7:0.557895 8:0.171875 9:0.3125 10:0.805825 11:0.557895 12:0.125 13:0.290323 14:0.519231 15:0.152174 16:-0.0169492 17:0.25 18:0.631068 19:0.542169 20:0.0406504 21:0.138462 22:0.631068 23:0.444444 24:0.04 25:0.25 26:0.153846 27:-0.0114943 28:-0.216667 29:-0.107692 30:0.108911 31:0.0526316 32:-0.125 33:-0.03125 34:0.320388 35:0.221053 36:-0.078125 
0.16371297256991027 1:-0.03125 2:-0.0181818 3:-0.119048 4:-0.173554 5:-0.387097 6:-0.563636 7:0.0736842 8:0.3125 9:-0.8125 10:-0.902913 11:0.0736842 12:0.359375 13:-0.0322581 14:0.0961538 15:-0.217391 16:-0.271186 17:0.0625 18:0.00970874 19:-0.0120482 20:-0.0243902 21:-0.569231 22:-0.68932 23:0.222222 24:0.376 26:0.0384615 27:-0.241379 28:-0.366667 29:0.138462 30:0.148515 31:0.0105263 32:-0.21875 33:-0.125 34:-0.242718 35:0.178947 36:0.078125 
0.041194397214691779 1:-0.25 2:-0.163636 4:-0.173554 5:-0.451613 6:-0.490909 7:0.0105263 8:0.078125 9:-0.46875 10:-0.456311 11:0.284211 12:0.140625 13:-0.225806 14:-0.0769231 15:-0.26087 16:-0.237288 17:-0.125 18:-0.0679612 19:-0.349398 20:-0.414634 21:-0.0153846 22:-0.0679612 23:-0.266667 24:-0.456 25:-0.15625 26:-0.134615 27:-0.448276 28:-0.6 29:-0.138462 30:-0.188119 31:-0.431579 32:-0.609375 33:-0.15625 34:-0.126214 35:-0.578947 36:-0.609375 
0.45919904694914815 1:-0.25 2:-0.363636 3:-0.0952381 4:-0.173554 5:-0.354839 6:-0.418182 7:0.0105263 8:-0.03125 9:-0.25 10:-0.184466 11:0.0105263 12:-0.09375 13:0.419355 14:0.307692 15:0.108696 16:-0.305085 17:-0.03125 18:0.0873786 19:0.060241 20:-0.284553 21:-0.107692 22:0.00970874 23:0.111111 24:-0.168 25:0.375 26:0.461538 27:0.287356 28:-0.183333 29:-0.0153846 30:0.029703 31:-0.0947368 32:-0.34375 33:-0.28125 34:-0.203883 35:-0.178947 36:-0.34375 
0.28297269539816056 1:-0.65625 2:-0.763636 3:0.142857 4:0.107438 5:-0.387097 6:-0.563636 7:0.0526316 8:-0.15625 9:-0.28125 10:-0.281553 11:-0.263158 12:-0.40625 13:-0.258065 14:-0.442308 15:-0.23913 16:-0.305085 17:-0.1875 18:-0.300971 19:-0.228916 20:-0.414634 21:-0.169231 22:-0.145631 23:-0.333333 24:-0.52 25:-0.15625 26:-0.173077 27:-0.494253 28:-0.616667 29:-0.261538 30:-0.148515 31:-0.473684 32:-0.5625 33:-0.28125 34:-0.165049 35:-0.536842 36:-0.625 
0.073226576030779658 1:-0.6875 2:-0.672727 3:0.047619 4:0.0909091 5:-0.225806 6:-0.254545 7:-0.136842 8:-0.234375 9:-0.125 10:0.0873786 11:-0.221053 12:-0.359375 13:-0.741935 14:-0.807692 15:0.217391 16:0.338983 17:-0.28125 18:-0.281553 19:-0.108434 20:-0.333333 21:-0.0153846 22:0.0873786 23:-0.222222 24:-0.392 25:-0.8125 26:-0.903846 27:0.264368 28:0.466667 29:-0.6 30:-0.683168 31:-0.115789 32:-0.015625 33:-0.1875 34:-0.223301 35:-0.368421 36:-0.53125 
0.033127510495543008 1:-0.6875 2:-0.763636 3:0.190476 4:0.190083 5:-0.580645 6:-0.709091 7:0.178947 8:0.140625 9:-0.375 10:-0.456311 11:0.0947368 12:-0.03125 13:-0.225806 14:-0.346154 15:-0.0652174 16:-0.186441 17:-0.125 18:-0.145631 19:-0.156627 20:-0.414634 21:-0.0153846 22:-0.0679612 23:-0.177778 24:-0.456 25:-0.15625 26:-0.134615 27:-0.448276 28:-0.666667 29:-0.138462 30:-0.108911 31:-0.494737 32:-0.546875 33:-0.15625 34:-0.126214 35:-0.578947 36:-0.609375 
0.018936375724440697 1:-0.875 2:-0.872727 3:0.285714 4:0.471074 5:-0.677419 6:-0.818182 7:0.263158 8:0.40625 9:-0.875 10:-0.961165 11:0.347368 12:0.515625 13:-0.870968 14:-0.923077 15:0.152174 16:0.542373 17:-0.78125 18:-0.864078 19:0.108434 20:0.284553 21:-0.661538 22:-0.864078 23:0.244444 24:0.344 25:-1 26:-0.961538 27:0.37931 28:0.566667 29:-0.876923 30:-0.920792 31:0.221053 32:0.4375 33:-0.6875 34:-0.650485 35:0.0526316 36:0.09375 
0.030447293480814971 1:-0.875 2:-0.909091 3:0.47619 4:0.586777 5:-0.741935 6:-0.872727 7:0.326316 8:0.5 9:-0.65625 10:-0.398058 11:0.326316 12:0.171875 13:-0.806452 14:-0.865385 15:0.282609 16:0.694915 17:-0.8125 18:-0.902913 19:0.349398 20:0.609756 21:-0.784615 22:-0.902913 23:0.377778 24:0.664 25:-0.8125 26:-0.942308 27:0.517241 28:0.75 29:-0.907692 30:-0.90099 31:0.347368 32:0.65625 33:-0.9375 34:-0.941748 35:0.263158 36:0.71875 
0.24281179796856009 1:0.21875 2:0.236364 3:-0.119048 4:-0.305785 6:-0.0909091 7:-0.0947368 8:-0.21875 9:-0.5 10:-0.708738 11:0.347368 12:0.421875 13:0.225806 14:0.173077 15:-0.0434783 16:-0.20339 17:0.1875 18:0.184466 19:-0.108434 20:-0.317073 21:-0.261538 22:-0.300971 23:0.133333 24:-0.024 25:0.125 26:0.115385 27:-0.149425 28:-0.3 29:0.261538 30:0.227723 31:-0.0736842 32:-0.265625 34:0.0485437 35:-0.0736842 36:-0.265625 
0.054404009496698047 1:0.375 2:0.236364 3:0.047619 4:-0.322314 5:0.290323 6:0.163636 7:-0.136842 8:-0.359375 9:-0.03125 10:0.242718 11:-0.0315789 12:-0.296875 13:0.258065 14:0.307692 15:0.0217391 16:-0.288136 17:-0.03125 18:0.0873786 19:-0.0361446 20:-0.333333 21:-0.138462 22:-0.126214 23:0.0222222 24:-0.136 25:0.0625 27:-0.0114943 28:-0.216667 29:-0.169231 30:-0.287129 31:0.0526316 32:-0.015625 33:-0.5 34:-0.495146 35:0.221053 36:0.21875 
1.3841015917928545 1:-0.03125 2:-0.0545455 3:-0.404762 4:-0.438017 5:-0.129032 6:-0.181818 7:-0.347368 8:-0.484375 9:-0.03125 10:0.0873786 11:-0.178947 12:-0.40625 13:0.225806 14:0.230769 15:-0.152174 16:-0.237288 17:0.3125 18:0.417476 19:0.253012 20:-0.170732 21:0.446154 22:0.495146 23:0.288889 24:-0.04 25:0.46875 26:0.634615 27:0.402299 28:-0.0666667 29:0.753846 30:0.60396 31:0.452632 32:0.015625 33:0.625 34:0.572816 35:0.557895 36:-0.046875 
1.8109151008402908 1:-0.03125 2:-0.0545455 3:0.047619 4:-0.206612 5:0.290323 6:0.236364 7:0.0526316 8:-0.125 9:0.25 10:0.242718 11:0.0526316 12:-0.1875 13:0.419355 14:0.384615 15:0.108696 16:-0.152542 17:0.375 18:0.398058 19:0.156627 20:-0.203252 21:0.230769 22:0.320388 23:0.111111 24:-0.264 25:0.3125 26:0.403846 27:0.172414 28:-0.15 29:0.446154 30:0.445545 31:0.221053 32:-0.125 33:0.4375 34:0.417476 35:0.305263 36:-0.125 
0.25522089499446649 1:-0.0625 2:-0.0545455 3:-0.428571 4:-0.504132 5:-0.0322581 6:0.0181818 7:-0.115789 8:-0.359375 9:0.1875 10:0.242718 11:-0.115789 12:-0.234375 13:0.516129 14:0.384615 15:0.130435 16:-0.152542 17:0.46875 18:0.398058 19:0.301205 20:-0.154472 21:0.476923 22:0.650485 23:0.422222 24:-0.024 25:0.40625 26:0.519231 27:0.310345 28:-0.116667 29:0.538462 30:0.485149 31:0.157895 32:-0.09375 33:0.53125 34:0.533981 35:0.347368 36:0.015625 
2.0930892692394893 1:-0.0625 2:0.0363636 3:-0.214286 4:-0.404959 5:0.225806 6:0.181818 7:-0.0105263 8:-0.203125 9:0.3125 10:0.533981 11:0.347368 12:-0.09375 13:0.0322581 14:0.288462 15:-0.0217391 16:-0.271186 17:0.25 18:0.378641 19:0.204819 20:-0.203252 21:0.261538 22:0.456311 23:0.355556 24:-0.072 25:0.125 26:0.384615 27:0.172414 28:-0.15 29:0.261538 30:0.50495 31:0.326316 32:-0.078125 33:0.25 34:0.475728 35:0.326316 36:-0.078125 
0.26753898112855135 1:-0.15625 2:-0.0909091 3:-0.380952 4:-0.487603 6:-0.0181818 7:-0.473684 8:-0.390625 9:0.09375 10:0.184466 11:-0.157895 12:-0.328125 13:0.451613 14:0.519231 15:0.23913 16:-0.152542 17:0.40625 18:0.456311 19:0.39759 20:-0.203252 21:0.415385 22:0.456311 23:0.333333 24:-0.072 25:0.375 26:0.519231 27:0.425287 28:-0.05 29:0.384615 30:0.485149 31:0.284211 32:-0.09375 33:0.375 34:0.456311 35:0.284211 36:-0.09375 
0.68091214238963682 1:-0.15625 2:-0.181818 3:-0.404762 4:-0.520661 6:0.0181818 7:-0.178947 8:-0.40625 9:0.21875 10:0.165049 11:-0.0315789 12:-0.21875 13:0.354839 14:0.403846 15:0.195652 16:-0.118644 17:0.4375 18:0.495146 19:0.253012 20:-0.105691 21:0.569231 22:0.495146 23:0.288889 24:-0.104 25:0.75 26:0.557692 27:0.517241 29:0.630769 30:0.60396 31:0.557895 32:-0.046875 33:0.625 34:0.398058 35:0.157895 36:-0.109375 
1.8574668428446657 1:-0.15625 2:-0.2 3:-0.47619 4:-0.586777 5:-0.129032 6:-0.127273 7:-0.410526 8:-0.484375 9:-0.15625 10:0.106796 11:-0.263158 12:-0.4375 13:0.290323 14:0.192308 15:-0.108696 16:-0.271186 17:0.25 18:0.378641 19:0.0120482 20:-0.268293 21:0.507692 22:0.631068 23:0.355556 24:-0.008 25:0.375 26:0.384615 27:0.172414 28:-0.15 29:0.384615 30:0.50495 31:0.221053 32:-0.1875 33:0.5 34:0.553398 35:0.326316 36:-0.078125 
1.3886685375357142 1:-0.1875 2:-0.127273 3:-0.52381 4:-0.504132 5:-0.0322581 6:-0.0545455 7:-0.368421 8:-0.46875 9:-0.0625 10:0.0873786 11:-0.115789 12:-0.359375 13:0.387097 14:0.384615 15:0.0434783 16:-0.152542 17:0.46875 18:0.398058 19:0.180723 20:-0.203252 21:0.476923 22:0.398058 23:0.333333 24:-0.088 25:0.53125 26:0.519231 27:0.310345 28:-0.116667 29:0.415385 30:0.564356 31:0.263158 32:-0.09375 33:0.53125 34:0.456311 35:0.157895 36:-0.09375 
4.2746382125600668 1:-0.25 2:-0.254545 3:-0.357143 4:-0.438017 5:0.16129 6:0.0909091 7:0.0526316 8:-0.1875 9:0.375 10:0.320388 11:0.0526316 12:-0.125 13:0.129032 14:0.0769231 15:-0.0652174 16:-0.220339 17:0.375 18:0.475728 19:0.373494 20:-0.0569106 21:0.507692 22:0.475728 23:0.311111 24:0.008 25:0.1875 26:0.153846 27:0.0804598 28:-0.216667 29:0.446154 30:0.445545 31:0.221053 32:-0.0625 33:0.4375 34:0.417476 35:0.221053 36:-0.0625 
0.58286082969828656 1:-0.28125 2:-0.127273 3:-0.52381 4:-0.570248 5:-0.16129 6:-0.127273 7:-0.452632 8:-0.46875 9:-0.0625 10:0.00970874 11:-0.368421 12:-0.46875 13:0.258065 14:0.307692 15:0.0434783 16:-0.220339 17:0.34375 18:0.398058 19:0.0843373 20:-0.203252 21:0.476923 22:0.398058 23:0.222222 24:-0.136 25:0.53125 26:0.519231 27:0.310345 28:-0.116667 29:0.538462 30:0.564356 31:0.263158 32:-0.09375 33:0.40625 34:0.533981 35:0.263158 36:-0.09375 
0.028720975531306897 1:-0.375 2:-0.254545 3:-0.642857 4:-0.570248 5:-0.225806 6:-0.127273 7:-0.136842 8:-0.234375 9:-0.03125 10:0.165049 11:0.0526316 12:-0.1875 14:0.230769 15:-0.130435 16:-0.355932 17:0.09375 18:0.398058 19:0.277108 20:-0.203252 21:0.107692 22:0.553398 23:0.4 24:0.008 25:0.3125 26:0.576923 27:0.356322 28:-0.0333333 29:0.2 30:0.623762 31:0.305263 32:-0.015625 33:0.0625 34:0.417476 35:0.305263 36:-0.015625 
1.5465506849219839 1:0.0625 2:-0.0545455 3:0.047619 4:-0.206612 5:0.483871 6:0.327273 7:0.221053 8:-0.125 9:0.5625 10:0.592233 11:0.221053 12:-0.0625 13:-0.129032 14:-0.173077 15:0.0434783 16:-0.152542 17:0.21875 18:0.320388 19:-0.0120482 20:-0.333333 21:0.630769 22:0.572816 23:0.333333 24:-0.024 25:0.1875 26:0.25 27:0.0114943 28:-0.3 29:0.323077 30:0.485149 31:0.157895 32:-0.265625 33:0.40625 34:0.456311 35:0.263158 36:-0.15625 
0.17447009009242065 1:0.125 2:0.0181818 3:-0.047619 4:-0.322314 5:0.16129 6:0.236364 7:0.326316 8:-0.078125 9:0.25 10:0.553398 11:0.431579 12:0.046875 13:0.419355 14:0.461538 15:0.217391 17:0.375 18:0.553398 19:0.493976 20:0.00813008 21:0.230769 22:0.631068 23:0.511111 24:0.072 25:0.1875 26:0.403846 27:0.356322 28:-0.0333333 29:0.2 30:0.524752 31:0.515789 32:0.046875 33:0.0625 34:0.592233 35:0.305263 36:0.046875 
4.7735645315836965 1:0.125 2:0.163636 3:-0.047619 4:-0.322314 5:0.16129 6:0.309091 7:0.136842 8:-0.125 9:0.25 10:0.475728 11:0.326316 12:-0.078125 13:0.258065 14:0.230769 15:-0.0652174 16:-0.288136 17:0.375 18:0.475728 19:0.277108 20:-0.203252 21:0.507692 22:0.553398 23:0.4 24:0.008 25:0.1875 26:0.230769 27:-0.0114943 28:-0.266667 29:0.323077 30:0.524752 31:0.305263 32:-0.125 33:0.4375 34:0.669903 35:0.621053 36:0.046875 
2.7050693387306621 1:0.125 2:0.163636 3:-0.047619 4:-0.322314 6:-0.0545455 7:-0.305263 8:-0.46875 9:-0.25 10:-0.203883 11:-0.305263 12:-0.40625 13:0.258065 14:0.384615 15:0.217391 16:-0.152542 17:0.21875 18:0.242718 19:-0.0361446 20:-0.333333 21:-0.0153846 22:-0.126214 23:-0.4 24:-0.536 25:0.3125 26:0.403846 27:0.172414 28:-0.15 29:0.323077 30:0.445545 31:0.136842 32:-0.125 33:0.1875 34:0.242718 35:-0.115789 36:-0.296875 
0.082197816682004932 1:0.1875 2:0.109091 3:-0.0238095 4:-0.22314 5:0.0967742 6:0.109091 7:-0.0105263 8:-0.15625 9:0.0625 10:0.106796 11:0.0736842 12:-0.15625 13:0.290323 14:0.365385 15:-0.0217391 16:-0.152542 17:0.375 18:0.378641 19:0.108434 20:-0.203252 21:0.261538 22:0.378641 23:0.244444 24:-0.136 25:0.125 26:0.230769 27:0.0804598 28:-0.266667 29:0.261538 30:0.346535 31:0.0526316 32:-0.234375 33:0.25 34:0.398058 35:0.136842 36:-0.1875 
0.041399034764229001 1:0.1875 2:0.163636 3:0.047619 4:-0.322314 5:0.354839 6:0.163636 7:0.136842 8:-0.1875 9:0.3125 10:0.339806 11:0.136842 12:-0.1875 13:0.258065 14:0.307692 15:-0.0434783 16:-0.220339 17:0.21875 18:0.398058 19:0.180723 20:-0.203252 21:0.353846 22:0.475728 23:0.222222 24:-0.136 25:0.40625 26:0.346154 27:0.310345 28:-0.233333 29:0.323077 30:0.485149 31:0.263158 32:-0.15625 33:0.40625 34:0.533981 35:0.263158 36:-0.15625 
2.7347567180883434 1:0.1875 2:0.181818 3:-0.0238095 4:-0.289256 5:0.354839 6:0.272727 7:-0.0105263 8:-0.203125 9:0.40625 10:0.359223 11:-0.0105263 12:-0.203125 13:0.290323 14:0.365385 15:-0.108696 16:-0.271186 17:0.375 18:0.300971 19:0.0120482 20:-0.268293 21:0.507692 22:0.533981 23:0.244444 24:-0.072 25:0.375 26:0.307692 27:0.0804598 28:-0.15 29:0.384615 30:0.50495 31:0.221053 32:-0.015625 33:0.625 34:0.553398 35:0.431579 36:0.046875 
1.363252663969273 1:0.1875 2:0.181818 3:0.0714286 4:-0.173554 5:0.354839 6:0.272727 7:0.0736842 8:-0.15625 9:0.3125 10:0.262136 11:0.0736842 12:-0.265625 13:0.290323 14:0.288462 15:0.0652174 16:-0.220339 17:0.375 18:0.378641 19:0.325301 20:-0.203252 21:0.261538 22:0.378641 23:0.355556 24:-0.136 25:0.25 26:0.307692 27:0.172414 28:-0.216667 29:0.384615 30:0.425743 31:0.136842 32:-0.125 33:0.375 34:0.475728 35:0.221053 36:-0.078125 
1.746461828765691 1:0.1875 2:0.181818 3:0.0714286 4:-0.289256 5:0.225806 6:0.181818 7:-0.0105263 8:-0.265625 9:0.3125 10:0.359223 11:-0.0105263 12:-0.203125 13:0.290323 14:0.288462 15:0.0652174 16:-0.220339 17:0.25 18:0.378641 19:-0.0843373 20:-0.317073 21:0.384615 22:0.300971 23:0.0666667 24:-0.2 25:0.25 26:0.307692 27:0.0804598 28:-0.216667 29:0.384615 30:0.346535 31:0.0526316 32:-0.125 33:0.375 34:0.475728 35:0.221053 36:-0.015625 
0.92049362800156831 1:0.21875 2:0.163636 3:-0.047619 4:-0.305785 5:0.419355 6:0.381818 7:0.242105 8:-0.15625 9:0.5 10:0.553398 11:0.326316 12:-0.015625 13:0.225806 14:0.230769 15:-0.0652174 16:-0.237288 17:0.3125 18:0.495146 19:0.349398 20:-0.170732 21:0.446154 22:0.669903 23:0.711111 24:0.072 25:0.34375 26:0.384615 27:0.195402 28:-0.133333 29:0.476923 30:0.683168 31:0.347368 32:0.015625 33:0.625 34:0.747573 35:0.557895 36:0.125 
9.7836775827398288 1:0.21875 2:0.236364 3:-0.0238095 4:-0.305785 5:0.387097 6:0.236364 7:-0.0105263 8:-0.21875 9:0.34375 10:0.320388 11:0.157895 12:-0.15625 13:0.225806 14:0.25 15:-0.0434783 16:-0.271186 17:0.1875 18:0.262136 19:0.0843373 20:-0.317073 21:0.2 22:0.262136 23:0.0444444 24:-0.248 25:0.25 26:0.288462 27:0.0344828 28:-0.3 29:0.261538 30:0.326733 31:0.0947368 32:-0.21875 33:0.25 34:0.378641 35:-0.0736842 36:-0.265625 
0.79716958072956057 1:0.21875 2:0.309091 3:0.166667 4:-0.173554 5:0.129032 6:0.163636 7:-0.0105263 8:-0.390625 9:-0.28125 10:-0.242718 11:-0.621053 12:-0.921875 13:0.225806 14:0.346154 15:0.130435 16:-0.152542 17:0.1875 18:0.184466 19:-0.204819 20:-0.430894 21:-0.353846 22:-0.300971 23:-0.622222 24:-0.808 25:0.375 26:0.365385 27:0.218391 28:-0.183333 29:0.138462 30:0.148515 31:-0.157895 32:-0.5 33:-0.46875 34:-0.378641 35:-0.705263 36:-0.84375 
1.5882615916787981 1:0.21875 2:0.381818 3:0.285714 4:-0.173554 5:0.258065 6:0.309091 7:0.157895 8:-0.15625 9:0.34375 10:0.475728 11:0.347368 12:-0.109375 13:0.225806 14:0.442308 15:0.23913 16:-0.152542 17:0.1875 18:0.456311 19:0.301205 20:-0.203252 21:0.323077 22:0.456311 23:0.222222 24:-0.136 25:0.125 26:0.442308 27:0.126437 28:-0.25 29:0.261538 30:0.405941 31:0.0947368 32:-0.21875 33:0.25 34:0.378641 35:0.0947368 36:-0.21875 
2.2245820502739204 1:0.21875 2:0.454545 3:0.261905 4:-0.0247934 5:0.258065 6:0.454545 7:0.242105 8:-0.09375 9:0.375 10:0.553398 11:0.326316 12:-0.09375 13:0.483871 14:0.403846 15:0.195652 16:-0.186441 17:0.3125 18:0.495146 19:0.349398 20:-0.105691 21:0.323077 22:0.495146 23:0.377778 24:-0.04 25:0.09375 26:0.0961538 27:-0.149425 28:-0.316667 29:0.230769 30:0.346535 31:0.157895 32:-0.15625 33:0.34375 34:0.475728 35:0.263158 36:-0.109375 
1.3360730854101091 1:0.25 2:0.218182 3:0.0952381 4:-0.173554 5:0.16129 6:0.127273 7:-0.157895 8:-0.390625 9:-0.25 10:-0.106796 11:-0.557895 12:-0.609375 13:0.548387 14:0.538462 15:0.413043 17:0.375 18:0.475728 19:0.253012 20:-0.121951 21:-0.0153846 22:-0.0679612 23:-0.266667 24:-0.52 25:0.5 26:0.615385 27:0.494253 28:0.1 29:0.507692 30:0.762376 31:0.536842 32:0.109375 33:0.375 34:0.398058 35:0.136842 36:-0.21875 
1.1222876708518241 1:0.25 2:0.218182 3:0.0952381 4:-0.173554 5:0.290323 6:0.363636 7:0.284211 8:-0.09375 9:0.375 10:0.533981 11:0.368421 12:-0.03125 13:0.419355 14:0.461538 15:0.108696 16:-0.118644 17:0.375 18:0.475728 19:0.253012 20:-0.170732 21:0.507692 22:0.553398 23:0.511111 24:-0.056 25:0.21875 26:0.384615 27:0.172414 28:-0.183333 29:0.384615 30:0.425743 31:0.326316 32:-0.09375 33:0.375 34:0.398058 35:0.242105 36:-0.09375 
2.8708505608836576 1:0.25 2:0.236364 3:-0.047619 4:-0.322314 5:0.419355 6:0.236364 7:0.0526316 8:-0.1875 9:0.5 10:0.398058 11:0.136842 12:-0.1875 13:0.258065 14:0.307692 15:0.0217391 16:-0.220339 17:0.21875 18:0.320388 19:0.060241 20:-0.268293 21:0.384615 22:0.320388 23:0.0222222 24:-0.2 25:0.3125 26:0.230769 27:0.0804598 28:-0.333333 29:0.323077 30:0.366337 31:0.0526316 32:-0.234375 33:0.3125 34:0.242718 35:-0.115789 36:-0.234375 
0.012353493509655243 1:0.25 2:0.236364 3:0.047619 4:-0.206612 5:0.419355 6:0.236364 7:0.0526316 8:-0.125 9:0.375 10:0.475728 11:0.221053 12:-0.015625 13:0.548387 14:0.461538 15:0.217391 16:-0.0847458 17:0.65625 18:0.553398 19:0.373494 20:-0.0569106 21:0.661538 22:0.631068 23:0.622222 24:0.072 25:0.4375 26:0.480769 27:0.264368 28:-0.15 29:0.569231 30:0.623762 31:0.305263 32:-0.015625 33:0.5625 34:0.76699 35:0.410526 36:0.046875 
0.30743095545237803 1:0.25 2:0.236364 3:0.047619 4:-0.206612 5:0.548387 6:0.381818 7:0.221053 8:-0.078125 9:0.5 10:0.553398 11:0.326316 12:-0.015625 13:0.548387 14:0.307692 15:0.217391 16:-0.0847458 17:0.65625 18:0.475728 19:0.373494 20:-0.0569106 21:0.507692 22:0.553398 23:0.511111 24:0.072 25:0.1875 26:0.230769 27:0.0804598 28:-0.216667 29:0.446154 30:0.524752 31:0.305263 32:-0.015625 33:0.4375 34:0.417476 35:0.221053 36:-0.015625 
1.6394459874498373 1:0.25 2:0.236364 3:0.142857 4:-0.206612 5:0.419355 6:0.309091 7:0.136842 8:-0.125 9:0.375 10:0.475728 11:0.221053 12:-0.078125 13:0.258065 14:0.307692 15:0.0217391 16:-0.220339 17:0.375 18:0.475728 19:0.156627 20:-0.138211 21:0.230769 22:0.553398 23:0.311111 24:0.008 25:0.1875 26:0.230769 27:0.0804598 28:-0.266667 29:0.446154 30:0.267327 31:-0.0315789 32:-0.1875 33:0.4375 34:0.417476 35:0.221053 36:-0.1875 
0.50133436284381638 1:0.25 2:0.236364 3:0.142857 4:-0.206612 5:0.419355 6:0.309091 7:0.221053 8:-0.078125 9:0.375 10:0.475728 11:0.326316 12:0.046875 13:0.419355 14:0.384615 15:0.108696 16:-0.152542 17:0.5 18:0.475728 19:0.373494 20:-0.0569106 21:0.507692 22:0.475728 23:0.311111 24:0.008 25:0.3125 26:0.326923 27:0.0804598 28:-0.216667 29:0.569231 30:0.445545 31:0.221053 32:-0.0625 33:0.5625 34:0.592233 35:0.305263 36:-0.015625 
3.8284221134257783 1:0.3125 2:0.181818 3:0.0714286 4:-0.289256 5:0.225806 6:0.181818 7:0.157895 8:-0.203125 9:0.3125 10:0.359223 11:0.157895 12:-0.09375 13:0.290323 14:0.365385 15:0.26087 16:-0.152542 17:0.25 18:0.378641 19:0.204819 20:-0.203252 21:0.384615 22:0.378641 23:0.355556 24:-0.072 25:0.375 26:0.461538 27:0.264368 28:-0.1 29:0.261538 30:0.50495 31:0.221053 32:-0.125 33:0.25 34:0.398058 35:0.221053 36:-0.125 
0.90111642604701314 1:0.3125 2:0.181818 3:0.166667 4:-0.289256 5:0.451613 6:0.181818 7:0.0736842 8:-0.15625 9:0.40625 10:0.262136 11:0.157895 12:-0.15625 13:0.419355 14:0.365385 15:-0.0217391 16:-0.220339 17:0.375 18:0.300971 19:0.108434 20:-0.268293 21:0.384615 22:0.456311 23:0.355556 24:-0.072 25:0.375 26:0.384615 27:0.0804598 28:-0.216667 29:0.384615 30:0.425743 31:0.136842 32:-0.125 33:0.5 34:0.475728 35:0.221053 36:-0.078125 
5.7836534265946975 1:0.3125 2:0.254545 3:0.047619 4:-0.206612 5:0.483871 6:0.254545 7:0.136842 8:-0.1875 9:0.4375 10:0.339806 11:0.221053 12:-0.1875 13:0.387097 14:0.230769 15:-0.0434783 16:-0.220339 17:0.21875 18:0.320388 19:-0.0120482 20:-0.333333 21:0.353846 22:0.320388 23:0.0444444 24:-0.2 25:0.1875 26:0.25 27:0.103448 28:-0.233333 29:0.2 30:0.287129 31:-0.0105263 32:-0.265625 33:0.1875 34:0.262136 35:0.0736842 36:-0.265625 
2.2451243742657598 1:0.3125 2:0.327273 3:0.142857 4:-0.256198 5:0.354839 6:0.254545 7:0.136842 8:-0.1875 9:0.3125 10:0.339806 11:0.136842 12:-0.125 13:0.387097 14:0.307692 15:0.130435 16:-0.152542 17:0.34375 18:0.320388 19:0.0843373 20:-0.268293 21:0.353846 22:0.398058 23:0.222222 24:-0.136 25:0.3125 26:0.442308 27:0.195402 28:-0.183333 29:0.323077 30:0.485149 31:0.347368 32:-0.09375 33:0.53125 34:0.533981 35:0.347368 36:-0.09375 
2.5122937927251683 1:0.3125 2:0.363636 3:0.166667 4:-0.289256 5:0.451613 6:0.363636 7:0.263158 8:-0.15625 9:0.65625 10:0.631068 11:0.347368 12:-0.046875 13:0.16129 14:0.115385 15:-0.108696 16:-0.271186 17:0.375 18:0.378641 19:0.108434 20:-0.268293 21:0.507692 22:0.631068 23:0.444444 24:0.04 25:-0.03125 27:-0.310345 28:-0.45 29:-0.0153846 30:0.188119 31:-0.0315789 32:-0.296875 33:0.375 34:0.475728 35:0.221053 36:-0.125 
0.04767291416778853 1:0.34375 2:0.309091 3:0.166667 4:-0.173554 5:0.516129 6:0.309091 7:0.157895 8:-0.15625 9:0.46875 10:0.320388 11:-0.0105263 12:-0.15625 13:0.451613 14:0.346154 15:0.0434783 16:-0.152542 17:0.40625 18:0.456311 19:0.301205 20:-0.203252 21:0.415385 22:0.631068 23:0.422222 24:-0.072 25:0.375 26:0.615385 27:0.425287 28:-0.116667 29:0.384615 30:0.485149 31:0.368421 32:-0.03125 33:0.5 34:0.631068 35:0.473684 36:0.015625 
0.14762544739627911 1:0.375 2:0.236364 3:0.047619 4:-0.239669 5:0.419355 6:0.309091 7:0.136842 8:-0.15625 9:0.5 10:0.553398 11:0.326316 12:-0.09375 13:0.354839 14:0.326923 15:0.0217391 16:-0.186441 17:0.3125 18:0.242718 19:0.156627 20:-0.284553 21:0.446154 22:0.417476 23:0.288889 24:-0.104 25:0.34375 26:0.307692 27:0.103448 28:-0.25 29:0.353846 30:0.346535 31:0.157895 32:-0.15625 33:0.625 34:0.475728 35:0.263158 36:-0.046875 
2.4976532075092215 1:0.375 2:0.290909 3:0.0952381 4:-0.239669 5:0.548387 6:0.527273 7:0.368421 8:0.015625 9:0.78125 10:0.805825 11:0.473684 12:0.078125 14:0.153846 15:-0.0652174 16:-0.305085 17:0.375 18:0.475728 19:0.253012 20:-0.170732 21:0.630769 22:0.650485 23:0.6 24:0.008 25:0.09375 26:0.0769231 27:-0.172414 28:-0.45 29:0.107692 30:0.267327 31:-0.0315789 32:-0.28125 33:0.375 34:0.475728 35:0.136842 36:-0.15625 
0.086248154947628997 1:0.375 2:0.290909 3:0.190476 4:-0.173554 5:0.16129 6:0.0545455 7:-0.157895 8:-0.5 9:-0.46875 10:-0.378641 11:-0.705263 12:-0.84375 13:0.290323 14:0.384615 15:0.108696 16:-0.186441 17:-0.03125 18:0.0873786 19:-0.253012 20:-0.593496 21:-0.476923 22:-0.417476 23:-0.711111 24:-0.808 25:0.375 26:0.384615 27:0.172414 28:-0.183333 29:-0.0153846 30:0.108911 31:-0.347368 32:-0.484375 33:-0.53125 34:-0.339806 35:-0.726316 36:-0.734375 
6.028156019807291 1:0.375 2:0.290909 3:0.190476 4:-0.173554 5:0.419355 6:0.363636 7:0.178947 8:-0.09375 9:0.375 10:0.456311 11:0.178947 12:-0.09375 13:0.290323 14:0.230769 15:-0.0652174 16:-0.305085 17:0.25 18:0.320388 19:0.060241 20:-0.235772 21:0.384615 22:0.475728 23:0.288889 24:-0.056 25:0.21875 26:0.230769 27:-0.0114943 28:-0.25 29:0.384615 30:0.346535 31:0.0526316 32:-0.21875 33:0.375 34:0.398058 35:0.136842 36:-0.15625 
0.50238515961185037 1:0.375 2:0.309091 3:0.142857 4:-0.239669 5:0.419355 6:0.309091 7:0.136842 8:-0.21875 9:0.375 10:0.475728 11:0.136842 12:-0.21875 13:0.774194 14:0.846154 15:0.608696 16:0.135593 17:0.3125 18:0.417476 19:0.253012 20:-0.170732 21:0.323077 22:0.417476 23:0.288889 24:-0.168 25:0.75 26:0.923077 27:0.770115 28:0.183333 29:0.630769 30:0.60396 31:0.347368 32:-0.109375 33:0.34375 34:0.475728 35:0.157895 36:-0.15625 
7.570549585737222 1:0.375 2:0.309091 3:0.261905 4:-0.107438 5:0.419355 6:0.381818 7:0.242105 8:-0.15625 9:0.5 10:0.553398 11:0.326316 12:-0.09375 13:0.354839 14:0.326923 15:0.108696 16:-0.237288 17:0.4375 18:0.417476 19:0.253012 20:-0.170732 21:0.569231 22:0.495146 23:0.377778 24:-0.104 25:-0.03125 26:-0.0384615 27:0.0114943 28:-0.316667 29:0.353846 30:0.425743 31:0.157895 32:-0.15625 33:0.46875 34:0.475728 35:0.157895 36:-0.109375 
0.3885312338374502 1:0.375 2:0.363636 3:0.309524 4:-0.107438 5:0.419355 6:0.290909 7:0.178947 8:-0.15625 9:0.125 10:0.126214 11:-0.157895 12:-0.5 13:0.419355 14:0.461538 15:0.195652 16:-0.118644 17:0.25 18:0.398058 19:0.156627 20:-0.235772 21:-0.0153846 22:0.0873786 23:-0.177778 24:-0.52 25:0.21875 26:0.538462 27:0.172414 28:-0.116667 29:0.384615 30:0.425743 31:0.136842 32:-0.15625 33:-0.03125 34:0.0873786 35:-0.347368 36:-0.484375 
0.041463905315905332 1:0.375 2:0.381818 3:0.142857 4:-0.107438 5:0.258065 6:0.454545 7:0.242105 8:-0.015625 9:0.21875 10:0.553398 11:0.242105 12:-0.09375 13:0.483871 14:0.230769 15:-0.0652174 16:-0.186441 17:0.4375 18:0.417476 19:0.253012 20:-0.235772 21:0.323077 22:0.495146 23:0.377778 24:-0.04 25:0.09375 26:0.0961538 27:-0.149425 28:-0.366667 29:0.107692 30:0.128713 31:-0.157895 32:-0.28125 33:0.21875 34:0.320388 35:0.157895 36:-0.15625 
2.5600281485707654 1:0.375 2:0.381818 3:0.238095 4:-0.140496 5:0.548387 6:0.381818 7:0.326316 8:-0.125 9:0.375 10:0.398058 11:0.136842 12:-0.1875 13:0.548387 14:0.461538 15:0.217391 16:-0.0847458 17:0.375 18:0.398058 19:0.156627 20:-0.268293 21:0.230769 22:0.242718 23:-0.0444444 24:-0.328 25:-0.0625 27:-0.287356 28:-0.466667 29:-0.0461538 30:-0.049505 31:-0.452632 32:-0.46875 33:-0.0625 34:0.00970874 35:-0.368421 36:-0.421875 
0.62258610044164575 1:0.375 2:0.381818 3:0.238095 4:-0.140496 5:0.677419 6:0.545455 7:0.515789 8:-0.015625 9:0.625 10:0.650485 11:0.431579 12:-0.015625 13:0.129032 14:0.230769 15:-0.0652174 16:-0.288136 17:0.375 18:0.475728 19:0.156627 20:-0.203252 21:0.230769 22:0.398058 23:0.0222222 24:-0.2 25:-0.0625 27:-0.37931 28:-0.516667 29:-0.169231 30:0.108911 31:-0.2 32:-0.421875 33:0.0625 34:0.165049 35:-0.115789 36:-0.296875 
0.61311992433003393 1:0.40625 2:0.363636 3:0.166667 4:-0.173554 5:0.451613 6:0.272727 7:0.0736842 8:-0.15625 9:0.40625 10:0.359223 11:0.0736842 12:-0.15625 13:0.419355 14:0.365385 15:0.0652174 16:-0.220339 17:0.125 18:0.300971 19:0.108434 20:-0.268293 21:0.384615 22:0.456311 23:0.355556 24:-0.008 25:0.25 26:0.307692 27:0.172414 28:-0.216667 29:0.384615 30:0.425743 31:0.221053 32:-0.078125 33:0.375 34:0.475728 35:0.326316 36:0.046875 
0.23994811454612566 1:0.46875 2:0.727273 3:0.761905 4:0.123967 5:0.677419 6:0.818182 7:0.789474 8:0.1875 9:0.625 10:0.84466 11:0.684211 12:0.1875 13:0.580645 14:0.884615 15:0.652174 16:0.20339 17:0.65625 18:0.902913 19:0.759036 20:0.138211 21:0.784615 22:0.902913 23:0.644444 24:0.152 25:0.5 26:0.884615 27:0.655172 28:0.133333 29:0.630769 30:0.841584 31:0.473684 32:0.078125 33:0.78125 34:0.708738 35:0.473684 36:0.015625 
1.1147175808580383 1:0.5 2:0.309091 3:0.238095 4:-0.140496 5:0.419355 6:0.381818 7:0.221053 8:-0.125 9:0.5 10:0.475728 11:0.326316 12:-0.125 13:0.548387 14:0.461538 15:0.304348 16:-0.0847458 17:0.5 18:0.475728 19:0.277108 20:-0.138211 21:0.384615 22:0.398058 23:0.2 24:-0.2 25:0.3125 26:0.326923 27:0.0804598 28:-0.266667 29:-0.0461538 30:0.029703 31:-0.284211 32:-0.421875 33:-0.0625 34:-0.0679612 35:-0.452632 36:-0.46875 
0.70339557826444388 1:0.5 2:0.454545 3:0.261905 4:-0.107438 5:0.548387 6:0.454545 7:0.242105 8:-0.09375 9:0.65625 10:0.631068 11:0.326316 12:-0.09375 13:0.612903 14:0.653846 15:0.282609 17:0.5625 18:0.669903 19:0.349398 20:-0.105691 21:0.446154 22:0.495146 23:0.2 24:-0.104 25:0.34375 26:0.384615 27:0.103448 28:-0.183333 29:0.230769 30:0.346535 31:0.0736842 32:-0.28125 33:0.21875 34:0.106796 35:-0.242105 36:-0.390625 
0.47307206265144114 1:0.5 2:0.527273 3:0.309524 4:-0.0413223 5:0.677419 6:0.6 7:0.473684 8:0.015625 9:0.625 10:0.708738 11:0.473684 12:0.015625 13:0.548387 14:0.307692 15:0.195652 16:-0.186441 17:0.25 18:0.398058 19:0.156627 20:-0.235772 21:0.384615 22:0.320388 23:0.0222222 24:-0.216 25:0.375 26:0.384615 27:0.172414 28:-0.25 29:0.384615 30:0.346535 31:-0.0315789 32:-0.28125 33:0.375 34:0.242718 35:-0.0315789 36:-0.28125 
1.3636115243568103 1:0.5 2:0.527273 3:0.309524 4:0.00826446 5:0.677419 6:0.527273 7:0.368421 8:0.015625 9:0.625 10:0.456311 11:0.368421 12:-0.09375 13:0.419355 14:0.461538 15:0.195652 16:-0.0677966 17:0.625 18:0.553398 19:0.253012 20:-0.170732 21:0.507692 22:0.475728 23:0.2 24:-0.168 25:0.375 26:0.384615 27:0.172414 28:-0.25 29:0.661538 30:0.584158 31:0.242105 32:-0.09375 33:0.375 34:0.475728 35:0.242105 36:-0.21875 
0.80136453011549535 1:0.5 2:0.6 3:0.642857 4:0.0743802 5:0.83871 6:0.690909 7:0.473684 8:0.140625 9:0.625 10:0.805825 11:0.473684 12:0.078125 13:0.16129 14:0.384615 15:0.108696 16:-0.118644 17:0.625 18:0.728155 19:0.590361 20:0.0569106 21:0.630769 22:0.728155 23:0.6 24:0.072 25:-0.15625 26:0.0769231 27:-0.264368 28:-0.45 29:0.230769 30:0.50495 31:0.242105 32:-0.09375 33:0.5 34:0.553398 35:0.326316 36:-0.015625 
0.22783681008431869 1:0.5 2:0.781818 3:0.904762 4:0.256198 5:0.548387 6:0.781818 7:0.810526 8:0.1875 9:0.5 10:0.902913 11:0.578947 12:0.140625 13:0.548387 14:0.807692 15:0.630435 16:0.118644 17:0.625 18:0.728155 19:0.590361 20:0.0569106 21:0.507692 22:0.728155 23:0.6 24:0.072 25:0.5 26:0.615385 27:0.494253 28:-0.0333333 29:0.507692 30:0.663366 31:0.326316 32:-0.015625 33:0.5 34:0.475728 35:0.242105 36:-0.09375 
1.6504101157741191 1:0.53125 2:0.436364 3:0.380952 4:-0.107438 5:0.451613 6:0.436364 7:0.263158 8:-0.15625 9:0.40625 10:0.359223 11:0.157895 12:-0.265625 13:0.548387 14:0.365385 15:0.152174 16:-0.220339 17:0.375 18:0.378641 19:0.0120482 20:-0.268293 21:0.261538 22:0.203883 23:-0.0222222 24:-0.248 25:0.375 26:0.307692 27:-0.0114943 28:-0.266667 29:0.261538 30:0.188119 31:-0.136842 32:-0.296875 33:-0.125 34:0.0873786 35:-0.305263 36:-0.40625 
1.0412607492848129 1:0.5625 2:0.563636 3:0.333333 4:0.0413223 5:0.612903 6:0.563636 7:0.515789 8:0.046875 9:0.71875 10:0.669903 11:0.410526 12:0.046875 13:0.677419 14:0.557692 15:0.326087 16:0.0338983 17:0.625 18:0.572816 19:0.39759 20:-0.0894309 21:0.630769 22:0.475728 23:0.333333 24:-0.088 25:0.40625 26:0.346154 27:0.195402 28:-0.233333 29:0.323077 30:0.287129 31:-0.0105263 32:-0.265625 33:0.1875 34:0.184466 35:-0.178947 36:-0.3125 
0.16861590541012397 1:0.5625 2:0.563636 3:0.571429 4:0.0413223 5:0.612903 6:0.563636 7:0.305263 8:-0.015625 9:0.5625 10:0.669903 11:0.305263 12:-0.015625 13:0.677419 14:0.557692 15:0.434783 16:-0.0338983 17:0.625 18:0.475728 19:0.180723 20:-0.203252 21:0.353846 22:0.398058 23:0.133333 24:-0.136 25:0.40625 26:0.346154 27:0.195402 28:-0.3 29:0.323077 30:0.287129 31:0.0736842 32:-0.265625 33:0.1875 34:0.184466 35:-0.0947368 36:-0.3125 
0.90268705670174887 1:0.5625 2:0.563636 3:0.571429 4:0.0413223 5:0.774194 6:0.563636 7:0.410526 8:0.046875 9:0.71875 10:0.669903 11:0.305263 12:-0.015625 13:0.677419 14:0.557692 15:0.326087 16:-0.0338983 17:0.625 18:0.475728 19:0.301205 20:-0.154472 21:0.630769 22:0.398058 23:0.133333 24:-0.136 25:0.3125 26:0.25 27:0.0114943 28:-0.3 29:0.2 30:0.207921 31:-0.178947 32:-0.3125 33:-0.0625 34:0.106796 35:-0.326316 36:-0.4375 
1.2198622085259474 1:0.625 2:0.472727 3:0.380952 4:0.00826446 5:0.677419 6:0.545455 7:0.347368 8:-0.046875 9:0.625 10:0.572816 11:0.347368 12:-0.046875 13:0.709677 14:0.615385 15:0.326087 16:-0.0847458 17:0.53125 18:0.533981 19:0.39759 20:-0.138211 21:0.415385 22:0.533981 23:0.333333 24:-0.136 25:0.375 26:0.365385 27:0.218391 28:-0.183333 29:0.507692 30:0.405941 31:0.178947 32:-0.21875 33:0.375 34:0.378641 35:0.0105263 36:-0.21875 
0.30810837404195007 1:0.625 2:0.472727 3:0.619048 4:-0.0578512 5:0.677419 6:0.309091 7:0.157895 8:-0.109375 9:0.34375 10:0.184466 11:-0.0105263 12:-0.21875 13:0.709677 14:0.615385 15:0.326087 16:0.0338983 17:0.40625 18:0.456311 19:0.180723 20:-0.203252 21:0.323077 22:0.262136 23:0.133333 24:-0.184 25:0.625 26:0.442308 27:0.425287 28:-0.116667 29:0.507692 30:0.405941 31:0.178947 32:-0.21875 33:0.375 34:0.378641 35:0.178947 36:-0.21875 
0.15257385201550847 1:0.625 2:0.527273 3:0.52381 4:-0.0413223 5:0.677419 6:0.6 7:0.473684 8:0.015625 9:0.625 10:0.805825 11:0.473684 12:0.015625 13:0.677419 14:0.634615 15:0.413043 16:0.0677966 17:0.5 18:0.553398 19:0.590361 20:-0.121951 21:0.507692 22:0.475728 23:0.288889 24:-0.104 25:0.375 26:0.307692 27:0.0804598 28:-0.183333 29:0.230769 30:0.188119 31:-0.0315789 32:-0.28125 33:0.09375 34:0.00970874 35:-0.178947 36:-0.40625 
0.74567219209838365 1:0.625 2:0.545455 3:0.380952 4:-0.0578512 5:0.677419 6:0.472727 7:0.347368 8:-0.046875 9:0.625 10:0.572816 11:0.452632 12:-0.046875 13:0.580645 14:0.519231 15:0.326087 16:-0.0847458 17:0.40625 18:0.533981 19:0.301205 20:-0.203252 21:0.415385 22:0.359223 23:0.222222 24:-0.248 25:0.5 26:0.365385 27:0.218391 28:-0.25 29:0.384615 30:0.405941 31:0.0105263 32:-0.21875 33:0.25 34:0.203883 35:-0.0736842 36:-0.265625 
0.11124597441002999 1:0.625 2:0.636364 3:0.5 4:0.00826446 5:0.677419 6:0.472727 7:0.347368 8:0.015625 9:0.625 10:0.572816 11:0.347368 12:-0.046875 13:0.580645 14:0.615385 15:0.23913 16:-0.0338983 17:0.40625 18:0.359223 19:0.180723 20:-0.252033 21:0.323077 22:0.262136 23:0.0444444 24:-0.248 25:0.125 26:0.115385 27:-0.149425 28:-0.433333 29:-0.230769 30:-0.00990099 31:-0.410526 32:-0.5 33:-0.375 34:-0.184466 35:-0.642105 36:-0.609375 
0.079685398565586804 1:0.625 2:0.727273 3:0.880952 4:0.256198 5:0.806452 6:0.818182 7:0.684211 8:0.1875 9:0.625 10:0.572816 11:0.347368 12:-0.109375 13:0.709677 14:0.884615 15:0.782609 16:0.20339 17:0.65625 18:1 19:0.759036 20:0.0894309 21:0.538462 22:0.805825 23:0.755556 24:0.088 25:0.5 26:0.884615 27:0.908046 28:0.25 29:0.507692 30:0.940594 31:0.810526 32:0.1875 33:0.5 34:0.902913 35:0.578947 36:0.140625 
1.5331210941283873 1:0.65625 2:0.527273 3:0.380952 4:0.00826446 5:0.451613 6:0.363636 7:0.157895 8:-0.15625 9:0.3125 10:0.262136 11:0.0736842 12:-0.203125 13:0.677419 14:0.442308 15:0.347826 16:-0.0847458 17:0.5 18:0.378641 19:0.204819 20:-0.268293 21:0.384615 22:0.378641 23:0.244444 24:-0.2 25:0.5 26:0.461538 27:0.172414 28:-0.216667 29:0.384615 30:0.346535 31:0.136842 32:-0.125 33:0.25 34:0.320388 35:-0.0315789 36:-0.296875 
0.0018576965506956387 1:0.65625 2:0.527273 3:0.380952 4:0.00826446 5:0.83871 6:0.6 7:0.452632 8:0.015625 9:0.78125 10:0.708738 11:0.557895 12:0.015625 13:0.548387 14:0.615385 15:0.26087 16:-0.0169492 17:0.625 18:0.708738 19:0.542169 20:-0.0243902 21:0.630769 22:0.708738 23:0.555556 24:0.04 25:0.5 26:0.307692 27:0.264368 28:-0.216667 29:0.261538 30:0.425743 31:0.136842 32:-0.1875 33:0.375 34:0.320388 35:-0.0315789 36:-0.234375 
0.072541100545814821 1:0.65625 2:0.781818 3:0.880952 4:0.173554 5:0.709677 6:0.872727 7:0.663158 8:0.125 9:0.53125 10:0.805825 11:0.663158 12:0.0625 13:0.548387 14:0.884615 15:0.804348 16:0.288136 17:0.5 18:0.902913 19:0.927711 20:0.154472 21:0.507692 22:0.902913 23:0.666667 24:0.168 25:0.5 26:0.807692 27:0.724138 28:0.0833333 29:0.630769 30:0.762376 31:0.515789 32:0.09375 33:0.5 34:0.728155 35:0.515789 36:0.046875 
0.1113824588651157 1:0.75 2:0.636364 3:0.380952 4:0.00826446 5:0.806452 6:0.545455 7:0.347368 8:-0.046875 9:0.46875 10:0.475728 11:0.157895 12:-0.109375 13:0.354839 14:0.173077 15:-0.217391 16:-0.322034 17:-0.0625 18:0.106796 19:-0.301205 20:-0.495935 21:0.415385 22:0.456311 23:0.222222 24:-0.136 25:-0.25 26:-0.115385 27:-0.425287 28:-0.666667 29:-0.230769 30:-0.0891089 31:-0.410526 32:-0.5 34:0.203883 35:-0.0736842 36:-0.265625 
0.70342614090696742 1:0.75 2:0.636364 3:0.761905 4:0.0743802 5:0.806452 6:0.636364 7:0.347368 8:0.015625 9:0.75 10:0.650485 11:0.347368 12:-0.046875 13:0.580645 14:0.442308 15:0.0434783 16:-0.152542 17:0.3125 18:0.184466 19:-0.204819 20:-0.365854 21:-0.0461538 22:0.106796 23:-0.222222 24:-0.424 25:-0.125 26:-0.0384615 27:-0.517241 28:-0.616667 29:-0.230769 30:-0.0891089 31:-0.410526 32:-0.609375 33:-0.25 34:-0.106796 35:-0.410526 36:-0.5 
0.97736350947844208 1:0.78125 2:0.6 3:0.619048 4:0.0578512 5:0.709677 6:0.436364 7:0.347368 8:0.015625 9:0.53125 10:0.359223 11:0.0736842 12:-0.203125 13:0.677419 14:0.519231 15:0.26087 16:-0.0847458 17:0.5 18:0.456311 19:0.204819 20:-0.203252 21:0.507692 22:0.456311 23:0.244444 24:-0.136 25:0.25 26:0.384615 27:0.172414 28:-0.216667 29:0.384615 30:0.50495 31:0.136842 32:-0.1875 33:0.375 34:0.475728 35:0.136842 36:-0.125 
0.082077072101051335 1:0.84375 2:0.654545 3:0.571429 4:0.0413223 5:0.774194 6:0.654545 7:0.515789 8:0.046875 9:0.84375 10:0.76699 11:0.621053 12:0.109375 13:0.806452 14:0.730769 15:0.673913 16:0.101695 17:0.75 18:0.747573 19:0.39759 20:-0.0243902 21:0.753846 22:0.650485 23:0.422222 24:-0.024 25:0.53125 26:0.442308 27:0.103448 28:-0.183333 29:0.323077 30:0.207921 31:-0.178947 32:-0.3125 33:-0.0625 34:0.106796 35:-0.263158 36:-0.4375 
0.2045622591185251 1:0.9375 2:0.8 3:0.857143 4:0.173554 5:0.548387 6:0.709091 7:0.642105 8:0.109375 9:0.375 10:0.553398 11:0.326316 12:-0.09375 13:0.612903 14:0.653846 15:0.391304 17:0.5625 18:0.669903 19:0.590361 20:0.00813008 21:0.723077 22:0.961165 23:0.711111 24:0.184 25:0.46875 26:0.557692 27:0.402299 28:-0.133333 29:0.476923 30:0.50495 31:0.347368 32:-0.046875 33:0.625 34:0.84466 35:0.789474 36:0.25 
0.74552513053733749 2:0.127273 3:-0.0952381 4:-0.289256 5:0.548387 6:0.6 7:0.578947 8:0.078125 9:0.78125 10:0.805825 11:0.473684 12:0.140625 13:-0.0967742 14:-0.0769231 15:-0.434783 16:-0.491525 17:0.125 18:0.398058 19:0.156627 20:-0.170732 21:0.630769 22:0.728155 23:0.6 24:0.12 25:-0.28125 26:-0.0769231 27:-0.448276 28:-0.6 29:-0.138462 30:0.108911 31:-0.263158 32:-0.40625 33:0.21875 34:0.475728 35:0.242105 36:-0.09375 
3.8547908197505674 1:-0.03125 2:-0.0181818 3:-0.380952 4:-0.305785 6:0.0363636 7:-0.157895 8:-0.328125 9:-0.03125 10:0.106796 11:-0.242105 12:-0.328125 13:-0.129032 14:0.0961538 15:-0.217391 16:-0.322034 17:-0.0625 18:0.106796 19:-0.204819 20:-0.317073 21:0.0769231 22:0.184466 23:-0.133333 24:-0.296 25:-0.125 26:0.0384615 27:-0.241379 28:-0.433333 29:0.0153846 30:0.148515 31:-0.242105 32:-0.390625 34:0.203883 35:-0.157895 36:-0.265625 
3.3785729471989026 1:-0.03125 2:-0.0545455 3:-0.119048 4:-0.371901 5:-0.129032 6:-0.254545 7:-0.178947 8:-0.28125 9:-0.28125 10:-0.339806 11:-0.0947368 12:-0.21875 13:-0.16129 14:-0.0769231 15:-0.23913 16:-0.372881 17:-0.0625 18:0.00970874 19:-0.228916 20:-0.349593 21:-0.0461538 22:0.00970874 23:-0.155556 24:-0.28 25:-0.03125 26:-0.0384615 27:-0.149425 28:-0.366667 29:-0.0153846 30:0.0693069 31:-0.157895 32:-0.28125 33:-0.03125 34:0.106796 35:-0.0947368 36:-0.28125 
4.3234854129139881 1:-0.03125 2:-0.0545455 3:-0.309524 4:-0.438017 5:-0.258065 6:-0.127273 7:-0.347368 8:-0.40625 9:-0.15625 10:0.00970874 11:-0.263158 12:-0.40625 13:-0.0322581 14:0.153846 15:-0.152174 16:-0.237288 17:-0.0625 18:0.00970874 19:-0.325301 20:-0.414634 21:-0.169231 22:0.00970874 23:-0.333333 24:-0.344 25:-0.03125 26:0.173077 27:0.0114943 28:-0.183333 29:-0.138462 30:0.128713 31:-0.0947368 32:-0.328125 33:-0.03125 34:0.0485437 35:-0.157895 36:-0.328125 
7.8633177509677434 1:-0.03125 2:-0.0909091 3:-0.190476 4:-0.355372 6:-0.0181818 7:-0.157895 8:-0.28125 9:-0.03125 10:0.106796 11:-0.0947368 12:-0.28125 13:0.0967742 14:0.0961538 15:-0.217391 16:-0.271186 17:0.0625 18:0.106796 19:-0.0120482 20:-0.317073 21:0.0769231 22:0.184466 23:0.0444444 24:-0.248 26:0.115385 27:-0.0574713 28:-0.25 29:0.0153846 30:0.148515 31:0.0105263 32:-0.21875 33:-0.125 34:0.203883 35:-0.0736842 36:-0.15625 
0.095823694503580081 1:-0.03125 2:-0.127273 3:-0.309524 4:-0.371901 5:-0.258065 6:-0.509091 7:0.0526316 8:-0.015625 9:-0.75 10:-0.805825 11:0.0526316 12:0.171875 13:-0.16129 15:-0.413043 16:-0.491525 17:-0.0625 18:0.00970874 19:-0.13253 20:-0.414634 21:0.0769231 22:0.165049 23:0.0222222 24:-0.216 25:-0.03125 26:-0.115385 27:-0.494253 28:-0.566667 29:-0.0153846 30:-0.00990099 31:-0.389474 32:-0.453125 33:0.09375 34:0.0485437 35:-0.242105 36:-0.328125 
9.7017193243662625 1:-0.03125 2:-0.163636 3:-0.452381 4:-0.553719 5:-0.129032 6:-0.290909 7:-0.473684 8:-0.515625 9:-0.15625 10:-0.242718 11:-0.621053 12:-0.515625 13:-0.129032 14:-0.0769231 15:-0.456522 16:-0.508475 17:-0.15625 18:-0.0679612 19:-0.46988 20:-0.495935 21:-0.138462 22:0.00970874 23:-0.288889 24:-0.472 26:0.115385 27:-0.149425 28:-0.3 29:0.0153846 30:0.0693069 31:-0.242105 32:-0.328125 34:0.126214 35:-0.242105 36:-0.328125 
1.541726648093988 1:-0.03125 2:0.0181818 3:-0.119048 4:-0.438017 5:-0.129032 6:-0.0545455 7:-0.263158 8:-0.484375 9:-0.28125 10:-0.0679612 11:-0.263158 12:-0.484375 13:0.225806 14:0.326923 15:-0.152174 16:-0.305085 17:0.0625 18:0.165049 19:-0.228916 20:-0.414634 21:-0.169231 22:0.00970874 23:-0.333333 24:-0.408 25:0.21875 26:0.173077 27:-0.149425 28:-0.366667 29:0.230769 30:0.207921 31:-0.0947368 32:-0.328125 33:-0.03125 34:0.106796 35:-0.242105 36:-0.390625 
0.89987999338777458 1:-0.03125 2:0.0181818 3:-0.261905 4:-0.438017 5:-0.0967742 6:0.0181818 7:-0.221053 8:-0.40625 9:-0.125 10:0.0873786 11:-0.221053 12:-0.40625 15:-0.304348 16:-0.508475 17:-0.03125 18:-0.0679612 19:-0.39759 20:-0.463415 21:-0.0153846 22:-0.0679612 23:-0.311111 24:-0.472 25:-0.0625 27:-0.195402 28:-0.466667 29:-0.169231 30:-0.128713 31:-0.2 32:-0.359375 33:-0.40625 34:-0.359223 35:-0.0315789 36:-0.1875 
9.6735086492753481 1:-0.03125 2:0.0181818 3:-0.309524 4:-0.438017 5:-0.129032 6:-0.0545455 7:-0.263158 8:-0.40625 9:-0.15625 10:0.00970874 11:-0.263158 12:-0.484375 13:-0.16129 14:-0.230769 15:-0.413043 16:-0.559322 17:-0.0625 18:0.00970874 19:-0.325301 20:-0.528455 21:-0.0461538 22:0.0873786 23:-0.155556 24:-0.408 25:-0.15625 26:-0.0384615 27:-0.241379 28:-0.566667 29:-0.0153846 30:0.0693069 31:-0.242105 32:-0.390625 33:-0.03125 34:0.0485437 35:-0.326316 36:-0.328125 
7.364399766004011 1:-0.03125 2:0.0181818 3:-0.309524 4:-0.438017 5:-0.129032 6:-0.127273 7:-0.263158 8:-0.484375 9:-0.03125 10:0.00970874 11:-0.178947 12:-0.484375 13:0.225806 14:0.230769 15:-0.152174 16:-0.305085 17:0.0625 18:0.0873786 19:-0.13253 20:-0.414634 21:-0.169231 22:0.00970874 23:-0.244444 24:-0.456 25:0.09375 26:0.173077 27:-0.0804598 28:-0.433333 29:0.107692 30:0.267327 31:-0.0947368 32:-0.328125 33:-0.03125 34:0.106796 35:-0.157895 36:-0.390625 
2.5164005084534775 1:-0.03125 2:0.0363636 3:-0.119048 4:-0.305785 5:0.129032 6:0.109091 7:-0.0947368 8:-0.28125 9:0.09375 10:-0.0291262 11:-0.242105 12:-0.390625 13:0.0967742 14:0.173077 15:-0.0434783 16:-0.271186 17:0.0625 18:0.00970874 19:-0.204819 20:-0.365854 21:-0.138462 22:0.00970874 23:-0.222222 24:-0.424 25:-0.125 26:0.192308 27:-0.0574713 28:-0.183333 29:-0.107692 30:0.148515 31:0.0105263 32:-0.09375 34:0.203883 35:-0.0736842 36:-0.21875 
5.6585145206975769 1:-0.03125 2:0.0363636 3:-0.190476 4:-0.355372 5:0.129032 6:0.163636 7:0.0736842 8:-0.28125 9:0.09375 10:0.184466 11:-0.157895 12:-0.328125 13:-0.258065 14:-0.0769231 15:-0.369565 16:-0.457627 17:0.0625 18:0.184466 19:-0.204819 20:-0.317073 21:0.0769231 22:0.184466 23:0.0444444 24:-0.296 25:-0.125 26:-0.115385 27:-0.333333 28:-0.483333 29:-0.107692 30:0.0693069 31:-0.242105 32:-0.390625 33:-0.125 34:-0.0291262 35:-0.326316 36:-0.4375 
2.4430454290150156 1:-0.03125 2:0.0909091 3:-0.166667 4:-0.38843 6:0.0909091 7:-0.221053 8:-0.359375 9:0.125 10:0.165049 11:-0.136842 12:-0.359375 13:0.129032 14:0.153846 15:-0.217391 16:-0.423729 17:-0.03125 18:0.165049 19:-0.204819 20:-0.463415 21:0.107692 22:0.0873786 23:-0.133333 24:-0.392 25:0.0625 26:0.153846 27:-0.103448 28:-0.466667 29:0.0769231 30:0.108911 31:-0.2 32:-0.421875 33:-0.0625 34:0.0873786 35:-0.284211 36:-0.359375 
5.4284657542389985 1:-0.03125 2:0.0909091 3:-0.166667 4:-0.38843 6:0.163636 7:-0.221053 8:-0.359375 9:0.125 10:0.0873786 11:-0.136842 12:-0.359375 13:0.129032 14:0.153846 15:-0.130435 16:-0.355932 17:0.09375 18:0.242718 19:-0.204819 20:-0.398374 21:0.107692 22:0.242718 23:-0.0444444 24:-0.328 25:0.0625 26:0.153846 27:-0.0114943 28:-0.333333 29:0.0769231 30:0.108911 31:-0.0315789 32:-0.296875 33:0.0625 34:0.165049 35:-0.115789 36:-0.359375 
5.2759320469656092 1:-0.03125 2:0.0909091 3:-0.214286 4:-0.438017 5:0.129032 6:0.0181818 7:-0.178947 8:-0.40625 9:0.09375 10:0.165049 11:-0.178947 12:-0.40625 13:0.0967742 14:0.0769231 15:-0.23913 16:-0.440678 17:-0.0625 18:0.0873786 19:-0.325301 20:-0.414634 21:0.0769231 22:0.0873786 23:-0.244444 24:-0.408 25:-0.15625 26:-0.115385 27:-0.402299 28:-0.616667 29:-0.261538 30:-0.0891089 31:-0.536842 32:-0.5625 33:-0.15625 34:-0.106796 35:-0.389474 36:-0.515625 
10 1:-0.03125 2:0.0909091 3:-0.214286 4:-0.438017 6:-0.0545455 7:-0.347368 8:-0.484375 9:-0.03125 10:0.00970874 11:-0.263158 12:-0.484375 13:0.0967742 14:0.0769231 15:-0.152174 16:-0.440678 17:-0.0625 18:0.0873786 19:-0.13253 20:-0.479675 21:-0.0461538 22:0.0873786 23:-0.155556 24:-0.344 25:0.09375 26:0.173077 27:-0.149425 28:-0.433333 29:0.107692 30:0.267327 31:-0.0105263 32:-0.28125 33:0.09375 34:0.184466 35:-0.0947368 36:-0.328125 
10 1:-0.03125 2:0.0909091 3:-0.261905 4:-0.38843 5:0.16129 6:0.0909091 7:-0.136842 8:-0.359375 9:0.125 10:0.165049 11:-0.221053 12:-0.359375 14:0.153846 15:-0.217391 16:-0.423729 17:0.09375 18:0.0873786 19:-0.204819 20:-0.463415 21:0.107692 22:0.165049 23:-0.133333 24:-0.392 25:0.0625 26:0.0769231 27:-0.195402 28:-0.466667 29:-0.0461538 30:0.108911 31:-0.284211 32:-0.359375 33:0.0625 34:0.0873786 35:-0.284211 36:-0.421875 
6.3302922039124976 1:-0.03125 2:0.0909091 3:-0.261905 4:-0.38843 6:0.0909091 7:-0.136842 8:-0.359375 9:0.125 10:0.0873786 11:-0.136842 12:-0.40625 13:0.129032 14:0.153846 15:-0.130435 16:-0.355932 17:0.09375 18:0.165049 19:-0.108434 20:-0.463415 21:0.230769 22:0.242718 23:-0.0444444 24:-0.328 25:0.1875 26:0.153846 27:-0.103448 28:-0.333333 29:0.0769231 30:0.188119 31:-0.0315789 32:-0.296875 33:0.0625 34:0.165049 35:-0.2 36:-0.296875 
3.3755334467078093 1:-0.0625 2:-0.0545455 3:-0.309524 4:-0.338843 5:0.0967742 6:0.0363636 7:-0.178947 8:-0.265625 9:0.0625 10:0.106796 11:-0.0105263 12:-0.265625 13:0.16129 14:0.192308 15:-0.0217391 16:-0.152542 18:0.126214 19:-0.0843373 20:-0.268293 21:0.0153846 22:0.126214 23:0.0666667 24:-0.2 25:0.125 26:0.307692 27:0.0804598 28:-0.15 29:-0.0153846 30:0.346535 31:0.0526316 32:-0.1875 33:0.125 34:0.398058 35:0.221053 36:-0.078125 
4.5291901385102653 1:-0.0625 2:-0.127273 3:-0.238095 4:-0.322314 5:-0.258065 6:-0.272727 7:-0.2 8:-0.234375 9:-0.1875 10:-0.300971 11:-0.368421 12:-0.359375 13:0.129032 14:0.173077 15:-0.130435 16:-0.288136 17:0.09375 18:-0.0291262 19:-0.277108 20:-0.447154 21:-0.0153846 22:-0.106796 23:-0.355556 24:-0.504 25:0.0625 27:-0.172414 28:-0.35 29:-0.138462 30:0.029703 31:-0.263158 32:-0.4375 33:-0.15625 34:-0.0679612 35:-0.410526 36:-0.484375 
7.1133915745705973 1:-0.0625 2:-0.127273 3:-0.47619 4:-0.586777 5:-0.129032 6:-0.127273 7:-0.326316 8:-0.375 9:-0.15625 10:-0.0679612 11:-0.263158 12:-0.4375 13:0.0322581 14:-0.0384615 15:-0.369565 16:-0.40678 17:-0.125 18:-0.106796 19:-0.46988 20:-0.560976 21:-0.230769 22:-0.106796 23:-0.466667 24:-0.424 25:0.125 26:0.0769231 27:-0.218391 28:-0.45 29:-0.107692 30:0.108911 31:-0.389474 32:-0.40625 33:-0.125 34:0.0873786 35:-0.305263 36:-0.359375 
0.46510286641635978 1:-0.0625 2:-0.272727 3:0.0714286 4:0.00826446 5:-0.580645 6:-0.709091 7:-0.0105263 8:0.125 9:-0.59375 10:-0.572816 11:-0.0947368 12:-0.046875 13:0.0322581 14:0.115385 15:-0.195652 16:-0.271186 17:-0.25 18:-0.106796 19:-0.277108 20:-0.382114 21:-0.107692 22:0.0485437 23:-0.111111 24:-0.376 25:-0.125 26:-0.0769231 27:-0.494253 28:-0.516667 29:-0.107692 30:0.108911 31:-0.221053 32:-0.359375 33:0.125 34:0.242718 35:0.0526316 36:-0.1875 
7.8285295920265039 1:-0.0625 2:0.0363636 3:-0.214286 4:-0.289256 5:0.0967742 6:0.109091 7:-0.178947 8:-0.3125 9:0.0625 10:0.106796 11:-0.178947 12:-0.3125 13:0.0322581 14:0.115385 15:-0.282609 16:-0.40678 18:0.203883 19:-0.180723 20:-0.317073 21:0.138462 22:0.126214 23:-0.0222222 24:-0.248 25:0.125 26:0.230769 27:-0.0114943 28:-0.333333 29:0.138462 30:0.267327 31:-0.136842 32:-0.359375 33:0.125 34:0.0873786 35:-0.221053 36:-0.359375 
10 1:-0.0625 2:0.109091 3:-0.214286 4:-0.404959 5:0.0967742 6:0.0363636 7:-0.178947 8:-0.375 9:0.0625 10:0.106796 11:-0.263158 12:-0.4375 13:0.0322581 14:0.115385 15:-0.195652 16:-0.40678 18:0.126214 19:-0.277108 20:-0.447154 21:0.138462 22:0.126214 23:-0.111111 24:-0.376 25:0.125 26:0.0769231 27:-0.0114943 28:-0.4 29:-0.0153846 30:0.188119 31:-0.221053 32:-0.359375 33:-0.03125 34:0.165049 35:-0.136842 36:-0.359375 
10 1:-0.125 2:0.0181818 3:-0.261905 4:-0.438017 5:-0.0967742 6:-0.0545455 7:-0.221053 8:-0.46875 9:-0.125 10:0.00970874 11:-0.221053 12:-0.40625 13:-0.129032 14:-0.0769231 15:-0.304348 16:-0.508475 17:-0.03125 18:-0.0679612 19:-0.301205 20:-0.544715 21:-0.138462 22:0.00970874 23:-0.311111 24:-0.472 25:-0.0625 26:0.0769231 27:-0.287356 28:-0.466667 29:-0.169231 30:0.029703 31:-0.284211 32:-0.46875 33:-0.1875 34:0.00970874 35:-0.2 36:-0.421875 
0.48807598943042729 1:-0.125 2:0.0181818 3:-0.261905 4:-0.438017 5:-0.0967742 6:0.0181818 7:-0.221053 8:-0.40625 9:-0.03125 10:0.0873786 11:-0.221053 12:-0.359375 14:-0.0769231 15:-0.391304 16:-0.423729 17:-0.03125 18:-0.0679612 19:-0.39759 20:-0.544715 21:-0.138462 22:-0.0679612 23:-0.222222 24:-0.328 25:-0.1875 26:-0.153846 27:-0.195402 28:-0.4 29:-0.384615 30:-0.346535 31:-0.0315789 32:-0.1875 33:-0.5 34:-0.572816 35:0.136842 36:0.109375 
10 1:-0.125 2:0.0181818 3:-0.261905 4:-0.438017 5:-0.0967742 6:0.0181818 7:-0.221053 8:-0.40625 9:-0.125 10:0.00970874 11:-0.221053 12:-0.46875 15:-0.304348 16:-0.508475 17:-0.15625 18:-0.0679612 19:-0.301205 20:-0.544715 21:-0.0153846 22:-0.0679612 23:-0.222222 24:-0.472 25:-0.0625 26:0.0769231 27:-0.195402 28:-0.4 29:-0.0461538 30:0.108911 31:-0.284211 32:-0.421875 33:-0.1875 34:0.00970874 35:-0.284211 36:-0.46875 
0.71238362660778332 1:-0.125 2:0.0545455 3:-0.190476 4:-0.289256 5:-0.0967742 6:0.218182 7:-0.0736842 8:-0.21875 9:0.125 10:0.300971 11:0.284211 12:-0.21875 13:-0.0967742 14:0.0769231 15:-0.26087 16:-0.423729 17:-0.03125 18:0.0873786 19:-0.253012 20:-0.414634 21:0.138462 22:0.242718 23:-0.0888889 24:-0.28 25:-0.03125 26:-0.0769231 27:-0.356322 28:-0.533333 29:-0.138462 30:-0.049505 31:-0.263158 32:-0.34375 33:-0.15625 34:-0.0679612 35:-0.0315789 36:-0.21875 
6.691745999049175 1:-0.125 2:0.0545455 3:-0.285714 4:-0.421488 5:-0.0967742 6:0.127273 7:-0.242105 8:-0.328125 9:-0.125 10:0.126214 11:-0.157895 12:-0.265625 14:0.0769231 15:-0.26087 16:-0.423729 17:-0.125 18:0.0873786 19:-0.253012 20:-0.463415 21:-0.107692 22:0.0873786 23:-0.177778 24:-0.392 25:-0.03125 27:-0.264368 28:-0.533333 29:-0.0153846 30:-0.049505 31:-0.347368 32:-0.40625 33:-0.03125 34:-0.0679612 35:-0.347368 36:-0.484375 
4.4749741289342762 1:-0.125 2:0.127273 3:-0.285714 4:-0.355372 5:-0.0967742 6:0.0545455 7:-0.157895 8:-0.265625 9:-0.125 10:0.300971 11:-0.0736842 12:-0.21875 13:-0.0967742 14:0.0769231 15:-0.26087 16:-0.423729 17:-0.125 18:0.0873786 19:-0.253012 20:-0.463415 21:-0.0153846 22:0.0873786 23:-0.177778 24:-0.344 25:-0.03125 26:-0.0769231 27:-0.356322 28:-0.45 29:-0.0153846 30:-0.049505 31:-0.347368 32:-0.484375 33:-0.15625 34:-0.0679612 35:-0.263158 36:-0.34375 
0.93163398138731102 1:-0.125 2:0.218182 3:-0.0952381 4:-0.239669 5:0.16129 6:0.218182 7:0.284211 8:-0.21875 9:0.25 10:0.378641 11:0.178947 12:-0.15625 14:0.0769231 15:-0.26087 16:-0.372881 17:0.125 18:0.242718 19:-0.156627 20:-0.349593 21:0.138462 22:0.320388 23:0.2 24:-0.168 25:-0.15625 26:-0.0769231 27:-0.264368 28:-0.383333 29:-0.138462 30:-0.049505 31:-0.0315789 32:-0.21875 33:0.09375 34:0.0873786 35:-0.0315789 36:-0.15625 
3.5990882089568221 1:-0.15625 2:-0.127273 3:-0.309524 4:-0.471074 5:-0.0322581 6:0.0363636 7:-0.178947 8:-0.265625 9:0.0625 10:0.00970874 11:-0.0105263 12:0.015625 13:-0.225806 14:-0.115385 15:-0.543478 16:-0.457627 18:0.0485437 19:-0.277108 20:-0.382114 21:0.138462 22:0.126214 23:0.0666667 24:-0.2 25:-0.125 26:0.0769231 27:-0.310345 28:-0.4 29:-0.107692 30:0.029703 31:-0.305263 32:-0.40625 33:-0.03125 34:0.0873786 35:-0.0315789 36:-0.296875 
4.4202704673398161 1:-0.15625 2:-0.127273 3:-0.380952 4:-0.404959 5:-0.129032 6:-0.127273 7:-0.263158 8:-0.4375 9:-0.0625 10:0.106796 11:-0.178947 12:-0.265625 13:-0.0967742 14:-0.115385 15:-0.456522 16:-0.525424 17:-0.25 18:-0.106796 19:-0.566265 20:-0.495935 21:0.0153846 22:0.0485437 23:-0.2 24:-0.312 25:-0.125 26:0.0769231 27:-0.402299 28:-0.45 29:-0.107692 30:0.108911 31:-0.305263 32:-0.359375 33:-0.125 34:0.00970874 35:-0.305263 36:-0.40625 
6.3174218112379696 1:-0.15625 2:-0.127273 3:-0.47619 4:-0.520661 5:-0.129032 6:-0.127273 7:-0.410526 8:-0.4375 9:-0.15625 10:0.00970874 11:-0.326316 12:-0.484375 13:0.0322581 14:0.115385 15:-0.195652 16:-0.271186 18:0.0485437 19:-0.277108 20:-0.382114 21:0.0153846 22:0.126214 23:-0.2 24:-0.312 25:-0.03125 26:0.307692 27:0.172414 28:-0.216667 29:0.138462 30:0.267327 31:0.0526316 32:-0.1875 33:0.125 34:0.242718 35:-0.0315789 36:-0.1875 
10 1:-0.15625 2:-0.163636 3:-0.285714 4:-0.355372 6:-0.0909091 7:-0.157895 8:-0.328125 9:-0.03125 10:0.0485437 11:-0.157895 12:-0.28125 13:-0.0322581 15:-0.304348 16:-0.322034 17:0.0625 18:0.106796 19:-0.204819 20:-0.317073 21:0.0769231 22:0.106796 23:0.0444444 24:-0.248 25:0.125 26:0.192308 27:0.0344828 28:-0.183333 29:0.0153846 30:0.148515 31:-0.0736842 32:-0.21875 34:0.126214 35:0.0105263 36:-0.21875 
6.5439364126488968 1:-0.15625 2:-0.218182 3:-0.285714 4:-0.487603 5:-0.129032 6:-0.0909091 7:-0.242105 8:-0.515625 9:-0.03125 10:0.0485437 11:-0.242105 12:-0.390625 13:0.0967742 14:0.0961538 15:-0.304348 16:-0.322034 17:-0.0625 18:0.106796 19:-0.108434 20:-0.495935 21:-0.0461538 22:0.106796 23:-0.222222 24:-0.424 25:0.125 26:0.192308 27:-0.0574713 28:-0.366667 29:0.0153846 30:0.148515 31:-0.242105 32:-0.390625 34:0.126214 35:-0.157895 36:-0.390625 
2.9568593449595255 1:-0.15625 2:0.0363636 3:-0.0238095 4:-0.22314 5:-0.129032 6:0.0363636 7:-0.0947368 8:-0.265625 9:-0.15625 10:0.106796 11:-0.178947 12:-0.3125 13:-0.225806 14:0.192308 15:0.0652174 16:-0.220339 17:-0.25 18:0.0485437 19:-0.277108 20:-0.382114 21:-0.107692 22:0.0485437 23:-0.2 24:-0.376 25:-0.03125 26:0.0769231 27:-0.126437 28:-0.333333 29:-0.0153846 30:0.108911 31:-0.221053 32:-0.359375 33:0.125 34:0.165049 35:-0.136842 36:-0.234375 
7.408901106855609 1:-0.15625 2:0.0363636 3:-0.380952 4:-0.421488 5:0.129032 6:0.163636 7:-0.0105263 8:-0.21875 9:0.21875 10:0.320388 11:0.0736842 12:-0.21875 13:-0.129032 14:-0.0769231 15:-0.369565 16:-0.508475 17:-0.0625 18:0.106796 19:-0.301205 20:-0.430894 21:0.2 22:0.184466 23:-0.0444444 24:-0.248 25:-0.125 26:-0.0384615 27:-0.333333 28:-0.483333 29:-0.230769 30:-0.0891089 31:-0.410526 32:-0.5625 33:-0.125 34:0.0485437 35:-0.410526 36:-0.390625 
4.5119326198383591 1:-0.1875 2:-0.0545455 3:-0.428571 4:-0.504132 5:-0.0322581 6:-0.0545455 7:-0.115789 8:-0.359375 9:0.0625 10:0.165049 11:-0.0315789 12:-0.234375 14:-0.115385 15:-0.521739 16:-0.542373 17:-0.03125 18:-0.0291262 19:-0.445783 20:-0.512195 21:0.107692 22:0.0485437 23:-0.2 24:-0.312 25:-0.0625 26:-0.0769231 27:-0.425287 28:-0.6 29:-0.138462 30:-0.049505 31:-0.326316 32:-0.375 33:-0.15625 34:-0.0679612 35:-0.263158 36:-0.4375 
10 1:-0.1875 2:-0.127273 3:-0.238095 4:-0.38843 5:-0.0322581 6:-0.0545455 7:-0.2 8:-0.296875 9:-0.0625 10:0.00970874 11:-0.2 12:-0.296875 14:-0.0384615 15:-0.195652 16:-0.338983 17:-0.03125 18:0.0485437 19:-0.180723 20:-0.333333 21:-0.0153846 22:0.106796 23:-0.0444444 24:-0.264 25:0.0625 26:0.0961538 27:-0.172414 28:-0.3 29:0.0769231 30:0.128713 31:-0.0105263 32:-0.265625 33:0.0625 34:0.184466 35:-0.0105263 36:-0.265625 
3.116461792653332 1:-0.1875 2:-0.2 3:-0.52381 4:-0.504132 5:-0.16129 6:-0.0545455 7:-0.368421 8:-0.46875 9:-0.0625 10:0.00970874 11:-0.115789 12:-0.359375 13:-0.129032 14:-0.25 15:-0.673913 16:-0.542373 17:-0.03125 18:-0.106796 19:-0.542169 20:-0.577236 21:-0.0153846 22:-0.0291262 23:-0.355556 24:-0.44 25:-0.15625 27:-0.333333 28:-0.533333 29:-0.0461538 30:-0.049505 31:-0.410526 32:-0.546875 33:-0.15625 34:-0.0679612 35:-0.326316 36:-0.375 
1.8830685521987327 1:-0.1875 2:-0.345455 3:-0.428571 4:-0.38843 5:-0.258065 6:-0.272727 7:-0.368421 8:-0.46875 9:-0.1875 10:-0.145631 11:-0.452632 12:-0.46875 14:-0.115385 15:-0.434783 16:-0.542373 17:-0.15625 18:-0.242718 19:-0.542169 20:-0.577236 21:-0.138462 22:-0.242718 23:-0.6 24:-0.504 25:-0.15625 26:-0.0769231 27:-0.425287 28:-0.533333 29:-0.138462 30:-0.049505 31:-0.410526 32:-0.4375 33:-0.15625 34:0.00970874 35:-0.326316 36:-0.484375 
1.989087629717966 1:-0.25 2:-0.163636 3:-0.285714 4:-0.355372 5:-0.0967742 6:-0.0181818 7:-0.157895 8:-0.390625 10:0.300971 11:-0.242105 12:-0.328125 13:-0.0967742 14:0.0769231 15:-0.26087 16:-0.372881 17:0.125 18:0.242718 19:0.060241 20:-0.235772 21:0.138462 22:0.398058 23:0.2 24:-0.168 25:-0.15625 26:-0.134615 27:-0.448276 28:-0.533333 29:0.107692 30:0.188119 31:-0.0315789 32:-0.21875 33:0.21875 34:0.398058 35:0.0526316 36:-0.21875 
10 1:-0.25 2:-0.163636 3:-0.571429 4:-0.471074 5:0.0322581 6:-0.0181818 7:-0.242105 8:-0.328125 9:0.125 10:0.126214 11:0.0105263 12:-0.21875 13:-0.0967742 14:0.0769231 15:-0.347826 16:-0.372881 17:-0.125 18:0.00970874 19:-0.349398 20:-0.463415 21:-0.0153846 22:0.0873786 23:0.0222222 24:-0.28 25:-0.28125 26:-0.0769231 27:-0.356322 28:-0.45 29:-0.138462 30:0.029703 31:-0.263158 32:-0.40625 33:0.09375 34:0.00970874 35:-0.178947 36:-0.34375 
0.04664391964965435 1:-0.25 2:0.127273 3:0.0952381 4:-0.239669 5:-0.225806 6:-0.0181818 7:-0.242105 8:-0.328125 9:-0.125 10:0.0485437 11:-0.242105 12:-0.390625 14:0.0769231 15:-0.173913 16:-0.305085 17:-0.03125 18:0.0873786 19:-0.253012 20:-0.414634 21:0.138462 22:0.165049 23:-0.0888889 24:-0.216 25:-0.03125 26:0.230769 27:-0.0114943 28:-0.316667 29:-0.0153846 30:0.108911 31:-0.0947368 32:-0.34375 33:-0.03125 34:0.00970874 35:-0.0947368 36:-0.34375 
7.1367761438389525 1:-0.28125 2:-0.127273 3:-0.404762 4:-0.438017 5:-0.129032 6:-0.0545455 7:-0.263158 8:-0.40625 9:0.09375 10:0.00970874 11:-0.178947 12:-0.34375 13:-0.0322581 15:-0.326087 16:-0.372881 17:-0.1875 18:0.00970874 19:-0.421687 20:-0.414634 21:-0.0461538 22:0.00970874 23:-0.333333 24:-0.408 25:-0.15625 26:0.0961538 27:-0.0804598 28:-0.366667 29:-0.0153846 30:0.0693069 31:-0.157895 32:-0.328125 33:-0.03125 34:0.0485437 35:-0.326316 36:-0.28125 
8.4468085458096667 1:-0.28125 2:-0.272727 3:-0.428571 4:-0.504132 5:-0.16129 6:-0.2 7:-0.452632 8:-0.46875 9:-0.1875 10:0.00970874 11:-0.368421 12:-0.46875 13:-0.129032 14:-0.25 15:-0.521739 16:-0.542373 17:-0.15625 18:-0.242718 19:-0.710843 20:-0.577236 21:-0.0153846 22:-0.106796 23:-0.444444 24:-0.504 25:-0.15625 26:-0.0769231 27:-0.425287 28:-0.483333 29:-0.138462 30:0.029703 31:-0.326316 32:-0.484375 33:-0.0625 34:-0.0679612 35:-0.410526 36:-0.546875 
7.8480137248445354 1:-0.28125 2:-0.327273 3:-0.5 4:-0.520661 5:-0.129032 6:-0.254545 7:-0.347368 8:-0.40625 9:-0.03125 10:-0.0679612 11:-0.263158 12:-0.34375 13:-0.258065 14:-0.230769 15:-0.413043 16:-0.491525 17:-0.1875 18:-0.145631 19:-0.518072 20:-0.528455 21:-0.169231 22:0.00970874 23:-0.333333 24:-0.456 25:-0.15625 26:-0.25 27:-0.494253 28:-0.566667 29:-0.138462 30:-0.227723 31:-0.621053 32:-0.515625 33:-0.03125 34:-0.106796 35:-0.473684 36:-0.515625 
1.9258178849622809 1:-0.375 2:-0.2 3:-0.380952 4:-0.471074 5:-0.258065 6:-0.272727 7:-0.410526 8:-0.375 9:-0.375 10:-0.300971 11:-0.494737 12:-0.375 13:0.16129 14:0.115385 15:-0.0217391 16:-0.271186 18:0.0485437 19:-0.277108 20:-0.382114 21:-0.107692 22:-0.106796 23:-0.377778 24:-0.424 25:0.25 26:0.384615 27:0.172414 28:-0.15 29:0.261538 30:0.346535 31:0.0526316 32:-0.1875 33:-0.03125 34:0.00970874 35:-0.136842 36:-0.296875 
2.2618656057378903 1:-0.40625 2:-0.345455 3:-0.190476 4:-0.305785 5:-0.129032 6:-0.218182 7:-0.242105 8:-0.453125 9:-0.15625 10:-0.0291262 11:-0.242105 12:-0.515625 13:0.0967742 14:0.173077 15:-0.304348 16:-0.322034 17:0.0625 18:0.106796 19:-0.301205 20:-0.365854 21:-0.0461538 22:0.106796 23:-0.0444444 24:-0.424 25:0.125 26:0.288462 27:0.0344828 28:-0.3 29:0.138462 30:0.227723 31:-0.0736842 32:-0.328125 34:0.126214 35:-0.242105 36:-0.390625 
0.12664927863308117 1:-0.5 2:-0.509091 3:-0.357143 4:-0.322314 5:-0.483871 6:-0.509091 7:-0.305263 8:-0.359375 9:-0.375 10:-0.475728 11:-0.305263 12:-0.359375 13:-0.129032 14:-0.211538 15:-0.391304 16:-0.423729 17:-0.03125 18:-0.0679612 19:-0.301205 20:-0.398374 21:-0.261538 22:-0.475728 23:0.111111 24:0.008 25:-0.1875 26:-0.153846 27:-0.471264 28:-0.516667 29:-0.169231 30:0.029703 31:-0.368421 32:-0.46875 33:-0.0625 34:0.00970874 35:-0.115789 36:-0.359375 
0.21227740388539301 1:-0.8125 2:-0.909091 3:0.238095 4:0.471074 5:-0.612903 6:-0.709091 7:-0.115789 8:-0.015625 9:-0.1875 10:-0.223301 11:-0.368421 12:-0.53125 13:-0.387097 14:-0.307692 15:-0.195652 16:-0.288136 17:-0.15625 18:-0.165049 19:-0.277108 20:-0.512195 21:-0.138462 22:-0.0291262 23:-0.2 24:-0.504 25:0.0625 26:0.173077 27:-0.264368 28:-0.35 29:0.0769231 30:0.128713 31:-0.263158 32:-0.3125 33:-0.0625 34:0.106796 35:-0.0947368 36:-0.4375 
7.7317991017432588 1:0.0625 2:0.0181818 3:-0.047619 4:-0.322314 5:0.0967742 6:0.0909091 7:-0.115789 8:-0.359375 9:0.0625 10:0.165049 11:-0.2 12:-0.359375 13:0.129032 14:0.173077 15:-0.195652 16:-0.338983 17:0.09375 18:0.184466 19:-0.180723 20:-0.447154 21:-0.0153846 22:0.0485437 23:-0.111111 24:-0.44 25:-0.0625 26:0.173077 27:-0.264368 28:-0.483333 29:-0.138462 30:-0.049505 31:-0.410526 32:-0.484375 33:-0.28125 34:-0.145631 35:-0.494737 36:-0.484375 
0.022442909786217637 1:0.0625 2:0.0363636 3:-0.0238095 4:-0.289256 5:-0.0322581 6:-0.272727 7:0.0736842 8:0.015625 9:-0.59375 10:-0.68932 11:-0.0105263 12:0.125 13:0.0322581 14:0.192308 15:-0.108696 16:-0.271186 18:0.126214 19:-0.180723 20:-0.317073 21:-0.230769 22:-0.106796 23:-0.2 24:-0.312 25:-0.125 27:-0.402299 28:-0.516667 29:-0.107692 30:-0.049505 31:-0.473684 32:-0.46875 33:-0.125 34:0.0873786 35:-0.221053 36:-0.359375 
10 1:0.0625 2:0.0363636 3:-0.214286 4:-0.404959 5:0.0967742 6:0.0363636 7:-0.263158 8:-0.4375 9:0.0625 10:0.184466 11:-0.0947368 12:-0.375 13:0.0322581 14:0.115385 15:-0.282609 16:-0.40678 17:0.125 18:0.126214 19:-0.180723 20:-0.447154 21:0.138462 22:0.126214 23:-0.111111 24:-0.376 25:-0.03125 26:0.153846 27:-0.218391 28:-0.4 29:-0.0153846 30:0.188119 31:-0.136842 32:-0.359375 33:0.125 34:0.0873786 35:-0.136842 36:-0.40625 
1.3231135544775143 1:0.0625 2:0.0909091 3:-0.047619 4:-0.322314 5:0.0967742 6:0.0909091 7:-0.2 8:-0.296875 9:0.1875 10:0.165049 11:-0.0315789 12:-0.359375 13:0.129032 14:0.230769 15:-0.0434783 16:-0.338983 17:0.09375 18:0.184466 19:-0.180723 20:-0.382114 21:0.230769 22:0.184466 23:-0.0444444 24:-0.376 25:0.3125 26:0.173077 27:0.0114943 28:-0.416667 29:0.0769231 30:0.207921 31:-0.0947368 32:-0.3125 33:0.0625 34:0.106796 35:-0.0105263 36:-0.375 
1.5559224671376735 1:0.0625 2:0.0909091 3:-0.142857 4:-0.38843 5:0.0967742 6:0.0909091 7:-0.2 8:-0.359375 9:0.1875 10:0.165049 11:-0.284211 12:-0.359375 13:0.258065 14:0.230769 15:-0.195652 16:-0.40678 17:0.21875 18:0.184466 19:-0.108434 20:-0.447154 21:0.230769 22:0.242718 23:-0.0444444 24:-0.312 25:0.1875 26:0.173077 27:0.0114943 28:-0.35 29:0.323077 30:0.207921 31:-0.0105263 32:-0.3125 33:0.1875 34:0.262136 35:-0.0105263 36:-0.3125 
0.04962611711807869 1:0.0625 2:0.0909091 3:-0.238095 4:-0.322314 5:0.225806 6:0.0909091 7:-0.0315789 8:-0.359375 9:0.1875 10:0.242718 11:-0.2 12:-0.359375 13:0.129032 14:0.173077 15:-0.195652 16:-0.338983 17:0.21875 18:0.184466 19:-0.108434 20:-0.447154 21:0.230769 22:0.320388 23:-0.0444444 24:-0.312 25:0.0625 26:0.173077 27:-0.0804598 28:-0.35 29:0.0769231 30:0.128713 31:-0.0105263 32:-0.375 33:0.3125 34:0.106796 35:-0.178947 36:-0.3125 
8.3725200031340474 1:0.0625 2:0.163636 3:-0.047619 4:-0.38843 5:0.354839 6:0.163636 7:-0.0315789 8:-0.1875 9:0.3125 10:0.242718 11:0.0526316 12:-0.234375 13:-0.129032 14:0.0961538 15:-0.369565 16:-0.40678 17:0.09375 18:0.242718 19:-0.0120482 20:-0.268293 21:0.230769 22:0.320388 23:0.133333 24:-0.2 25:-0.15625 26:-0.0769231 27:-0.333333 28:-0.533333 29:-0.0461538 30:0.128713 31:-0.263158 32:-0.375 33:0.1875 34:0.184466 35:-0.0947368 36:-0.265625 
1.487064363826287 1:0.0625 2:0.163636 3:0.047619 4:-0.206612 5:0.225806 6:0.254545 7:-0.0315789 8:-0.1875 9:0.1875 10:0.242718 11:-0.0315789 12:-0.234375 13:0.258065 14:0.230769 15:-0.0434783 16:-0.152542 17:0.21875 18:0.242718 19:-0.0120482 20:-0.268293 21:0.107692 22:0.184466 23:-0.0444444 24:-0.264 25:0.0625 26:0.25 27:0.103448 28:-0.233333 29:0.0769231 30:0.128713 31:-0.0105263 32:-0.265625 33:0.0625 34:0.184466 35:-0.0947368 36:-0.265625 
4.9610049861104786 1:0.0625 2:0.181818 3:-0.214286 4:-0.289256 5:0.0967742 6:0.0363636 7:-0.0947368 8:-0.375 9:-0.0625 10:0.184466 11:-0.178947 12:-0.375 13:0.16129 14:0.115385 15:-0.195652 16:-0.338983 17:0.125 18:0.203883 19:-0.0843373 20:-0.447154 21:0.0153846 22:0.126214 23:-0.111111 24:-0.376 25:0.125 26:0.153846 27:-0.0114943 28:-0.4 29:0.138462 30:0.267327 31:-0.0315789 32:-0.359375 33:0.125 34:0.0873786 35:-0.0315789 36:-0.359375 
7.1543369141715756 1:0.0625 2:0.181818 3:0.0714286 4:-0.22314 5:0.0967742 6:0.0363636 7:-0.0105263 8:-0.265625 9:0.0625 10:0.184466 11:-0.0947368 12:-0.265625 13:0.16129 14:0.192308 15:-0.0217391 16:-0.220339 18:0.203883 19:0.0120482 20:-0.268293 21:0.138462 22:0.126214 23:0.0666667 24:-0.2 25:-0.03125 26:0.230769 27:0.0804598 28:-0.216667 29:0.138462 30:0.346535 31:0.221053 32:-0.078125 33:0.25 34:0.320388 35:0.136842 36:-0.125 
0.84231260209291237 1:0.09375 2:-0.0545455 3:-0.214286 4:-0.305785 5:-0.387097 6:-0.327273 7:-0.431579 8:-0.34375 9:-0.53125 10:-0.281553 11:-0.347368 12:-0.40625 13:0.354839 14:0.230769 15:0.0217391 16:-0.237288 17:0.0625 18:0.0873786 19:-0.13253 20:-0.349593 21:-0.261538 22:-0.223301 23:-0.333333 24:-0.344 25:0.21875 26:0.307692 27:0.103448 28:-0.25 29:0.107692 30:0.207921 31:-0.0105263 32:-0.21875 33:0.09375 34:0.0485437 35:-0.242105 36:-0.28125 
10 1:0.09375 2:-0.0545455 3:-0.214286 4:-0.371901 5:0.129032 6:0.0181818 7:-0.0947368 8:-0.34375 9:0.09375 10:0.00970874 11:0.0526316 12:-0.15625 13:-0.0322581 15:-0.413043 16:-0.440678 17:-0.0625 18:0.00970874 19:-0.421687 20:-0.479675 21:-0.0461538 22:0.0873786 23:-0.0666667 24:-0.28 25:-0.03125 26:0.0384615 27:-0.333333 28:-0.316667 29:-0.0153846 30:0.128713 31:-0.157895 32:-0.328125 33:-0.03125 34:0.106796 35:-0.242105 36:-0.328125 
1.7359412429917906 1:0.09375 2:-0.0909091 3:-0.285714 4:-0.421488 6:-0.163636 7:-0.389474 8:-0.515625 9:-0.15625 10:-0.242718 11:-0.473684 12:-0.515625 13:-0.129032 15:-0.304348 16:-0.457627 17:-0.15625 18:-0.0679612 19:-0.46988 20:-0.544715 21:-0.138462 22:-0.0679612 23:-0.377778 24:-0.424 26:0.192308 27:-0.0574713 28:-0.25 29:0.0153846 30:0.148515 31:-0.157895 32:-0.265625 34:0.0485437 35:-0.242105 36:-0.328125 
2.5402429396200317 1:0.09375 2:0.0363636 3:-0.190476 4:-0.421488 5:0.129032 6:0.0363636 7:-0.0947368 8:-0.328125 9:0.09375 10:0.184466 11:-0.157895 12:-0.390625 13:0.225806 14:0.173077 15:-0.130435 16:-0.322034 17:0.1875 18:0.106796 19:-0.108434 20:-0.430894 21:0.0769231 22:0.106796 23:-0.133333 24:-0.36 26:0.115385 27:-0.0574713 28:-0.366667 29:0.0153846 30:0.0693069 31:-0.0736842 32:-0.328125 33:-0.25 34:-0.184466 35:0.0947368 36:-0.15625 
6.0385034776480513 1:0.09375 2:0.0909091 3:-0.047619 4:-0.305785 5:0.258065 6:0.163636 7:-0.0315789 8:-0.21875 9:0.21875 10:0.242718 11:-0.0315789 12:-0.28125 13:-0.0322581 14:0.0769231 15:-0.326087 16:-0.440678 17:0.0625 18:0.242718 19:-0.0361446 20:-0.414634 21:0.323077 22:0.242718 23:0.0222222 24:-0.168 25:-0.15625 26:0.0384615 27:-0.333333 28:-0.5 29:-0.138462 30:0.128713 31:-0.326316 32:-0.390625 33:0.09375 34:0.242718 35:-0.0105263 36:-0.21875 
2.9941826119094821 1:0.09375 2:0.0909091 3:-0.119048 4:-0.239669 6:-0.127273 7:-0.263158 8:-0.34375 9:0.09375 10:0.00970874 11:-0.178947 12:-0.34375 13:0.0967742 14:0.230769 15:0.0217391 16:-0.186441 17:0.1875 18:0.339806 19:-0.0361446 20:-0.235772 21:0.2 22:0.242718 23:0.0222222 24:-0.216 25:0.21875 26:0.230769 27:0.0114943 28:-0.183333 29:0.230769 30:0.267327 31:-0.0105263 32:-0.21875 33:0.09375 34:0.184466 35:-0.0947368 36:-0.28125 
10 1:0.09375 2:0.0909091 3:-0.119048 4:-0.371901 5:0.129032 6:0.0909091 7:-0.0947368 8:-0.40625 9:0.21875 10:0.242718 11:-0.0947368 12:-0.34375 13:0.225806 14:0.153846 15:-0.152174 16:-0.305085 17:0.0625 18:0.165049 19:-0.0361446 20:-0.349593 21:0.0769231 22:0.165049 23:-0.155556 24:-0.28 25:0.21875 26:0.173077 27:-0.0804598 28:-0.366667 29:0.107692 30:0.267327 31:-0.0105263 32:-0.328125 33:0.09375 34:0.184466 35:-0.157895 36:-0.328125 
10 1:0.09375 2:0.0909091 3:-0.119048 4:-0.371901 5:0.129032 6:0.163636 7:-0.178947 8:-0.34375 9:0.09375 10:0.242718 11:-0.0947368 12:-0.34375 13:0.0967742 14:0.153846 15:-0.0652174 16:-0.305085 17:0.0625 18:0.0873786 19:-0.0361446 20:-0.349593 21:0.0769231 22:0.165049 23:-0.0666667 24:-0.344 25:0.09375 26:0.173077 27:-0.149425 28:-0.366667 29:0.107692 30:0.207921 31:-0.157895 32:-0.328125 33:0.09375 34:0.184466 35:-0.157895 36:-0.390625 
10 1:0.09375 2:0.0909091 3:-0.119048 4:-0.438017 6:0.0909091 7:-0.178947 8:-0.40625 9:-0.03125 10:0.00970874 11:-0.347368 12:-0.484375 13:0.225806 14:0.153846 15:-0.152174 16:-0.440678 17:0.0625 18:0.0873786 19:-0.13253 20:-0.479675 21:-0.0461538 22:0.0873786 23:-0.0666667 24:-0.408 25:0.09375 26:0.0961538 27:-0.0804598 28:-0.366667 29:0.107692 30:0.207921 31:-0.157895 32:-0.390625 33:0.09375 34:0.242718 35:-0.0105263 36:-0.28125 
3.5732163940379262 1:0.09375 2:0.0909091 3:-0.214286 4:-0.438017 5:0.129032 6:0.0181818 7:-0.178947 8:-0.34375 9:-0.03125 10:0.0873786 11:-0.263158 12:-0.40625 13:0.0967742 14:0.153846 15:-0.23913 16:-0.440678 17:0.0625 18:0.165049 19:-0.228916 20:-0.414634 21:0.2 22:0.242718 23:-0.0666667 24:-0.28 25:-0.03125 26:0.0961538 27:-0.0804598 28:-0.366667 29:0.107692 30:0.207921 31:-0.157895 32:-0.390625 33:0.09375 34:0.184466 35:-0.0947368 36:-0.390625 
3.1286245899898022 1:0.09375 2:0.109091 3:-0.190476 4:-0.355372 5:0.129032 6:0.109091 7:-0.157895 8:-0.328125 9:0.09375 10:0.184466 11:-0.157895 12:-0.390625 13:0.0967742 14:0.173077 15:-0.0434783 16:-0.322034 17:-0.0625 18:0.184466 19:-0.301205 20:-0.495935 21:-0.138462 22:-0.0679612 23:-0.377778 24:-0.472 25:-0.125 26:-0.0384615 27:-0.333333 28:-0.483333 29:-0.230769 30:-0.0891089 31:-0.410526 32:-0.5 33:-0.25 34:-0.106796 35:-0.410526 36:-0.5 
8.078334273211631 1:0.09375 2:0.109091 3:-0.190476 4:-0.355372 5:0.129032 6:0.163636 7:-0.0105263 8:-0.328125 9:0.21875 10:0.184466 11:-0.0105263 12:-0.328125 13:0.0967742 14:0.173077 15:-0.130435 16:-0.322034 17:0.1875 18:0.184466 19:-0.0120482 20:-0.430894 21:0.2 22:0.262136 23:0.0444444 24:-0.296 26:0.192308 27:-0.0574713 28:-0.366667 29:0.138462 30:0.227723 31:-0.0736842 32:-0.328125 33:0.25 34:0.300971 35:-0.0736842 36:-0.328125 
4.0486772708762029 1:0.09375 2:0.109091 3:-0.190476 4:-0.355372 5:0.258065 6:0.109091 7:-0.0947368 8:-0.390625 9:0.21875 10:0.320388 11:-0.0947368 12:-0.328125 13:0.0967742 14:0.173077 15:-0.130435 16:-0.322034 17:0.0625 18:0.106796 19:-0.0120482 20:-0.430894 21:0.323077 22:0.106796 23:-0.133333 24:-0.296 25:0.25 26:0.192308 27:-0.0574713 28:-0.366667 29:0.138462 30:0.148515 31:-0.242105 32:-0.390625 33:0.125 34:0.126214 35:-0.157895 36:-0.390625 
10 1:0.09375 2:0.109091 3:-0.190476 4:-0.421488 5:0.129032 6:0.109091 7:-0.0947368 8:-0.390625 9:0.09375 10:0.242718 11:-0.0947368 12:-0.328125 13:0.0967742 14:0.0961538 15:-0.217391 16:-0.389831 17:0.0625 18:0.106796 19:-0.301205 20:-0.495935 21:0.0769231 22:0.184466 23:-0.0444444 24:-0.36 26:0.115385 27:-0.241379 28:-0.433333 29:0.138462 30:0.148515 31:-0.157895 32:-0.390625 33:0.125 34:0.126214 35:-0.157895 36:-0.390625 
7.1000551437410184 1:0.09375 2:0.163636 3:-0.0238095 4:-0.239669 5:0.258065 6:0.236364 7:0.0736842 8:-0.21875 9:0.09375 10:0.184466 11:-0.0105263 12:-0.21875 13:-0.0322581 14:0.0961538 15:-0.304348 16:-0.389831 17:0.1875 18:0.184466 19:-0.108434 20:-0.317073 21:0.0769231 22:0.00970874 23:-0.133333 24:-0.296 25:-0.25 26:-0.115385 27:-0.425287 28:-0.616667 29:-0.107692 30:0.0693069 31:-0.410526 32:-0.390625 34:0.0485437 35:-0.157895 36:-0.265625 
10 1:0.09375 2:0.163636 3:-0.119048 4:-0.355372 5:0.129032 6:0.109091 7:-0.157895 8:-0.328125 9:-0.03125 10:0.106796 11:-0.0947368 12:-0.328125 13:0.0967742 14:0.25 15:-0.217391 16:-0.271186 17:0.0625 18:0.106796 19:-0.108434 20:-0.430894 21:-0.0461538 22:0.184466 23:-0.133333 24:-0.36 25:0.125 26:0.115385 27:-0.149425 28:-0.366667 29:0.138462 30:0.227723 31:-0.0736842 32:-0.390625 34:0.126214 35:-0.157895 36:-0.390625 
10 1:0.09375 2:0.163636 3:-0.119048 4:-0.371901 5:0.129032 6:0.0181818 7:-0.178947 8:-0.34375 9:0.09375 10:0.165049 11:-0.0947368 12:-0.34375 13:0.225806 14:0.153846 15:-0.23913 16:-0.372881 17:0.1875 18:0.165049 19:-0.228916 20:-0.414634 21:0.2 22:0.165049 23:-0.0666667 24:-0.28 25:0.09375 26:0.230769 27:0.0114943 28:-0.366667 29:0.230769 30:0.207921 31:-0.0105263 32:-0.328125 33:0.21875 34:0.184466 35:-0.0947368 36:-0.328125 
6.3788421325575433 1:0.09375 2:0.163636 3:-0.214286 4:-0.305785 5:0.129032 6:0.163636 7:-0.0947368 8:-0.28125 9:0.09375 10:0.242718 11:0.0526316 12:-0.28125 13:0.225806 14:0.153846 15:-0.152174 16:-0.372881 17:0.1875 18:0.242718 19:-0.0361446 20:-0.349593 21:0.2 22:0.339806 23:0.111111 24:-0.28 25:0.09375 26:0.230769 27:0.0114943 28:-0.366667 29:0.107692 30:0.128713 31:-0.0947368 32:-0.28125 33:0.21875 34:0.242718 35:0.0736842 36:-0.21875 
9.510483945491627 1:0.09375 2:0.163636 3:-0.214286 4:-0.371901 5:0.129032 6:0.163636 7:-0.0947368 8:-0.34375 9:-0.03125 10:0.0873786 11:-0.178947 12:-0.40625 13:0.0967742 14:0.0769231 15:-0.0652174 16:-0.305085 17:0.0625 18:0.165049 19:-0.13253 20:-0.414634 21:0.0769231 22:0.165049 23:-0.155556 24:-0.344 25:0.09375 26:0.173077 27:-0.149425 28:-0.366667 29:0.107692 30:0.207921 31:-0.157895 32:-0.390625 33:-0.03125 34:0.0485437 35:-0.157895 36:-0.453125 
2.2058528823052819 1:0.09375 2:0.163636 3:0.0714286 4:-0.305785 5:0.129032 6:0.109091 7:-0.157895 8:-0.328125 9:0.09375 10:0.184466 11:-0.157895 12:-0.328125 13:0.0967742 14:0.173077 15:-0.217391 16:-0.271186 17:0.0625 18:0.184466 19:-0.0120482 20:-0.365854 21:-0.0461538 22:0.184466 23:-0.222222 24:-0.424 25:-0.125 26:0.0384615 27:-0.241379 28:-0.433333 29:-0.107692 30:-0.00990099 31:-0.326316 32:-0.4375 33:-0.25 34:-0.106796 35:-0.410526 36:-0.5 
0.45461937018588156 1:0.125 2:0.0181818 3:-0.047619 4:-0.206612 5:-0.0967742 6:-0.127273 7:-0.305263 8:-0.1875 9:-0.25 10:-0.203883 11:-0.305263 12:-0.296875 13:0.258065 14:0.230769 15:-0.0652174 16:-0.220339 17:0.21875 18:0.242718 19:-0.0361446 20:-0.333333 21:0.107692 22:0.00970874 23:-0.133333 24:-0.264 25:0.0625 26:0.230769 27:-0.0114943 28:-0.4 29:0.323077 30:0.267327 31:-0.0315789 32:-0.1875 33:0.3125 34:0.242718 35:0.0526316 36:-0.234375 
10 1:0.125 2:0.0545455 3:-0.190476 4:-0.355372 5:0.16129 6:0.0545455 7:-0.157895 8:-0.328125 9:0.125 10:0.126214 11:-0.157895 12:-0.265625 14:0.153846 15:-0.173913 16:-0.305085 17:0.125 18:0.165049 19:-0.253012 20:-0.349593 21:0.138462 22:0.165049 23:-0.0888889 24:-0.216 25:0.21875 26:0.230769 27:-0.0114943 28:-0.316667 29:0.384615 30:0.346535 31:0.0526316 32:-0.21875 33:0.21875 34:0.320388 35:-0.0315789 36:-0.21875 
10 1:0.125 2:0.0545455 3:-0.190476 4:-0.421488 5:0.16129 6:0.127273 7:-0.242105 8:-0.390625 9:0.25 10:0.126214 11:-0.242105 12:-0.390625 14:0.153846 15:-0.26087 16:-0.372881 17:0.125 18:0.165049 19:-0.156627 20:-0.414634 21:0.138462 22:0.165049 23:-0.177778 24:-0.344 25:-0.03125 26:0.153846 27:-0.172414 28:-0.45 29:0.107692 30:0.108911 31:-0.178947 32:-0.40625 33:0.09375 34:0.165049 35:-0.178947 36:-0.40625 
10 1:0.125 2:0.0545455 3:-0.285714 4:-0.421488 5:0.16129 6:0.0545455 7:-0.157895 8:-0.390625 9:0.125 10:0.203883 11:-0.242105 12:-0.390625 14:0.153846 15:-0.173913 16:-0.372881 17:-0.03125 18:0.165049 19:-0.253012 20:-0.414634 21:0.138462 22:0.165049 23:-0.0888889 24:-0.344 25:0.09375 26:0.153846 27:-0.172414 28:-0.45 29:-0.0153846 30:0.188119 31:-0.178947 32:-0.40625 33:0.09375 34:0.0873786 35:-0.178947 36:-0.40625 
6.2410256223056786 1:0.125 2:0.0909091 3:-0.047619 4:-0.38843 5:0.16129 6:0.163636 7:-0.0315789 8:-0.359375 9:0.125 10:0.0873786 11:-0.0315789 12:-0.359375 13:0.258065 14:0.230769 15:-0.0652174 16:-0.355932 17:0.09375 18:0.242718 19:-0.108434 20:-0.398374 21:0.107692 22:0.0873786 23:-0.133333 24:-0.328 25:0.1875 26:0.153846 27:-0.103448 28:-0.333333 29:0.2 30:0.188119 31:-0.2 32:-0.359375 33:0.1875 34:0.165049 35:-0.2 36:-0.359375 
3.1000777817379439 1:0.125 2:0.0909091 3:-0.047619 4:-0.38843 6:-0.0545455 7:-0.305263 8:-0.53125 9:-0.125 10:0.00970874 11:-0.389474 12:-0.46875 13:0.129032 14:0.0769231 15:-0.217391 16:-0.355932 17:-0.03125 18:0.0873786 19:-0.301205 20:-0.463415 21:-0.138462 22:-0.0679612 23:-0.222222 24:-0.472 25:0.0625 26:0.153846 27:-0.195402 28:-0.4 29:0.2 30:0.267327 31:-0.115789 32:-0.296875 33:0.0625 34:0.0873786 35:-0.115789 36:-0.359375 
10 1:0.125 2:0.0909091 3:-0.166667 4:-0.38843 5:0.16129 6:0.0909091 7:-0.221053 8:-0.359375 9:0.125 10:0.165049 11:-0.136842 12:-0.46875 13:0.129032 14:0.0769231 15:-0.217391 16:-0.423729 17:0.09375 18:0.165049 19:-0.204819 20:-0.463415 21:0.107692 22:0.165049 23:-0.133333 24:-0.392 25:-0.0625 26:0.0769231 27:-0.287356 28:-0.4 29:0.0769231 30:0.108911 31:-0.284211 32:-0.421875 33:0.0625 34:0.0873786 35:-0.2 36:-0.421875 
10 1:0.125 2:0.0909091 3:-0.166667 4:-0.38843 6:0.0181818 7:-0.221053 8:-0.40625 9:-0.125 10:0.0873786 11:-0.305263 12:-0.46875 13:0.129032 14:0.153846 15:-0.217391 16:-0.423729 17:-0.03125 18:0.165049 19:-0.204819 20:-0.463415 21:-0.138462 22:0.00970874 23:-0.222222 24:-0.392 25:-0.1875 27:-0.471264 28:-0.583333 29:-0.0461538 30:0.029703 31:-0.2 32:-0.46875 33:0.0625 34:0.165049 35:-0.2 36:-0.359375 
5.19258597500981 1:0.125 2:0.0909091 3:-0.261905 4:-0.322314 5:0.16129 6:0.0909091 7:-0.136842 8:-0.234375 9:0.25 10:0.242718 11:-0.0315789 12:-0.234375 13:0.419355 14:0.307692 15:0.0217391 16:-0.220339 17:0.21875 18:0.320388 19:-0.0361446 20:-0.268293 21:0.230769 22:0.398058 23:0.0222222 24:-0.2 25:0.1875 26:0.230769 27:0.0804598 28:-0.333333 29:0.323077 30:0.267327 31:0.136842 32:-0.1875 33:0.3125 34:0.339806 35:0.136842 36:-0.1875 
4.4880474625587246 1:0.125 2:0.127273 3:-0.0952381 4:-0.421488 5:0.0322581 6:0.0545455 7:-0.157895 8:-0.390625 10:0.126214 11:-0.242105 12:-0.390625 13:0.16129 14:0.230769 15:-0.0652174 16:-0.372881 17:0.125 18:0.0873786 19:-0.0361446 20:-0.414634 21:-0.0153846 22:0.165049 23:-0.177778 24:-0.344 25:0.09375 26:0.230769 27:-0.0804598 28:-0.383333 29:0.107692 30:0.108911 31:-0.178947 32:-0.34375 33:0.09375 34:0.165049 35:-0.0947368 36:-0.34375 
7.137877879715206 1:0.125 2:0.127273 3:-0.285714 4:-0.421488 5:0.290323 6:0.0545455 7:-0.242105 8:-0.390625 9:0.125 10:0.126214 11:-0.157895 12:-0.390625 13:0.16129 14:0.153846 15:-0.173913 16:-0.372881 17:0.125 18:0.165049 19:-0.253012 20:-0.414634 21:0.138462 22:0.165049 23:-0.0888889 24:-0.456 25:0.09375 26:0.0769231 27:-0.172414 28:-0.45 29:0.107692 30:0.188119 31:-0.178947 32:-0.40625 33:0.09375 34:0.165049 35:-0.178947 36:-0.40625 
2.2654529415325526 1:0.125 2:0.127273 4:-0.239669 5:0.0322581 6:0.127273 7:0.0105263 8:-0.21875 9:0.125 10:0.126214 11:0.0105263 12:-0.21875 14:0.230769 15:0.0217391 16:-0.186441 17:0.125 18:0.320388 19:0.253012 20:-0.121951 21:0.261538 22:0.320388 23:0.2 24:-0.104 25:0.09375 26:0.307692 27:0.0804598 28:-0.25 29:-0.0153846 30:0.267327 31:0.0526316 32:-0.15625 33:-0.03125 34:0.320388 35:0.136842 36:-0.09375 
1.6020479614349219 1:0.125 2:0.163636 3:-0.047619 4:-0.206612 5:0.290323 6:0.236364 7:0.0526316 8:-0.1875 9:0.125 10:0.0873786 11:-0.0315789 12:-0.1875 14:0.0769231 15:-0.217391 16:-0.423729 17:0.09375 18:0.165049 19:-0.0361446 20:-0.333333 21:0.230769 22:0.242718 23:0.0222222 24:-0.2 25:-0.1875 26:0.0769231 27:-0.287356 28:-0.516667 29:-0.0461538 30:0.108911 31:-0.284211 32:-0.421875 33:0.0625 34:0.242718 35:-0.0315789 36:-0.359375 
10 1:0.125 2:0.163636 3:-0.047619 4:-0.322314 5:0.16129 6:0.0909091 7:-0.0315789 8:-0.359375 9:-0.03125 10:0.00970874 11:-0.305263 12:-0.53125 13:0.129032 14:0.153846 15:-0.217391 16:-0.423729 17:0.09375 18:0.0873786 19:-0.204819 20:-0.398374 21:-0.0153846 22:0.0873786 23:-0.222222 24:-0.392 25:0.0625 26:0.153846 27:-0.195402 28:-0.466667 29:0.0769231 30:0.188119 31:-0.2 32:-0.359375 33:0.1875 34:0.242718 35:-0.115789 36:-0.296875 
1.5247808912676091 1:0.125 2:0.163636 3:-0.047619 4:-0.38843 5:0.16129 6:0.0181818 7:-0.0315789 8:-0.359375 9:-0.03125 10:0.165049 11:-0.221053 12:-0.359375 13:0.129032 14:0.230769 15:-0.130435 16:-0.355932 17:0.09375 18:0.0873786 19:-0.204819 20:-0.398374 21:0.107692 22:0.165049 23:-0.0444444 24:-0.328 25:0.1875 26:0.153846 27:-0.195402 28:-0.4 29:0.2 30:0.188119 31:-0.2 32:-0.359375 33:0.1875 34:0.165049 35:-0.115789 36:-0.296875 
1.0972390747772978 1:0.125 2:0.163636 3:0.047619 4:-0.322314 5:0.16129 6:0.0909091 7:0.0526316 8:-0.296875 9:0.125 10:0.165049 11:-0.136842 12:-0.296875 13:0.258065 14:0.153846 15:-0.130435 16:-0.423729 17:0.09375 18:0.165049 19:-0.0361446 20:-0.398374 21:0.107692 22:0.242718 23:0.0222222 24:-0.328 25:0.0625 26:0.153846 27:-0.195402 28:-0.466667 29:0.0769231 30:0.188119 31:-0.115789 32:-0.359375 33:0.1875 34:0.165049 35:-0.2 36:-0.421875 
0.24260120730748541 1:0.125 2:0.163636 3:0.142857 4:-0.322314 5:0.16129 6:0.236364 7:0.0526316 8:-0.234375 9:0.125 10:0.242718 11:0.0526316 12:-0.296875 13:0.129032 14:0.230769 15:-0.0652174 16:-0.355932 17:0.21875 18:0.165049 19:-0.108434 20:-0.398374 21:0.230769 22:0.165049 23:-0.0444444 24:-0.392 25:0.0625 26:0.153846 27:-0.195402 28:-0.4 29:0.2 30:0.188119 31:-0.284211 32:-0.359375 33:0.0625 34:0.165049 35:-0.2 36:-0.421875 
3.5597576411624017 1:0.125 2:0.218182 3:-0.0952381 4:-0.289256 5:0.290323 6:0.363636 7:0.0947368 8:-0.21875 9:0.375 10:0.456311 11:0.0947368 12:-0.15625 13:0.16129 14:0.230769 15:-0.0652174 16:-0.305085 17:0.125 18:0.242718 19:-0.0361446 20:-0.349593 21:0.138462 22:0.242718 23:-0.177778 24:-0.344 25:-0.03125 27:-0.172414 28:-0.316667 29:-0.138462 30:-0.049505 31:-0.178947 32:-0.40625 33:-0.15625 34:-0.126214 35:-0.263158 36:-0.40625 
2.000768247074534 1:0.125 2:0.236364 3:0.047619 4:-0.256198 5:0.16129 6:0.163636 7:0.0526316 8:-0.296875 9:0.125 10:0.165049 11:0.0526316 12:-0.296875 13:0.258065 14:0.153846 15:-0.130435 16:-0.355932 17:0.21875 18:0.165049 19:-0.108434 20:-0.463415 21:0.107692 22:0.165049 23:0.0222222 24:-0.328 25:0.1875 26:0.153846 27:-0.287356 28:-0.4 29:0.0769231 30:0.188119 31:-0.2 32:-0.421875 33:0.0625 34:0.165049 35:-0.115789 36:-0.359375 
3.6929682694199268 1:0.1875 2:0.0909091 3:-0.142857 4:-0.322314 5:0.0967742 6:0.0909091 7:-0.0315789 8:-0.296875 9:0.0625 10:0.165049 11:-0.2 12:-0.296875 13:0.258065 14:0.173077 15:-0.130435 16:-0.338983 17:0.09375 18:0.242718 19:-0.0120482 20:-0.382114 21:0.107692 22:0.184466 23:-0.111111 24:-0.312 25:0.1875 26:0.25 27:-0.0804598 28:-0.35 29:0.323077 30:0.207921 31:-0.0105263 32:-0.375 33:0.0625 34:0.184466 35:-0.0947368 36:-0.3125 
8.8615318659084679 1:0.1875 2:0.0909091 3:-0.142857 4:-0.454545 5:0.0967742 6:0.0181818 7:-0.115789 8:-0.421875 9:-0.0625 10:0.0873786 11:-0.115789 12:-0.421875 13:0.129032 14:0.0961538 15:-0.130435 16:-0.338983 17:0.09375 18:0.184466 19:-0.180723 20:-0.447154 21:0.107692 22:0.242718 23:0.0444444 24:-0.264 25:0.1875 26:0.0961538 27:-0.0804598 28:-0.416667 29:0.0769231 30:0.128713 31:-0.178947 32:-0.375 33:0.0625 34:0.184466 35:-0.0947368 36:-0.265625 
1.4238211600574848 1:0.1875 2:0.0909091 3:-0.238095 4:-0.322314 5:-0.0322581 6:-0.0545455 7:-0.368421 8:-0.421875 9:-0.1875 10:-0.0679612 11:-0.368421 12:-0.53125 13:0.129032 14:0.230769 15:-0.130435 16:-0.338983 17:-0.03125 18:0.184466 19:-0.108434 20:-0.447154 21:-0.138462 22:-0.0291262 23:-0.288889 24:-0.44 25:0.0625 26:0.173077 27:-0.172414 28:-0.35 29:0.2 30:0.287129 31:-0.0947368 32:-0.3125 33:-0.0625 34:0.106796 35:-0.263158 36:-0.484375 
4.0205932175365477 1:0.1875 2:0.0909091 3:-0.238095 4:-0.38843 5:0.225806 6:0.0909091 7:-0.115789 8:-0.296875 9:0.0625 10:0.165049 11:-0.0315789 12:-0.296875 13:0.258065 14:0.173077 15:-0.0434783 16:-0.338983 17:0.21875 18:0.184466 19:-0.108434 20:-0.382114 21:0.107692 22:0.242718 23:0.0444444 24:-0.312 25:0.1875 26:0.25 27:0.0114943 28:-0.35 29:0.2 30:0.287129 31:-0.0947368 32:-0.3125 33:0.3125 34:0.184466 35:-0.0105263 36:-0.375 
10 1:0.1875 2:0.0909091 3:-0.238095 4:-0.38843 5:0.225806 6:0.0909091 7:-0.2 8:-0.359375 9:0.1875 10:0.165049 11:-0.115789 12:-0.296875 13:0.129032 14:0.230769 15:-0.0434783 16:-0.338983 17:0.21875 18:0.184466 19:-0.0120482 20:-0.382114 21:0.230769 22:0.184466 23:-0.0444444 24:-0.312 25:0.1875 26:0.173077 27:0.0114943 28:-0.416667 29:0.2 30:0.287129 31:-0.0105263 32:-0.3125 33:0.1875 34:0.262136 35:-0.0947368 36:-0.3125 
6.1345758100493279 1:0.1875 2:0.0909091 3:-0.238095 4:-0.454545 5:0.225806 6:0.0909091 7:-0.115789 8:-0.421875 9:0.0625 10:0.0873786 11:-0.115789 12:-0.421875 13:0.129032 14:0.0961538 15:-0.195652 16:-0.40678 17:0.09375 18:0.106796 19:-0.108434 20:-0.382114 21:0.107692 22:0.184466 23:-0.111111 24:-0.376 25:0.1875 26:0.173077 27:-0.0804598 28:-0.35 29:0.2 30:0.128713 31:-0.0947368 32:-0.375 33:0.0625 34:0.106796 35:-0.178947 36:-0.375 
5.1671510890191126 1:0.1875 2:0.109091 3:-0.119048 4:-0.289256 5:0.225806 6:0.109091 7:-0.0105263 8:-0.265625 9:0.40625 10:0.456311 11:0.157895 12:-0.15625 13:0.16129 14:0.115385 15:-0.195652 16:-0.338983 17:0.125 18:0.300971 19:-0.0843373 20:-0.317073 21:0.261538 22:0.456311 23:0.155556 24:-0.2 25:0.125 26:0.230769 27:-0.0114943 28:-0.333333 29:0.138462 30:0.267327 31:-0.0315789 32:-0.296875 33:0.125 34:0.242718 35:-0.0315789 36:-0.296875 
7.7373934923767189 1:0.1875 2:0.163636 3:-0.047619 4:-0.322314 5:0.225806 6:0.0909091 7:-0.115789 8:-0.359375 9:0.1875 10:0.242718 11:-0.0315789 12:-0.296875 13:0.258065 14:0.307692 15:0.0434783 16:-0.288136 17:0.09375 18:0.242718 19:-0.0120482 20:-0.382114 21:0.107692 22:0.106796 23:-0.0444444 24:-0.264 25:0.3125 26:0.25 27:0.0114943 28:-0.3 29:0.2 30:0.207921 31:-0.0947368 32:-0.265625 33:0.1875 34:0.184466 35:-0.0105263 36:-0.265625 
4.9375389275216648 1:0.1875 2:0.181818 3:-0.119048 4:-0.22314 5:0.225806 6:0.181818 7:0.0736842 8:-0.265625 9:0.3125 10:0.262136 11:0.0736842 12:-0.203125 13:0.290323 14:0.192308 15:-0.108696 16:-0.220339 17:0.25 18:0.203883 19:0.0120482 20:-0.268293 21:0.384615 22:0.300971 23:0.0666667 24:-0.248 25:0.375 26:0.307692 27:0.0804598 28:-0.266667 29:0.384615 30:0.346535 31:0.0526316 32:-0.234375 33:0.25 34:0.242718 35:-0.0315789 36:-0.1875 
10 1:0.1875 2:0.181818 3:-0.119048 4:-0.289256 5:0.225806 6:0.109091 7:-0.0105263 8:-0.203125 9:0.1875 10:0.184466 11:-0.0947368 12:-0.265625 13:0.16129 14:0.115385 15:-0.195652 16:-0.338983 17:0.125 18:0.126214 19:-0.180723 20:-0.317073 21:0.261538 22:0.203883 23:-0.0222222 24:-0.248 25:0.125 26:0.153846 27:-0.218391 28:-0.333333 29:0.138462 30:0.188119 31:-0.136842 32:-0.234375 33:0.25 34:0.242718 35:-0.0315789 36:-0.234375 
4.743819993803033 1:0.1875 2:0.181818 3:-0.119048 4:-0.338843 5:-0.0322581 6:0.0363636 7:-0.263158 8:-0.484375 9:-0.15625 10:0.00970874 11:-0.263158 12:-0.4375 13:0.16129 14:0.288462 15:-0.108696 16:-0.338983 17:0.125 18:0.203883 19:-0.180723 20:-0.447154 21:0.0153846 22:0.0485437 23:-0.288889 24:-0.488 25:0.125 26:0.153846 27:-0.126437 28:-0.45 29:0.138462 30:0.267327 31:-0.0315789 32:-0.296875 33:0.125 34:0.165049 35:-0.0315789 36:-0.359375 
2.0003261977937359 1:0.21875 2:0.109091 3:-0.119048 4:-0.421488 5:0.129032 6:0.0363636 7:-0.157895 8:-0.390625 9:0.09375 10:0.106796 11:-0.0947368 12:-0.328125 13:0.354839 14:0.25 15:-0.130435 16:-0.322034 17:0.1875 18:0.184466 19:-0.108434 20:-0.365854 21:0.2 22:0.106796 23:-0.0444444 24:-0.36 25:0.25 26:0.115385 27:-0.149425 28:-0.433333 29:0.0153846 30:0.148515 31:-0.0736842 32:-0.328125 34:0.0485437 35:-0.0736842 36:-0.328125 
2.120062278970142 1:0.21875 2:0.163636 3:-0.047619 4:-0.305785 5:0.129032 6:-0.0545455 7:-0.178947 8:-0.28125 9:-0.40625 10:-0.281553 11:-0.431579 12:-0.34375 13:0.354839 14:0.230769 15:-0.0652174 16:-0.186441 17:0.3125 18:0.242718 19:0.060241 20:-0.284553 21:0.0769231 22:0.0873786 23:-0.0666667 24:-0.28 25:0.09375 26:0.230769 27:0.0114943 28:-0.25 29:0.230769 30:0.346535 31:0.0736842 32:-0.21875 33:0.09375 34:0.184466 35:-0.0105263 36:-0.21875 
8.4611947376370686 1:0.21875 2:0.163636 3:-0.047619 4:-0.305785 5:0.129032 6:0.163636 7:-0.178947 8:-0.28125 9:0.09375 10:0.242718 11:-0.0947368 12:-0.28125 13:0.225806 14:0.230769 15:-0.0652174 16:-0.305085 17:0.1875 18:0.165049 19:-0.13253 20:-0.414634 21:0.2 22:0.242718 23:0.0222222 24:-0.28 25:0.21875 26:0.307692 27:0.103448 28:-0.316667 29:0.107692 30:0.267327 31:-0.0105263 32:-0.328125 33:0.09375 34:0.106796 35:-0.0947368 36:-0.28125 
10 1:0.21875 2:0.163636 3:-0.047619 4:-0.371901 5:0.129032 6:0.163636 7:-0.0947368 8:-0.34375 9:0.09375 10:0.0873786 11:-0.178947 12:-0.34375 13:0.225806 14:0.153846 15:-0.152174 16:-0.305085 17:0.1875 18:0.165049 19:-0.228916 20:-0.414634 21:0.2 22:0.165049 23:-0.155556 24:-0.344 25:0.09375 26:0.173077 27:-0.149425 28:-0.366667 29:0.107692 30:0.267327 31:-0.0105263 32:-0.328125 33:0.21875 34:0.184466 35:-0.0105263 36:-0.328125 
8.3855827318669558 1:0.21875 2:0.163636 3:-0.119048 4:-0.305785 5:0.258065 6:0.236364 7:-0.0315789 8:-0.28125 9:0.375 10:0.320388 11:0.0526316 12:-0.21875 13:0.0967742 15:-0.326087 16:-0.440678 17:0.3125 18:0.165049 19:-0.0361446 20:-0.284553 21:0.323077 22:0.339806 23:0.111111 24:-0.216 25:-0.15625 26:-0.0384615 27:-0.333333 28:-0.5 29:-0.0153846 30:0.207921 31:-0.0947368 32:-0.328125 33:0.21875 34:0.398058 35:0.0736842 36:-0.21875 
0.79085377552364533 1:0.21875 2:0.236364 3:-0.047619 4:-0.239669 5:0.258065 6:0.236364 7:-0.0315789 8:-0.21875 9:0.09375 10:0.165049 11:-0.0947368 12:-0.21875 13:-0.0322581 14:-0.0769231 15:0.108696 16:-0.118644 17:0.0625 18:0.165049 19:-0.13253 20:-0.284553 21:0.0769231 22:0.242718 23:0.111111 24:-0.168 25:-0.15625 26:-0.0384615 27:0.310345 28:-0.0666667 29:0.107692 30:0.267327 31:-0.0105263 32:-0.21875 33:0.21875 34:0.242718 35:-0.0105263 36:-0.15625 
10 1:0.21875 2:0.236364 3:-0.119048 4:-0.305785 5:0.258065 6:0.236364 7:-0.0947368 8:-0.28125 9:-0.03125 10:-0.0291262 11:-0.0947368 12:-0.21875 13:0.225806 14:0.25 15:-0.130435 16:-0.271186 17:0.1875 18:0.184466 19:-0.0120482 20:-0.252033 21:0.2 22:0.184466 23:-0.0444444 24:-0.248 25:0.125 26:0.115385 27:-0.149425 28:-0.366667 29:0.138462 30:0.148515 31:-0.157895 32:-0.265625 33:0.25 34:0.203883 35:-0.0736842 36:-0.265625 
6.3350831720964615 1:0.21875 2:0.236364 3:0.0714286 4:-0.305785 5:0.129032 6:0.163636 7:-0.0105263 8:-0.328125 9:0.09375 10:0.106796 11:-0.0947368 12:-0.28125 13:0.354839 14:0.25 15:-0.0434783 16:-0.271186 17:0.1875 18:0.184466 19:-0.108434 20:-0.317073 21:0.2 22:0.184466 23:0.0444444 24:-0.248 25:0.375 26:0.288462 27:0.0344828 28:-0.25 29:0.138462 30:0.148515 31:-0.157895 32:-0.328125 33:0.125 34:0.300971 35:-0.0736842 36:-0.265625 
5.5482349844433925 1:0.25 2:0.0909091 3:-0.047619 4:-0.38843 5:0.290323 6:0.163636 7:-0.0315789 8:-0.359375 9:0.25 10:0.242718 11:-0.0315789 12:-0.296875 13:0.258065 14:0.230769 15:-0.0652174 16:-0.355932 17:0.21875 18:0.242718 19:-0.0361446 20:-0.333333 21:0.230769 22:0.165049 23:-0.0444444 24:-0.328 25:0.0625 26:0.153846 27:-0.103448 28:-0.4 29:0.2 30:0.188119 31:-0.0315789 32:-0.359375 33:0.1875 34:0.165049 35:-0.0315789 36:-0.359375 
6.5472945048242632 1:0.25 2:0.127273 3:-0.0952381 4:-0.239669 5:0.290323 6:0.127273 7:0.0105263 8:-0.21875 9:0.375 10:0.300971 11:0.0105263 12:-0.265625 13:0.419355 14:0.307692 15:0.0217391 16:-0.237288 17:0.375 18:0.320388 19:0.060241 20:-0.284553 21:0.261538 22:0.242718 23:0.0222222 24:-0.168 25:0.375 26:0.307692 27:0.172414 28:-0.25 29:0.230769 30:0.346535 31:-0.0315789 32:-0.21875 33:0.21875 34:0.242718 35:-0.0947368 36:-0.28125 
3.1993200268386577 1:0.25 2:0.127273 4:-0.239669 5:0.419355 6:0.218182 7:0.0105263 8:-0.265625 9:0.125 10:0.126214 11:-0.157895 12:-0.328125 13:0.419355 14:0.307692 15:0.0217391 16:-0.237288 17:0.25 18:0.242718 19:-0.0361446 20:-0.235772 21:-0.0153846 22:0.165049 23:-0.0888889 24:-0.28 25:0.21875 26:0.307692 27:-0.0114943 28:-0.25 29:0.230769 30:0.267327 31:-0.0947368 32:-0.28125 33:0.21875 34:0.242718 35:-0.0315789 36:-0.28125 
7.2581949474734628 1:0.25 2:0.163636 3:-0.047619 4:-0.38843 5:0.290323 6:0.163636 7:-0.0315789 8:-0.296875 9:0.125 10:0.320388 11:-0.136842 12:-0.296875 13:0.258065 14:0.230769 15:-0.0652174 16:-0.288136 17:0.21875 18:0.165049 19:-0.108434 20:-0.398374 21:0.107692 22:0.242718 23:0.0222222 24:-0.264 25:0.1875 26:0.153846 27:-0.0114943 28:-0.4 29:0.2 30:0.188119 31:-0.0315789 32:-0.359375 33:0.0625 34:0.165049 35:-0.115789 36:-0.359375 
1.3927669938123501 1:0.25 2:0.163636 3:-0.166667 4:-0.206612 5:0.419355 6:0.236364 7:0.0526316 8:-0.234375 9:0.25 10:0.320388 11:0.0526316 12:-0.1875 13:0.129032 14:0.153846 15:-0.217391 16:-0.355932 17:0.21875 18:0.242718 19:-0.108434 20:-0.333333 21:0.230769 22:0.320388 23:0.0222222 24:-0.264 25:-0.1875 27:-0.37931 28:-0.583333 29:0.0769231 30:0.029703 31:-0.284211 32:-0.421875 33:0.3125 34:0.165049 35:-0.0315789 36:-0.234375 
2.5869645597029884 1:0.25 2:0.163636 3:-0.166667 4:-0.438017 5:0.16129 6:0.0909091 7:-0.136842 8:-0.359375 9:-0.03125 10:0.0873786 11:-0.221053 12:-0.40625 13:0.129032 14:0.153846 15:-0.304348 16:-0.423729 17:0.09375 18:0.165049 19:-0.204819 20:-0.463415 21:-0.0153846 22:0.165049 23:-0.133333 24:-0.392 25:-0.1875 27:-0.37931 28:-0.516667 29:-0.169231 30:0.029703 31:-0.452632 32:-0.53125 33:-0.0625 34:0.00970874 35:-0.2 36:-0.46875 
0.84166647798878369 1:0.25 2:0.236364 3:0.047619 4:-0.206612 5:0.419355 6:0.309091 7:0.136842 8:-0.125 9:0.25 10:0.398058 11:0.0526316 12:-0.1875 13:0.258065 14:0.307692 15:-0.0652174 16:-0.288136 17:0.375 18:0.320388 19:0.060241 20:-0.268293 21:0.384615 22:0.320388 23:0.111111 24:-0.264 25:0.3125 26:0.153846 27:-0.0114943 28:-0.266667 29:0.323077 30:0.366337 31:0.0526316 32:-0.234375 33:0.3125 34:0.339806 35:0.136842 36:-0.234375 
0.056538029766005582 1:0.25 2:0.236364 3:0.142857 4:-0.322314 5:0.16129 6:0.163636 7:0.136842 8:-0.296875 9:0.125 10:0.320388 11:0.0526316 12:-0.234375 13:0.129032 14:0.230769 15:-0.0652174 16:-0.288136 17:0.09375 18:0.242718 19:-0.0361446 20:-0.398374 21:0.230769 22:0.165049 23:-0.0444444 24:-0.328 25:0.0625 26:0.153846 27:-0.103448 28:-0.4 29:0.0769231 30:0.188119 31:-0.2 32:-0.359375 33:0.1875 34:0.165049 35:-0.284211 36:-0.359375 
9.9059154424709899 1:0.3125 2:0.0363636 3:-0.214286 4:-0.338843 5:0.225806 6:0.0363636 7:-0.178947 8:-0.375 9:0.1875 10:0.184466 11:-0.178947 12:-0.375 13:0.16129 14:0.115385 15:-0.195652 16:-0.40678 17:0.125 18:0.203883 19:-0.277108 20:-0.447154 21:0.261538 22:0.126214 23:-0.2 24:-0.376 25:-0.03125 26:0.153846 27:-0.218391 28:-0.4 29:0.138462 30:0.188119 31:-0.136842 32:-0.359375 33:0.125 34:0.165049 35:-0.221053 36:-0.359375 
6.0204167836000169 1:0.3125 2:0.163636 3:-0.047619 4:-0.206612 5:0.354839 6:0.163636 7:0.0526316 8:-0.234375 9:0.0625 10:0.0873786 11:-0.115789 12:-0.296875 13:0.129032 14:0.230769 15:-0.0434783 16:-0.220339 17:0.21875 18:0.320388 19:0.0843373 20:-0.268293 21:0.107692 22:0.184466 23:0.0444444 24:-0.2 25:-0.0625 26:0.0961538 27:-0.264368 28:-0.416667 29:0.2 30:0.207921 31:-0.0947368 32:-0.265625 33:0.0625 34:0.00970874 35:-0.178947 36:-0.3125 
0.59697942232081935 1:0.3125 2:0.181818 3:-0.119048 4:-0.338843 5:0.225806 6:0.109091 7:-0.0947368 8:-0.3125 9:0.1875 10:0.106796 11:-0.0947368 12:-0.375 13:0.290323 14:0.115385 15:-0.195652 16:-0.40678 18:0.126214 19:-0.0843373 20:-0.382114 21:0.0153846 22:0.0485437 23:-0.0222222 24:-0.312 25:-0.125 26:-0.211538 27:0.0804598 28:-0.1 29:-0.476923 30:-0.465347 31:0.221053 32:0.15625 33:-0.5 34:-0.475728 35:0.136842 36:-0.015625 
3.9171361018642656 1:0.3125 2:0.254545 3:0.047619 4:-0.206612 5:0.225806 6:0.163636 7:-0.0315789 8:-0.234375 9:0.1875 10:0.242718 11:-0.0315789 12:-0.234375 13:0.258065 14:0.230769 15:0.0434783 16:-0.288136 17:0.21875 18:0.320388 19:0.180723 20:-0.268293 21:0.353846 22:0.320388 23:0.0444444 24:-0.264 25:0.3125 26:0.25 27:0.0114943 28:-0.233333 29:0.323077 30:0.287129 31:0.0736842 32:-0.15625 33:0.40625 34:0.359223 35:0.0736842 36:-0.203125 
10 1:0.3125 2:0.254545 3:0.047619 4:-0.206612 5:0.354839 6:0.163636 7:-0.115789 8:-0.234375 9:0.1875 10:0.0873786 11:-0.0315789 12:-0.296875 13:0.387097 14:0.230769 15:0.0434783 16:-0.220339 17:0.21875 18:0.320388 19:-0.108434 20:-0.333333 21:0.230769 22:0.320388 23:-0.0444444 24:-0.264 25:0.1875 26:0.173077 27:-0.0804598 28:-0.3 29:0.2 30:0.287129 31:-0.0947368 32:-0.265625 33:0.1875 34:0.184466 35:-0.0105263 36:-0.203125 
1.2530309047832138 1:0.3125 2:0.254545 3:0.142857 4:-0.256198 5:0.225806 6:0.254545 7:0.136842 8:-0.234375 9:0.3125 10:0.339806 11:0.0526316 12:-0.1875 13:0.258065 14:0.307692 15:0.0434783 16:-0.152542 17:0.21875 18:0.320388 19:-0.0120482 20:-0.268293 21:0.230769 22:0.242718 23:0.133333 24:-0.264 25:0.3125 26:0.25 27:0.103448 28:-0.3 29:0.2 30:0.287129 31:-0.0105263 32:-0.265625 33:0.3125 34:0.262136 35:-0.0105263 36:-0.203125 
