svm_type c_svc
kernel_type polynomial
degree 3
gamma 1
coef0 1
nr_class 2
total_sv 93
rho -0.95964554395487123
label 0 1
nr_sv 61 32
SV
0.038637242136952833 1:-0.03125 2:0.0181818 3:-0.047619 4:-0.140496 5:-0.225806 6:-0.0545455 7:-0.0315789 8:-0.1875 9:-0.375 10:0.0873786 11:0.0526316 12:-0.1875 15:-0.0652174 16:-0.220339 17:-0.28125 18:-0.0679612 19:-0.0361446 20:-0.203252 21:-0.138462 22:0.0873786 23:0.2 24:-0.072 25:0.3125 26:0.230769 27:0.0804598 28:-0.0833333 29:-0.169231 30:-0.128713 31:-0.284211 32:-0.234375 33:-0.28125 34:0.00970874 35:-0.0315789 36:-0.125 
0.02718884438370596 1:-0.375 2:-0.327273 3:0.047619 4:0.0909091 5:-0.580645 6:-0.563636 7:0.136842 8:0.328125 9:-0.6875 10:-0.825243 11:0.326316 12:0.546875 13:-0.129032 14:0.153846 15:0.0217391 16:-0.152542 17:-0.28125 18:0.00970874 19:0.060241 20:-0.138211 21:-0.384615 22:-0.203883 23:0.0222222 24:0.008 25:-0.0625 26:0.403846 27:0.356322 28:-0.0333333 29:-0.0461538 30:0.445545 31:0.221053 32:-0.0625 33:-0.1875 34:0.00970874 35:-0.0315789 36:-0.125 
0.0043929013252425103 1:0.09375 2:0.236364 3:0.142857 4:-0.107438 5:-0.129032 6:0.0181818 7:-0.0315789 8:-0.21875 9:-0.40625 10:-0.126214 11:-0.263158 12:-0.34375 13:-0.16129 14:0.153846 15:0.108696 16:-0.0508475 17:-0.0625 18:0.339806 19:0.156627 20:-0.105691 21:-0.261538 22:0.00970874 23:-0.155556 24:-0.216 25:-0.40625 26:-0.0384615 27:-0.149425 28:-0.316667 29:-0.384615 30:-0.0891089 31:-0.0105263 32:-0.21875 33:-0.40625 34:-0.106796 35:-0.0947368 36:-0.28125 
0.011354276183628026 1:0.5 2:0.527273 3:0.52381 4:0.00826446 5:0.16129 6:0.127273 7:0.0947368 8:-0.265625 9:-0.25 10:-0.0291262 11:-0.0736842 12:-0.265625 13:0.419355 14:0.634615 15:0.5 16:0.0677966 17:-0.03125 18:0.0873786 19:-0.0361446 20:-0.170732 21:-0.230769 22:0.00970874 23:0.0222222 24:-0.168 25:0.375 26:0.461538 27:0.494253 28:-0.0333333 29:-0.0153846 30:0.029703 31:-0.0315789 32:-0.21875 33:-0.28125 34:-0.0679612 35:-0.0315789 36:-0.15625 
0.064463937153049322 1:-0.03125 2:-0.0909091 3:-0.0238095 4:-0.305785 5:0.387097 6:0.309091 7:0.157895 8:-0.15625 9:0.46875 10:0.475728 11:0.157895 12:-0.109375 13:-0.580645 14:-0.442308 15:0.130435 16:0.0847458 17:0.0625 18:0.262136 19:0.0843373 20:-0.317073 21:0.323077 22:0.456311 23:0.333333 24:-0.136 25:-0.875 26:-0.75 27:0.54023 28:0.433333 29:-0.230769 30:-0.0891089 31:0.178947 32:-0.15625 33:0.375 34:0.456311 35:0.178947 36:-0.15625 
0.00013897380364409653 1:0.78125 2:0.690909 3:0.5 4:0.123967 5:0.83871 6:0.6 7:0.452632 8:0.0625 9:0.53125 10:0.805825 11:0.557895 12:0.0625 13:0.83871 14:1 15:0.804348 16:0.220339 17:0.625 18:0.805825 19:0.662651 20:0.0406504 21:0.507692 22:0.805825 23:0.666667 24:0.104 25:0.625 26:0.903846 27:0.977011 28:0.216667 29:0.507692 30:0.960396 31:0.873684 32:0.15625 33:0.5 34:0.825243 35:0.747368 36:0.15625 
0.18314317691620349 1:-0.0625 2:0.0363636 3:-0.214286 4:-0.289256 5:0.0967742 6:-0.0545455 7:-0.0105263 8:0.015625 9:-0.59375 10:-0.68932 11:0.157895 12:0.34375 13:0.0322581 14:0.0384615 15:-0.282609 16:-0.338983 17:0.125 18:0.126214 19:0.0120482 20:-0.268293 21:-0.107692 22:-0.242718 23:0.244444 24:0.104 25:-0.125 27:-0.310345 28:-0.45 29:-0.0153846 30:0.108911 31:-0.0315789 32:-0.296875 33:-0.03125 34:0.165049 35:-0.0315789 36:-0.1875 
0.011659941555595018 1:-0.25 2:-0.254545 3:0.238095 4:-0.0247934 6:0.0181818 7:0.0526316 8:-0.1875 9:0.25 10:0.398058 11:0.136842 12:-0.125 13:-0.258065 14:-0.288462 15:0.108696 16:0.0677966 17:-0.03125 18:0.00970874 19:-0.0361446 20:-0.268293 21:0.230769 22:0.320388 23:0.0222222 24:-0.2 25:-0.40625 26:-0.230769 27:0.172414 28:0.0333333 29:-0.261538 30:-0.207921 31:0.221053 32:0.046875 33:-0.0625 34:-0.0679612 35:0.136842 36:-0.125 
0.011524171737214432 1:-0.28125 2:-0.327273 3:-0.119048 4:-0.305785 6:0.0181818 7:-0.263158 8:-0.40625 9:-0.15625 10:0.00970874 11:-0.263158 12:-0.40625 13:-0.612903 14:-0.692308 15:-0.152174 17:-0.1875 18:-0.223301 19:-0.421687 20:-0.593496 21:-0.0461538 22:0.00970874 23:-0.244444 24:-0.456 25:-0.15625 26:-0.173077 27:-0.241379 28:-0.5 29:-0.138462 30:-0.00990099 31:-0.242105 32:-0.515625 33:-0.03125 34:0.0485437 35:-0.242105 36:-0.390625 
0.072951800249530754 1:-0.28125 2:-0.509091 3:0.047619 4:-0.0247934 5:-0.741935 6:-0.818182 7:0.0526316 8:0.171875 9:-0.75 10:-0.805825 11:0.136842 12:0.171875 13:-0.0322581 15:-0.152174 16:-0.372881 17:0.0625 18:0.165049 19:-0.0361446 20:-0.284553 21:-0.261538 22:-0.436893 23:0.2 24:0.136 25:-0.03125 26:-0.0384615 27:-0.402299 28:-0.5 29:0.107692 30:0.0693069 31:-0.242105 32:-0.328125 33:-0.03125 34:0.0485437 35:-0.0947368 36:-0.15625 
0.12779538277967303 1:-0.59375 2:-0.6 4:0.00826446 5:-0.354839 6:-0.290909 7:-0.0736842 8:-0.21875 9:-0.125 10:-0.0291262 11:-0.0736842 12:-0.328125 13:-0.0967742 14:0.0769231 15:-0.26087 16:-0.372881 17:-0.03125 18:0.0873786 19:-0.156627 20:-0.414634 21:-0.0153846 22:0.0873786 23:-0.177778 24:-0.456 25:-0.03125 26:0.0769231 27:-0.264368 28:-0.45 29:-0.138462 30:0.029703 31:-0.263158 32:-0.40625 33:-0.15625 34:0.00970874 35:-0.263158 36:-0.484375 
0.030367939561821211 1:-0.78125 2:-0.818182 3:0.190476 4:0.371901 5:-0.580645 6:-0.6 7:0.0105263 8:0.015625 9:-0.375 10:-0.242718 11:-0.0736842 12:-0.21875 13:-0.225806 14:-0.211538 15:-0.173913 16:-0.237288 17:-0.125 18:0.0873786 19:-0.253012 20:-0.414634 21:-0.0153846 22:0.0873786 23:-0.0888889 24:-0.344 25:-0.28125 26:-0.288462 27:-0.0804598 28:-0.316667 29:-0.0153846 30:0.108911 31:-0.263158 32:-0.40625 33:-0.15625 34:0.00970874 35:-0.263158 36:-0.40625 
0.12875545562155 1:0.0625 2:0.0363636 3:-0.0238095 4:-0.289256 5:-0.0322581 6:-0.272727 7:0.0736842 8:0.015625 9:-0.59375 10:-0.68932 11:-0.0105263 12:0.125 13:0.0322581 14:0.192308 15:-0.108696 16:-0.271186 18:0.126214 19:-0.180723 20:-0.317073 21:-0.230769 22:-0.106796 23:-0.2 24:-0.312 25:-0.125 27:-0.402299 28:-0.516667 29:-0.107692 30:-0.049505 31:-0.473684 32:-0.46875 33:-0.125 34:0.0873786 35:-0.221053 36:-0.359375 
0.03742109410227043 1:0.09375 2:0.0363636 3:-0.119048 4:-0.355372 5:0.129032 6:0.109091 7:-0.157895 8:-0.390625 9:0.09375 10:0.242718 11:-0.0105263 12:-0.28125 13:0.225806 14:0.0961538 15:-0.130435 16:-0.389831 17:0.0625 18:0.106796 19:-0.204819 20:-0.430894 21:0.0769231 22:0.184466 23:-0.0444444 24:-0.248 26:0.0384615 27:-0.0574713 28:-0.366667 29:-0.230769 30:-0.168317 31:0.0947368 32:-0.15625 33:-0.46875 34:-0.572816 35:0.284211 36:0.25 
0.10743951804218642 1:0.09375 2:0.109091 3:-0.190476 4:-0.421488 5:0.129032 6:0.163636 7:-0.0105263 8:-0.28125 9:0.09375 10:0.184466 11:-0.0947368 12:-0.328125 13:0.0967742 14:0.0961538 15:-0.217391 16:-0.389831 17:0.0625 18:0.184466 19:-0.108434 20:-0.317073 21:-0.138462 22:-0.0679612 23:-0.0444444 24:-0.184 25:-0.25 26:-0.192308 27:0.126437 28:-0.183333 29:-0.446154 30:-0.564356 31:0.284211 32:0.25 33:-0.6875 34:-0.747573 35:0.578947 36:0.546875 
0.18841348235936867 1:0.25 2:0.127273 3:-0.0952381 4:-0.289256 5:0.0322581 6:-0.0181818 7:-0.0736842 8:-0.265625 9:-0.46875 10:-0.572816 11:0.368421 12:0.3125 13:0.290323 14:0.230769 15:-0.0652174 16:-0.237288 17:0.375 18:0.242718 19:-0.0361446 20:-0.349593 21:-0.107692 22:-0.203883 23:0.111111 24:-0.104 25:0.21875 26:0.384615 27:-0.0114943 28:-0.25 29:0.384615 30:0.425743 31:-0.0315789 32:-0.21875 33:0.09375 34:0.165049 35:-0.0947368 36:-0.28125 
0.12899481577082517 1:0.25 2:0.218182 3:-0.0952381 4:-0.355372 5:0.290323 6:0.127273 7:-0.157895 8:-0.390625 9:0.25 10:0.203883 11:-0.157895 12:-0.328125 14:0.230769 15:-0.0652174 16:-0.305085 17:0.125 18:0.242718 19:-0.0361446 20:-0.414634 21:-0.0153846 22:0.00970874 23:0.0222222 24:-0.28 25:-0.15625 26:-0.134615 27:-0.0114943 28:-0.183333 29:-0.384615 30:-0.386139 31:0.136842 32:0.109375 33:-0.65625 34:-0.650485 35:0.326316 36:0.359375 
0.033266293287495648 1:0.3125 2:0.181818 3:-0.119048 4:-0.338843 5:0.225806 6:0.109091 7:-0.0947368 8:-0.3125 9:0.1875 10:0.106796 11:-0.0947368 12:-0.375 13:0.290323 14:0.115385 15:-0.195652 16:-0.40678 18:0.126214 19:-0.0843373 20:-0.382114 21:0.0153846 22:0.0485437 23:-0.0222222 24:-0.312 25:-0.125 26:-0.211538 27:0.0804598 28:-0.1 29:-0.476923 30:-0.465347 31:0.221053 32:0.15625 33:-0.5 34:-0.475728 35:0.136842 36:-0.015625 
0.020659992318825326 1:0.3125 2:0.327273 3:-0.047619 4:-0.256198 5:0.225806 6:0.254545 7:0.0526316 8:-0.1875 9:0.3125 10:0.339806 11:-0.0315789 12:-0.234375 13:0.387097 14:0.307692 15:0.0434783 16:-0.220339 17:0.21875 18:0.242718 19:0.180723 20:-0.268293 21:-0.0153846 22:-0.106796 23:0.133333 24:-0.024 25:0.0625 26:-0.0769231 27:0.0114943 28:-0.183333 29:-0.569231 30:-0.564356 31:0.347368 32:0.234375 33:-0.78125 34:-0.805825 35:0.452632 36:0.515625 
0.0001330008640174781 1:-0.03125 2:-0.0545455 3:-0.047619 4:-0.239669 5:0.258065 6:0.236364 7:-0.0315789 8:-0.21875 9:0.21875 10:0.320388 11:-0.0315789 12:-0.21875 13:-0.258065 14:-0.230769 15:0.195652 16:0.0677966 17:-0.0625 18:-0.0679612 19:0.156627 20:-0.170732 21:0.0769231 22:0.165049 23:-0.0666667 24:-0.216 25:-0.28125 26:-0.25 27:0.0114943 29:-0.138462 30:-0.00990099 31:0.263158 32:-0.046875 33:0.09375 34:0.242718 35:-0.0105263 36:-0.21875 
0.0018230099439334455 1:-0.03125 2:-0.0545455 3:-0.261905 4:-0.38843 5:-0.0967742 6:-0.127273 7:-0.221053 8:-0.40625 9:0.125 10:0.0873786 11:-0.136842 12:-0.296875 13:-0.258065 14:-0.403846 15:-0.391304 16:-0.423729 17:-0.28125 18:-0.203883 19:-0.301205 20:-0.463415 21:-0.0153846 22:0.242718 23:-0.0444444 24:-0.264 25:-0.5 26:-0.576923 27:-0.37931 28:-0.466667 29:-0.476923 30:-0.485149 31:-0.515789 32:-0.421875 33:-0.0625 34:0.00970874 35:-0.284211 36:-0.421875 
0.031555412343060189 1:-0.125 2:-0.163636 3:0.309524 4:-0.0413223 5:-0.0967742 6:-0.0909091 7:0.0105263 8:-0.21875 10:-0.0291262 11:-0.0736842 12:-0.265625 13:-0.225806 14:-0.346154 15:0.195652 16:0.118644 17:-0.25 18:-0.203883 19:0.253012 20:-0.0569106 21:-0.0153846 22:0.0873786 23:0.111111 24:-0.168 25:-0.40625 26:-0.346154 27:0.287356 28:0.1 29:-0.261538 30:-0.267327 31:0.136842 32:0.046875 33:-0.03125 34:0.00970874 35:-0.0315789 36:-0.21875 
0.0095535556415817496 1:-0.125 2:-0.236364 3:-0.47619 4:-0.471074 5:-0.225806 6:-0.363636 7:-0.326316 8:-0.390625 9:-0.375 10:-0.378641 11:-0.157895 12:-0.265625 13:-0.225806 14:-0.211538 15:-0.347826 16:-0.423729 17:-0.375 18:-0.339806 19:-0.349398 20:-0.414634 21:-0.476923 22:-0.417476 23:-0.355556 24:-0.344 25:-0.03125 26:-0.134615 27:-0.448276 28:-0.6 29:-0.384615 30:-0.465347 31:-0.642105 32:-0.609375 33:-0.53125 34:-0.533981 35:-0.642105 36:-0.671875 
0.015007713561734975 1:-0.15625 2:-0.254545 3:-0.214286 4:-0.239669 5:-0.258065 6:-0.254545 7:-0.263158 8:-0.21875 9:-0.15625 10:-0.203883 11:-0.178947 12:-0.21875 13:-0.0322581 15:-0.0652174 16:-0.237288 17:-0.0625 18:0.00970874 19:-0.13253 20:-0.235772 21:-0.0461538 22:-0.223301 23:-0.155556 24:-0.216 25:0.21875 26:0.0961538 27:-0.0804598 28:-0.316667 29:-0.0153846 30:0.0693069 31:-0.0947368 32:-0.21875 33:-0.03125 34:-0.0291262 35:-0.0947368 36:-0.21875 
0.19873899574959394 1:-0.15625 2:0.109091 3:0.166667 4:-0.123967 5:-0.258065 6:-0.163636 7:-0.0105263 8:-0.109375 9:-0.40625 10:-0.165049 11:0.157895 12:0.015625 13:-0.0322581 14:0.25 15:0.23913 16:-0.152542 17:-0.375 18:-0.0679612 19:0.0843373 20:-0.203252 21:-0.353846 22:-0.0679612 23:0.133333 24:-0.136 25:0.125 26:0.192308 27:0.126437 28:-0.3 29:-0.230769 30:-0.00990099 31:-0.0736842 32:-0.265625 33:-0.375 34:-0.0291262 35:-0.0736842 36:-0.265625 
0.001294263432858577 1:-0.25 2:-0.363636 3:-0.380952 4:-0.421488 5:-0.354839 6:-0.418182 7:-0.157895 8:-0.265625 9:-0.375 10:-0.378641 11:0.0105263 12:-0.09375 13:-0.354839 14:-0.346154 15:-0.347826 16:-0.372881 17:-0.5 18:-0.417476 19:-0.445783 20:-0.414634 21:-0.353846 22:-0.533981 23:-0.266667 24:-0.28 25:-0.40625 26:-0.480769 27:-0.678161 28:-0.666667 29:-0.507692 30:-0.524752 31:-0.642105 32:-0.671875 33:-0.65625 34:-0.533981 35:-0.578947 36:-0.671875 
0.020237800519887869 1:-0.25 2:-0.381818 3:0.238095 4:0.0909091 5:-0.225806 6:-0.254545 7:0.221053 8:-0.015625 9:-0.03125 10:0.0873786 11:0.0526316 12:-0.1875 13:-0.387097 14:-0.346154 15:0.217391 16:0.135593 17:-0.28125 18:-0.281553 19:0.156627 20:0.00813008 21:-0.0153846 22:0.00970874 23:0.0222222 24:-0.2 25:-0.5 26:-0.307692 27:0.172414 28:0.0333333 29:-0.384615 30:-0.207921 31:0.136842 32:0.046875 33:-0.28125 34:-0.223301 35:0.221053 36:0.046875 
0.057854360772469325 1:-0.28125 2:-0.272727 3:0.238095 4:0.0413223 5:-0.0322581 6:-0.127273 7:0.136842 8:-0.125 9:0.0625 10:0.165049 11:-0.115789 12:-0.234375 13:-0.258065 14:-0.25 15:-0.0434783 16:0.0338983 17:-0.15625 18:-0.0291262 19:0.301205 20:-0.0894309 21:0.107692 22:0.242718 23:0.0444444 24:-0.2 25:-0.28125 26:-0.153846 27:0.103448 28:-0.0666667 29:-0.138462 30:-0.049505 31:0.157895 32:-0.046875 33:0.0625 34:0.184466 35:0.157895 36:-0.15625 
0.0058547659985165694 1:-0.28125 2:-0.509091 3:-0.404762 4:-0.371901 5:-0.258065 6:-0.436364 7:-0.263158 8:-0.40625 9:-0.28125 10:-0.281553 11:-0.431579 12:-0.484375 13:-0.258065 14:-0.230769 15:-0.23913 16:-0.237288 17:-0.1875 18:-0.300971 19:-0.421687 20:-0.414634 21:-0.261538 22:-0.223301 23:-0.333333 24:-0.456 25:0.09375 26:-0.0384615 27:-0.241379 28:-0.433333 29:-0.0153846 30:-0.0891089 31:-0.389474 32:-0.515625 33:-0.15625 34:-0.242718 35:-0.473684 36:-0.515625 
0.051152002375029905 1:-0.40625 2:-0.327273 3:0.047619 4:-0.0247934 5:-0.516129 6:-0.381818 7:0.0526316 8:-0.09375 9:-0.53125 10:-0.398058 11:-0.0315789 12:-0.09375 13:-0.387097 14:-0.307692 15:0.108696 16:0.0677966 17:-0.40625 18:-0.359223 19:0.060241 20:-0.0569106 21:-0.476923 22:-0.359223 23:0.111111 24:-0.04 25:-0.28125 26:-0.25 27:0.103448 28:-0.0666667 29:-0.384615 30:-0.227723 31:-0.0105263 32:-0.109375 33:-0.40625 34:-0.300971 35:-0.157895 36:-0.15625 
0.009019035985717707 1:-0.40625 2:-0.381818 3:-0.404762 4:-0.438017 5:-0.129032 6:-0.0545455 7:-0.263158 8:-0.484375 9:-0.15625 10:0.00970874 11:-0.263158 12:-0.40625 13:-0.483871 14:-0.442308 15:-0.23913 16:-0.305085 17:-0.5 18:-0.300971 19:-0.325301 20:-0.479675 21:-0.169231 22:-0.0679612 23:-0.333333 24:-0.456 25:-0.625 26:-0.480769 27:-0.402299 28:-0.433333 29:-0.6 30:-0.405941 31:-0.389474 32:-0.453125 33:-0.40625 34:-0.165049 35:-0.389474 36:-0.515625 
0.018446520695086632 1:-0.40625 2:-0.4 3:-0.190476 4:-0.173554 5:-0.387097 6:-0.454545 7:-0.0105263 8:-0.109375 9:-0.40625 10:-0.417476 11:-0.0105263 12:-0.109375 13:-0.451613 14:-0.442308 15:-0.130435 16:-0.0338983 17:-0.46875 18:-0.436893 19:-0.0120482 20:-0.0243902 21:-0.569231 22:-0.436893 23:0.0444444 24:-0.024 25:-0.46875 26:-0.461538 27:-0.0574713 28:-0.116667 29:-0.446154 30:-0.445545 31:-0.157895 32:-0.15625 33:-0.46875 34:-0.456311 35:-0.242105 36:-0.21875 
0.0037760916361375654 1:-0.40625 2:-0.436364 3:0.142857 4:0.107438 5:-0.387097 6:-0.381818 7:0.242105 8:0.109375 9:-0.28125 10:-0.281553 11:0.136842 12:0.046875 13:-0.387097 14:-0.365385 15:-0.0652174 17:-0.5 18:-0.300971 19:0.156627 20:0.00813008 21:-0.384615 22:-0.223301 23:0.2 24:0.072 25:-0.40625 26:-0.307692 27:0.0114943 28:-0.0666667 29:-0.384615 30:-0.346535 31:-0.0105263 32:-0.046875 33:-0.40625 34:-0.300971 35:-0.0947368 36:-0.046875 
0.054870769180724373 1:-0.40625 2:-0.454545 3:-0.0238095 4:-0.123967 5:-0.387097 6:-0.454545 7:-0.0105263 8:-0.109375 9:-0.5 10:-0.417476 11:-0.0105263 12:-0.109375 13:-0.451613 14:-0.442308 15:-0.0434783 16:0.0338983 17:-0.59375 18:-0.436893 19:-0.0120482 20:-0.0894309 21:-0.353846 22:-0.436893 23:-0.0444444 24:-0.072 25:-0.46875 26:-0.461538 27:-0.149425 28:-0.183333 29:-0.446154 30:-0.445545 31:-0.242105 32:-0.21875 33:-0.46875 34:-0.456311 35:-0.242105 36:-0.265625 
0.049965351453098883 1:-0.40625 2:-0.454545 3:-0.0238095 4:-0.123967 5:-0.483871 6:-0.454545 7:-0.0105263 8:-0.109375 9:-0.40625 10:-0.417476 11:-0.0105263 12:-0.109375 13:-0.580645 14:-0.442308 15:-0.0434783 16:-0.0338983 17:-0.375 18:-0.436893 19:-0.108434 20:-0.138211 21:-0.446154 22:-0.359223 23:-0.0444444 24:-0.184 25:-0.46875 26:-0.461538 27:-0.241379 28:-0.25 29:-0.446154 30:-0.445545 31:-0.242105 32:-0.265625 33:-0.46875 34:-0.456311 35:-0.242105 36:-0.328125 
0.041368603096061225 1:-0.40625 2:0.0909091 3:0.047619 4:-0.206612 5:-0.16129 6:0.163636 7:0.305263 8:-0.0625 9:-0.0625 10:0.339806 11:0.305263 12:-0.015625 13:-0.709677 14:-0.538462 15:0.0434783 16:0.152542 17:-0.5 18:-0.106796 19:-0.0120482 20:-0.268293 21:-0.261538 22:0.184466 23:0.222222 24:-0.136 25:-0.875 26:-0.961538 27:0.402299 28:0.65 29:-0.753846 30:-0.80198 31:0.347368 32:0.453125 33:-0.6875 34:-0.300971 35:-0.0105263 36:-0.046875 
0.01192873345078716 1:-0.53125 2:-0.381818 3:0.047619 4:-0.107438 5:-0.516129 6:-0.436364 7:-0.0315789 8:-0.09375 9:-0.40625 10:-0.398058 11:-0.0947368 12:-0.15625 13:-0.387097 14:-0.365385 15:0.0217391 17:-0.5 18:-0.359223 19:0.060241 20:-0.105691 21:-0.476923 22:-0.359223 23:-0.155556 24:-0.168 25:-0.40625 26:-0.25 27:0.0114943 28:-0.133333 29:-0.384615 30:-0.287129 31:-0.157895 32:-0.15625 33:-0.40625 34:-0.300971 35:-0.242105 36:-0.15625 
0.018456802657066524 1:-0.59375 2:-0.490909 4:-0.0413223 5:-0.451613 6:-0.163636 7:-0.242105 8:-0.328125 9:-0.25 10:0.126214 11:0.0105263 12:-0.21875 13:-0.483871 14:-0.288462 15:-0.173913 16:-0.118644 17:-0.375 18:-0.281553 19:-0.156627 20:-0.235772 21:-0.353846 22:-0.0679612 23:0.0222222 24:-0.216 25:-0.40625 26:-0.346154 27:-0.172414 28:-0.25 29:-0.384615 30:-0.326733 31:-0.263158 32:-0.28125 33:-0.40625 34:-0.0679612 35:-0.178947 36:-0.21875 
0.048721499611956494 1:-0.59375 2:-0.527273 3:-0.571429 4:-0.471074 5:-0.580645 6:-0.527273 7:-0.494737 8:-0.375 9:-0.46875 10:-0.495146 11:-0.410526 12:-0.4375 13:-0.451613 14:-0.461538 15:-0.369565 16:-0.40678 17:-0.59375 18:-0.631068 19:-0.180723 20:-0.203252 21:-0.846154 22:-0.805825 23:-0.0222222 24:0.104 25:-0.59375 26:-0.653846 27:-0.0114943 28:0.0333333 29:-0.784615 30:-0.821782 31:0.0526316 32:0.21875 33:-0.90625 34:-0.92233 35:0.221053 36:0.375 
0.0041132444218489796 1:-0.59375 2:-0.545455 3:-0.47619 4:-0.603306 5:-0.451613 6:-0.545455 7:-0.557895 8:-0.5 9:-0.46875 10:-0.378641 11:-0.410526 12:-0.5 13:-0.806452 14:-0.711538 15:-0.0652174 16:-0.237288 17:-0.59375 18:-0.592233 19:-0.638554 20:-0.593496 21:-0.476923 22:-0.533981 23:-0.533333 24:-0.52 25:-0.875 26:-0.903846 27:0.37931 28:0.366667 29:-0.630769 30:-0.643564 31:-0.263158 32:-0.34375 33:-0.65625 34:-0.650485 35:-0.494737 36:-0.484375 
0.0077539844796217523 1:-0.59375 2:-0.563636 3:-0.547619 4:-0.504132 5:-0.580645 6:-0.618182 7:-0.136842 8:0.046875 9:-0.8125 10:-0.864078 11:0.431579 12:0.546875 13:-0.516129 14:-0.538462 15:-0.478261 16:-0.423729 17:-0.53125 18:-0.533981 19:-0.301205 20:-0.333333 21:-0.630769 22:-0.650485 23:0.2 24:0.328 25:-0.625 26:-0.576923 27:-0.471264 28:-0.583333 29:-0.476923 30:-0.485149 31:-0.284211 32:-0.46875 33:-0.5 34:-0.572816 35:-0.284211 36:-0.359375 
0.073520831594186487 1:-0.59375 2:-0.563636 3:0.142857 4:0.338843 5:-0.677419 6:-0.836364 7:0.326316 8:0.546875 9:-0.90625 10:-0.825243 11:0.431579 12:0.546875 13:-0.258065 15:0.0217391 16:-0.0847458 17:-0.40625 18:-0.203883 19:-0.0361446 20:-0.0569106 21:-0.507692 22:-0.339806 23:0.111111 24:0.072 25:-0.0625 26:0.403846 27:0.264368 28:-0.0833333 29:-0.169231 30:0.029703 31:-0.0315789 32:-0.125 33:-0.28125 34:-0.145631 35:0.136842 36:-0.015625 
0.01195166919012202 1:-0.59375 2:-0.618182 3:-0.642857 4:-0.570248 5:-0.483871 6:-0.563636 7:-0.557895 8:-0.53125 9:-0.375 10:-0.475728 11:-0.473684 12:-0.46875 13:-0.645161 14:-0.653846 15:-0.304348 16:-0.355932 17:-0.65625 18:-0.650485 19:-0.566265 20:-0.544715 21:-0.507692 22:-0.533981 23:-0.466667 24:-0.472 25:-0.90625 26:-0.961538 27:0.471264 28:0.65 29:-0.692308 30:-0.742574 31:-0.0315789 32:-0.0625 33:-0.625 34:-0.631068 35:-0.368421 36:-0.46875 
0.0074820558502626125 1:-0.65625 2:-0.672727 3:-0.571429 4:-0.520661 5:-0.516129 6:-0.563636 7:-0.494737 8:-0.484375 9:-0.40625 10:-0.398058 11:-0.431579 12:-0.40625 13:-0.709677 14:-0.75 15:-0.0652174 16:-0.0508475 17:-0.625 18:-0.631068 19:-0.421687 20:-0.528455 21:-0.6 22:-0.631068 23:-0.422222 24:-0.408 25:-0.8125 26:-0.903846 27:0.195402 28:0.316667 29:-0.692308 30:-0.643564 31:-0.326316 32:-0.328125 33:-0.625 34:-0.708738 35:-0.389474 36:-0.328125 
0.00036124538707251537 1:-0.6875 2:-0.618182 3:0.142857 4:0.22314 5:-0.677419 6:-0.454545 7:-0.0315789 8:0.046875 9:-0.5 10:-0.339806 11:-0.0315789 12:-0.078125 13:-0.387097 14:-0.288462 15:0.0217391 17:-0.53125 18:-0.339806 19:0.060241 20:-0.138211 21:-0.507692 22:-0.398058 23:0.0222222 24:-0.072 25:-0.40625 26:-0.307692 27:0.172414 28:0.0333333 29:-0.384615 30:-0.346535 31:0.0526316 32:-0.015625 33:-0.5 34:-0.359223 35:0.0526316 36:-0.0625 
0.030694889899151659 1:-0.71875 2:-0.763636 3:-0.047619 4:-0.0743802 5:-0.612903 6:-0.654545 7:-0.368421 8:-0.46875 9:-0.625 10:-0.631068 11:-0.452632 12:-0.421875 13:-0.806452 14:-0.903846 15:0.130435 16:0.355932 17:-0.71875 18:-0.650485 19:-0.373494 20:-0.382114 21:-0.6 22:-0.708738 23:-0.355556 24:-0.312 25:-0.6875 26:-0.807692 27:0.103448 28:0.166667 29:-0.753846 30:-0.742574 31:-0.0947368 32:0.015625 33:-0.6875 34:-0.747573 35:-0.326316 36:-0.203125 
0.022621469136204522 1:-0.78125 2:-0.818182 3:0.190476 4:0.504132 5:-0.677419 6:-0.709091 7:0.0105263 8:0.25 9:-0.59375 10:-0.456311 11:0.0105263 12:-0.03125 13:-0.483871 14:-0.346154 15:-0.0652174 16:-0.0677966 17:-0.5 18:-0.339806 19:-0.156627 20:-0.170732 21:-0.476923 22:-0.281553 23:-0.0888889 24:-0.104 25:-0.53125 26:-0.403846 27:-0.0114943 28:-0.116667 29:-0.384615 30:-0.386139 31:-0.0947368 32:-0.15625 33:-0.40625 34:-0.339806 35:-0.178947 36:-0.21875 
0.01159080887836832 1:0.0625 2:0.181818 3:0.380952 4:0.00826446 5:0.0967742 6:0.181818 7:0.263158 8:0.015625 9:-0.0625 10:0.184466 11:0.347368 12:0.0625 13:-0.225806 14:0.115385 15:0.0652174 16:-0.0169492 17:-0.25 18:-0.0291262 19:0.204819 20:0.0406504 21:-0.107692 22:-0.184466 23:0.355556 24:0.104 25:-0.25 26:-0.211538 27:0.172414 28:-0.1 29:-0.230769 30:-0.267327 31:0.221053 32:-0.015625 33:-0.375 34:-0.339806 35:0.221053 36:0.09375 
0.035388593408536097 1:0.125 2:-0.0181818 3:-0.285714 4:-0.355372 5:0.0322581 6:-0.0181818 7:-0.157895 8:-0.328125 10:-0.0291262 11:-0.157895 12:-0.328125 13:0.290323 14:0.153846 15:0.0217391 16:-0.305085 17:-0.03125 18:-0.0679612 19:-0.253012 20:-0.349593 21:-0.230769 22:-0.145631 23:-0.177778 24:-0.216 25:0.21875 26:0.230769 27:-0.0114943 28:-0.316667 29:-0.0153846 30:-0.049505 31:-0.0947368 32:-0.21875 33:-0.15625 34:-0.203883 35:-0.0947368 36:-0.21875 
0.022033064864660615 1:0.21875 2:0.0909091 3:-0.119048 4:-0.305785 6:-0.0545455 7:-0.178947 8:-0.28125 9:-0.15625 10:-0.0679612 11:-0.178947 12:-0.40625 13:0.354839 14:0.230769 15:-0.0652174 16:-0.237288 17:-0.1875 18:-0.145631 19:-0.228916 20:-0.349593 21:-0.476923 22:-0.495146 23:-0.333333 24:-0.408 25:0.34375 26:0.230769 27:0.103448 28:-0.25 29:-0.0153846 30:-0.287129 31:-0.242105 32:-0.28125 33:-0.40625 34:-0.475728 35:-0.326316 36:-0.28125 
0.026164429381190086 1:0.25 2:0.0909091 3:0.047619 4:-0.322314 6:-0.127273 7:-0.221053 8:-0.296875 9:-0.25 10:-0.145631 11:-0.221053 12:-0.234375 13:0.258065 14:0.230769 15:-0.0652174 16:-0.288136 17:-0.03125 18:-0.0679612 19:-0.108434 20:-0.268293 21:-0.138462 22:-0.203883 23:-0.0444444 24:-0.2 25:0.1875 26:0.0769231 27:-0.103448 28:-0.4 29:0.2 30:0.267327 31:-0.0315789 32:-0.234375 33:0.1875 34:0.0873786 35:-0.2 36:-0.296875 
0.077614296228140922 1:0.34375 2:0.163636 3:0.0714286 4:-0.239669 6:-0.345455 7:-0.242105 8:-0.28125 9:-0.40625 10:-0.475728 11:-0.326316 12:-0.28125 13:0.225806 14:0.173077 15:0.0434783 16:-0.152542 17:-0.15625 18:-0.223301 19:-0.108434 20:-0.252033 21:-0.353846 22:-0.359223 23:-0.222222 24:-0.184 25:0.125 26:0.192308 27:0.0344828 28:-0.25 29:-0.107692 30:-0.0891089 31:-0.157895 32:-0.21875 33:-0.25 34:-0.242718 35:-0.157895 36:-0.21875 
0.00053349666774342181 1:0.53125 2:0.527273 3:0.380952 4:0.00826446 5:0.580645 6:0.527273 7:0.263158 8:-0.046875 9:0.40625 10:0.359223 11:0.157895 12:-0.203125 13:0.290323 14:0.365385 15:0.0652174 16:-0.271186 17:0.125 18:0.126214 19:-0.180723 20:-0.447154 21:-0.230769 22:-0.0291262 23:-0.377778 24:-0.488 25:-0.125 26:-0.153846 27:-0.494253 28:-0.583333 29:-0.353846 30:-0.405941 31:-0.789474 32:-0.75 33:-0.59375 34:-0.475728 35:-0.936842 36:-0.859375 
0.085957950178966985 1:-0.03125 2:0.0181818 3:-0.261905 4:-0.38843 5:0.16129 6:0.0909091 7:-0.136842 8:-0.234375 9:0.125 10:0.242718 11:-0.0315789 12:-0.296875 14:0.0769231 15:-0.130435 16:-0.355932 17:-0.03125 18:0.00970874 19:-0.108434 20:-0.398374 21:-0.0153846 22:0.00970874 23:-0.222222 24:-0.392 25:0.0625 26:0.0769231 27:-0.0114943 28:-0.333333 29:-0.169231 30:-0.128713 31:-0.515789 32:-0.53125 33:-0.28125 34:-0.300971 35:-0.663158 36:-0.640625 
0.01458734661798718 1:-0.125 2:0.0181818 3:-0.357143 4:-0.438017 6:-0.0545455 7:-0.221053 8:-0.359375 9:-0.03125 10:0.00970874 11:-0.221053 12:-0.359375 13:0.129032 14:0.230769 15:-0.0652174 16:-0.220339 17:0.09375 18:0.0873786 19:-0.204819 20:-0.398374 21:-0.0153846 22:0.00970874 23:-0.222222 24:-0.392 25:-0.0625 27:-0.287356 28:-0.4 29:-0.0461538 30:0.029703 31:-0.284211 32:-0.421875 33:-0.0625 34:-0.145631 35:-0.515789 36:-0.46875 
0.046339168586661622 1:-0.46875 2:-0.490909 4:0.0743802 5:-0.451613 6:-0.490909 7:0.284211 8:0.140625 9:-0.375 10:-0.184466 11:0.0947368 12:-0.09375 13:-0.0967742 14:-0.0769231 15:-0.347826 16:-0.372881 17:-0.03125 18:-0.0679612 19:-0.349398 20:-0.528455 21:-0.107692 22:-0.145631 23:-0.355556 24:-0.52 25:-0.15625 26:-0.211538 27:-0.448276 28:-0.666667 29:-0.138462 30:-0.108911 31:-0.578947 32:-0.609375 33:-0.15625 34:-0.126214 35:-0.578947 36:-0.609375 
0.031793664475469892 1:-0.625 2:-0.672727 3:0.285714 4:0.256198 5:-0.129032 6:-0.218182 7:0.0736842 8:-0.15625 9:0.21875 10:0.320388 11:-0.0105263 12:-0.28125 13:-0.0322581 15:-0.0434783 16:-0.20339 17:0.1875 18:0.262136 19:-0.0120482 20:-0.317073 21:0.323077 22:0.456311 23:0.222222 24:-0.248 25:-0.125 26:-0.0384615 27:-0.333333 28:-0.55 29:-0.107692 30:0.0693069 31:-0.157895 32:-0.390625 33:0.125 34:0.126214 35:-0.0736842 36:-0.265625 
0.06712625688606863 1:-0.6875 2:-0.763636 3:0.166667 4:0.355372 5:-0.580645 6:-0.654545 7:0.263158 8:0.28125 9:-0.375 10:-0.300971 11:-0.0105263 12:0.015625 13:-0.225806 14:-0.192308 15:-0.108696 16:-0.220339 17:-0.125 18:-0.0291262 19:-0.277108 20:-0.495935 21:-0.107692 22:-0.0291262 23:-0.377778 24:-0.488 25:-0.125 26:-0.0769231 27:-0.494253 28:-0.583333 29:-0.230769 30:-0.188119 31:-0.473684 32:-0.578125 33:-0.25 34:-0.145631 35:-0.473684 36:-0.578125 
0.030033790672325731 1:-0.71875 2:-0.872727 3:0.571429 4:0.586777 5:-0.483871 6:-0.6 7:0.221053 8:0.109375 9:-0.28125 10:-0.436893 11:-0.2 12:-0.296875 13:-0.387097 14:-0.365385 15:-0.0434783 16:-0.152542 17:-0.28125 18:-0.242718 19:-0.445783 20:-0.512195 21:-0.138462 22:-0.165049 23:-0.444444 24:-0.552 25:-0.15625 26:-0.230769 27:-0.678161 28:-0.716667 29:-0.353846 30:-0.207921 31:-0.578947 32:-0.59375 33:-0.28125 34:-0.300971 35:-0.642105 36:-0.65625 
0.00079587323347838225 1:0.09375 2:0.0181818 3:-0.047619 4:-0.239669 5:0.129032 6:0.163636 7:-0.0315789 8:-0.15625 9:0.21875 10:0.165049 11:-0.0315789 12:-0.28125 13:0.225806 14:0.230769 15:-0.0652174 16:-0.237288 17:-0.1875 18:-0.145631 19:-0.325301 20:-0.284553 21:-0.384615 22:-0.300971 23:-0.155556 24:-0.28 25:0.34375 26:0.173077 27:0.0114943 28:-0.25 29:-0.138462 30:-0.227723 31:-0.326316 32:-0.328125 33:-0.28125 34:-0.242718 35:-0.389474 36:-0.328125 
0.0059233797876594918 1:0.21875 2:0.0909091 3:-0.047619 4:-0.239669 5:0.129032 6:0.0181818 7:-0.0315789 8:-0.21875 9:0.09375 10:0.242718 11:-0.0315789 12:-0.15625 13:0.612903 14:0.480769 15:0.195652 16:-0.118644 17:0.1875 18:0.242718 19:-0.0361446 20:-0.284553 21:-0.169231 22:-0.145631 23:-0.244444 24:-0.216 25:0.625 26:0.384615 27:0.195402 28:-0.133333 29:0.353846 30:0.207921 31:-0.0105263 32:-0.21875 33:-0.15625 34:-0.242718 35:-0.326316 36:-0.328125 
-0.12694460663844087 1:-0.0625 2:0.0181818 3:-0.333333 4:-0.454545 5:-0.16129 6:-0.0545455 7:-0.284211 8:-0.46875 9:-0.1875 10:0.00970874 11:-0.2 12:-0.421875 13:-0.129032 14:0.0384615 15:-0.282609 16:-0.474576 17:-0.28125 18:-0.0291262 19:-0.277108 20:-0.382114 21:-0.261538 22:-0.106796 23:0.0444444 24:-0.136 25:-0.46875 26:-0.307692 27:0.0114943 28:-0.0666667 29:-0.569231 30:-0.564356 31:0.263158 32:0.234375 33:-0.78125 34:-0.747573 35:0.452632 36:0.453125 
-0.088493062802618927 1:-0.125 2:-0.0909091 3:-0.190476 4:-0.239669 5:-0.225806 6:-0.163636 7:0.0105263 8:-0.15625 9:-0.46875 10:-0.456311 11:0.0105263 12:0.078125 13:-0.0967742 14:-0.0769231 15:-0.0652174 16:-0.237288 17:-0.25 18:-0.0679612 19:-0.253012 20:-0.284553 21:-0.107692 22:-0.0679612 23:-0.266667 24:-0.344 25:-0.15625 26:-0.0769231 27:-0.448276 28:-0.533333 29:-0.138462 30:-0.108911 31:-0.431579 32:-0.546875 33:-0.15625 34:-0.203883 35:-0.431579 36:-0.609375 
-0.092840374791418753 1:-0.1875 2:-0.2 3:0.047619 4:-0.140496 5:0.354839 6:0.254545 7:0.136842 8:-0.1875 9:0.5625 10:0.495146 11:0.221053 12:-0.125 13:-0.612903 14:-0.538462 15:0.23913 16:0.101695 17:0.09375 18:0.106796 19:0.0843373 20:-0.268293 21:0.476923 22:0.398058 23:0.222222 24:-0.136 25:-0.78125 26:-0.75 27:0.402299 28:0.35 29:-0.446154 30:-0.346535 31:0.157895 32:0.015625 33:0.3125 34:0.262136 35:0.0736842 36:-0.203125 
-0.095265222110815478 1:-0.25 2:-0.163636 4:-0.173554 5:-0.451613 6:-0.490909 7:0.0105263 8:0.078125 9:-0.46875 10:-0.456311 11:0.284211 12:0.140625 13:-0.225806 14:-0.0769231 15:-0.26087 16:-0.237288 17:-0.125 18:-0.0679612 19:-0.349398 20:-0.414634 21:-0.0153846 22:-0.0679612 23:-0.266667 24:-0.456 25:-0.15625 26:-0.134615 27:-0.448276 28:-0.6 29:-0.138462 30:-0.188119 31:-0.431579 32:-0.609375 33:-0.15625 34:-0.126214 35:-0.578947 36:-0.609375 
-0.23556348364987678 1:-0.25 2:-0.236364 4:-0.107438 5:-0.0967742 6:-0.0909091 7:-0.157895 8:-0.21875 9:-0.25 10:-0.106796 11:0.0105263 12:-0.15625 13:-0.0967742 15:0.0217391 16:-0.186441 17:-0.125 18:-0.0679612 19:-0.0361446 20:-0.284553 21:-0.230769 22:-0.0679612 23:-0.177778 24:-0.216 25:-0.28125 26:-0.211538 27:-0.172414 28:-0.383333 29:-0.138462 30:-0.049505 31:-0.431579 32:-0.484375 33:-0.15625 34:-0.126214 35:-0.431579 36:-0.546875 
-0.14657153012384652 1:-0.25 2:-0.363636 3:-0.0952381 4:-0.173554 5:-0.354839 6:-0.418182 7:0.0105263 8:-0.03125 9:-0.25 10:-0.184466 11:0.0105263 12:-0.09375 13:0.419355 14:0.307692 15:0.108696 16:-0.305085 17:-0.03125 18:0.0873786 19:0.060241 20:-0.284553 21:-0.107692 22:0.00970874 23:0.111111 24:-0.168 25:0.375 26:0.461538 27:0.287356 28:-0.183333 29:-0.0153846 30:0.029703 31:-0.0947368 32:-0.34375 33:-0.28125 34:-0.203883 35:-0.178947 36:-0.34375 
-0.00058633875189931023 1:-0.28125 2:-0.272727 3:0.142857 4:-0.140496 5:0.354839 6:0.254545 7:0.136842 8:-0.234375 9:0.4375 10:0.417476 11:0.221053 12:-0.125 13:-0.612903 14:-0.596154 15:0.23913 16:0.220339 17:-0.03125 18:-0.0291262 19:-0.0120482 20:-0.333333 21:0.353846 22:0.398058 23:0.222222 24:-0.136 25:-0.875 26:-0.865385 27:0.517241 28:0.65 29:-0.569231 30:-0.425743 31:0.157895 32:0.0625 33:0.0625 34:0.262136 35:0.0736842 36:-0.265625 
-0.3493566917417964 1:-0.375 2:-0.418182 4:-0.0413223 5:-0.225806 6:-0.236364 7:0.0105263 8:-0.09375 9:-0.125 10:-0.0291262 11:-0.157895 12:-0.21875 14:0.0769231 15:0.0217391 16:-0.237288 17:-0.125 18:0.00970874 19:0.060241 20:-0.235772 21:-0.107692 22:-0.0679612 23:0.0222222 24:-0.216 25:-0.03125 27:-0.0804598 28:-0.383333 29:-0.261538 30:-0.188119 31:-0.178947 32:-0.34375 33:-0.15625 34:-0.0679612 35:-0.431579 36:-0.484375 
-0.0065156991010091696 1:-0.375 2:0.181818 3:0.285714 4:-0.173554 5:-0.258065 6:0.363636 7:0.263158 8:0.015625 9:-0.28125 10:0.533981 11:0.347368 12:-0.046875 13:-0.677419 14:-0.326923 15:0.0652174 16:0.101695 17:-0.59375 18:-0.242718 19:0.204819 20:-0.0731707 21:-0.353846 22:0.300971 23:0.355556 24:-0.072 25:-0.90625 26:-0.923077 27:0.494253 28:0.633333 29:-0.876923 30:-0.861386 31:0.431579 32:0.5 33:-0.8125 34:-0.592233 35:0.221053 36:0.21875 
-0.020363966271924737 1:-0.375 2:0.218182 3:0.309524 4:-0.107438 5:-0.225806 6:0.290909 7:0.284211 8:-0.03125 9:-0.125 10:0.378641 11:0.284211 12:-0.03125 13:-0.806452 14:-0.596154 15:0.195652 16:0.254237 17:-0.59375 18:-0.0679612 19:0.156627 20:-0.0569106 21:-0.230769 22:0.320388 23:0.288889 24:-0.056 25:-0.875 26:-0.903846 27:0.494253 28:0.583333 29:-0.723077 30:-0.861386 31:0.326316 32:0.5 33:-0.65625 34:-0.398058 35:0.326316 36:0.171875 
-0.016343245887069723 1:-0.40625 2:-0.345455 3:-0.547619 4:-0.487603 5:-0.258065 6:-0.345455 7:-0.536842 8:-0.5625 9:-0.28125 10:-0.300971 11:-0.621053 12:-0.625 13:-0.870968 14:-0.807692 15:0.0434783 16:0.271186 17:-0.59375 18:-0.495146 19:-0.301205 20:-0.317073 21:-0.353846 22:-0.359223 23:-0.466667 24:-0.584 25:-0.875 26:-0.923077 27:0.218391 28:0.366667 29:-0.846154 30:-0.80198 31:0.0105263 32:0.015625 33:-0.59375 34:-0.514563 35:-0.410526 36:-0.5625 
-0.00085515515910084266 1:-0.40625 2:0.0909091 3:0.142857 4:-0.173554 5:-0.258065 6:0.236364 7:0.0526316 8:-0.15625 9:-0.28125 10:0.320388 11:0.136842 12:-0.15625 13:-0.806452 14:-0.634615 15:0.282609 16:0.372881 17:-0.5 18:-0.145631 19:0.156627 20:-0.105691 21:-0.384615 22:0.165049 23:0.111111 24:-0.168 25:-0.9375 26:-0.942308 27:0.402299 28:0.683333 29:-0.784615 30:-0.861386 31:0.263158 32:0.484375 33:-0.71875 34:-0.533981 35:0.0736842 36:0.125 
-0.011857525525247511 1:-0.5 2:-0.454545 3:-0.357143 4:-0.256198 5:-0.580645 6:-0.618182 7:-0.136842 8:-0.125 9:-0.59375 10:-0.650485 11:-0.0315789 12:0.046875 13:-0.741935 14:-0.807692 15:0.0217391 16:0.20339 17:-0.75 18:-0.805825 19:0.156627 20:0.138211 21:-0.630769 22:-0.902913 23:0.111111 24:0.264 25:0.0625 26:0.153846 27:-0.0114943 28:-0.266667 29:-0.261538 30:-0.425743 31:0.136842 32:0.109375 33:-0.8125 34:-0.902913 35:0.136842 36:0.328125 
-0.0023416880206166705 1:-0.5 2:-0.6 3:-0.333333 4:-0.38843 5:-0.612903 6:-0.709091 7:0.136842 8:0.109375 9:-0.8125 10:-0.961165 11:0.410526 12:0.625 13:-0.387097 14:-0.480769 15:-0.369565 16:-0.338983 17:-0.40625 18:-0.592233 19:-0.180723 20:-0.0894309 21:-0.6 22:-0.805825 23:0.333333 24:0.392 25:-0.6875 26:-0.576923 27:-0.172414 28:-0.116667 29:-0.753846 30:-0.80198 31:0.157895 32:0.34375 33:-0.9375 34:-0.961165 35:0.347368 36:0.5625 
-0.013656748906939216 1:-0.5 2:-0.618182 3:-0.452381 4:-0.487603 5:-0.387097 6:-0.509091 7:-0.326316 8:-0.328125 9:-0.40625 10:-0.592233 11:-0.157895 12:-0.046875 13:-0.580645 14:-0.576923 15:-0.456522 16:-0.322034 17:-0.6875 18:-0.572816 19:-0.204819 20:-0.138211 21:-0.753846 22:-0.805825 23:0.222222 24:0.376 25:-0.96875 26:-0.923077 27:0.0344828 28:0.316667 29:-0.846154 30:-0.80198 31:0.0947368 32:0.140625 33:-0.6875 34:-0.631068 35:0.0947368 36:0.140625 
-0.026521459042161123 1:-0.59375 2:-0.418182 3:0.190476 4:0.322314 5:-0.677419 6:-0.927273 7:0.368421 8:0.546875 9:-0.78125 10:-0.92233 11:0.284211 12:0.59375 13:-0.354839 14:0.0769231 15:0.195652 17:-0.375 18:-0.281553 19:0.060241 20:0.0569106 21:-0.569231 22:-0.533981 23:0.2 24:0.36 25:-0.15625 26:0.384615 27:0.287356 28:-0.0333333 29:-0.138462 30:0.188119 31:0.0526316 32:-0.15625 33:-0.28125 34:0.00970874 35:0.0526316 36:-0.09375 
-0.048905540105635172 1:-0.59375 2:-0.6 3:0.0714286 4:0.123967 5:-0.677419 6:-0.527273 7:0.0736842 8:0.125 9:-0.78125 10:-0.805825 11:0.263158 12:0.453125 13:-0.0967742 14:-0.0384615 15:-0.195652 16:-0.220339 17:-0.25 18:-0.106796 19:0.0120482 20:-0.203252 21:-0.446154 22:-0.456311 23:0.0666667 24:0.104 25:-0.125 26:-0.0769231 27:-0.0114943 28:-0.266667 29:-0.230769 30:-0.049505 31:-0.221053 32:-0.234375 33:-0.125 34:-0.0679612 35:-0.305263 36:-0.359375 
-0.085662241323745156 1:-0.65625 2:-0.763636 3:0.142857 4:0.107438 5:-0.387097 6:-0.563636 7:0.0526316 8:-0.15625 9:-0.28125 10:-0.281553 11:-0.263158 12:-0.40625 13:-0.258065 14:-0.442308 15:-0.23913 16:-0.305085 17:-0.1875 18:-0.300971 19:-0.228916 20:-0.414634 21:-0.169231 22:-0.145631 23:-0.333333 24:-0.52 25:-0.15625 26:-0.173077 27:-0.494253 28:-0.616667 29:-0.261538 30:-0.148515 31:-0.473684 32:-0.5625 33:-0.28125 34:-0.165049 35:-0.536842 36:-0.625 
-0.053012827235997491 1:-0.6875 2:-0.836364 3:0.357143 4:0.570248 5:-0.903226 6:-0.836364 7:0.431579 8:0.546875 9:-0.8125 10:-0.76699 11:0.221053 12:0.328125 13:-0.387097 14:-0.211538 15:-0.0652174 17:-0.53125 18:-0.339806 19:0.060241 20:0.00813008 21:-0.507692 22:-0.281553 23:0.2 24:0.008 25:-0.1875 27:-0.0114943 28:-0.15 29:-0.261538 30:-0.128713 31:0.136842 32:-0.015625 33:-0.40625 34:-0.223301 35:0.136842 36:0.046875 
-0.016673599768570829 1:-0.6875 2:-0.872727 3:0.357143 4:0.338843 5:-0.677419 6:-0.781818 7:0.136842 8:0.15625 9:-0.5 10:-0.533981 11:0.0526316 12:-0.015625 13:-0.387097 14:-0.538462 15:0.0217391 16:-0.152542 17:-0.28125 18:-0.281553 19:-0.301205 20:-0.463415 21:-0.138462 22:-0.0679612 23:-0.311111 24:-0.472 25:-0.1875 26:-0.307692 27:-0.195402 28:-0.4 29:-0.169231 30:-0.128713 31:-0.368421 32:-0.53125 33:-0.0625 34:-0.145631 35:-0.368421 36:-0.53125 
-0.069674688194913389 1:-0.71875 2:-0.672727 3:-0.380952 4:-0.355372 5:-0.612903 6:-0.727273 7:-0.389474 8:-0.328125 9:-0.625 10:-0.708738 11:-0.326316 12:-0.328125 13:-0.774194 14:-0.75 15:-0.130435 16:0.0338983 17:-0.6875 18:-0.747573 19:-0.373494 20:-0.252033 21:-0.846154 22:-0.864078 23:-0.288889 24:-0.136 25:-0.78125 26:-0.923077 27:0.218391 28:0.183333 29:-0.753846 30:-0.80198 31:-0.0736842 32:-0.09375 33:-0.875 34:-0.864078 35:-0.157895 36:-0.09375 
-0.012105568062336749 1:-0.71875 2:-0.818182 3:-0.0238095 4:0.0743802 5:-0.612903 6:-0.763636 7:-0.0105263 8:0.125 9:-0.625 10:-0.747573 11:-0.0105263 12:0.1875 13:-0.580645 14:-0.576923 15:-0.130435 16:-0.0338983 17:-0.375 18:-0.436893 19:-0.301205 20:-0.203252 21:-0.261538 22:-0.145631 23:-0.222222 24:-0.296 25:-0.125 26:0.0384615 27:-0.149425 28:-0.433333 29:0.0153846 30:0.326733 31:-0.242105 32:-0.328125 33:0.125 34:0.300971 35:0.0105263 36:-0.265625 
-0.040601657405799255 1:-0.78125 2:-0.818182 3:0.380952 4:0.471074 5:-0.677419 6:-0.345455 7:-0.0105263 8:-0.046875 9:-0.28125 10:0.106796 11:-0.0105263 12:-0.203125 13:-0.677419 14:-0.692308 15:-0.0217391 16:0.288136 17:-0.59375 18:-0.456311 19:0.0120482 20:-0.0731707 21:-0.446154 22:-0.106796 23:-0.2 24:-0.312 25:-0.5 26:-0.346154 27:-0.126437 28:-0.15 29:-0.476923 30:-0.267327 31:-0.136842 32:-0.125 33:-0.375 34:-0.281553 35:-0.136842 36:-0.1875 
-0.052890960066412682 1:-0.8125 2:-0.818182 3:0.285714 4:0.322314 5:-0.612903 6:-0.672727 7:0.263158 8:0.25 9:-0.15625 10:-0.165049 11:0.0736842 12:-0.15625 13:-0.354839 14:-0.307692 15:-0.0434783 16:0.0338983 17:-0.0625 18:0.00970874 19:-0.0120482 20:-0.252033 21:0.2 22:0.262136 23:0.0444444 24:-0.248 25:-0.125 26:-0.0384615 27:-0.425287 28:-0.55 29:-0.107692 30:-0.00990099 31:-0.326316 32:-0.5 33:-0.125 34:0.0485437 35:-0.157895 36:-0.390625 
-0.014939166445741696 1:0.09375 2:-0.0545455 3:0.047619 4:-0.173554 5:-0.516129 6:-0.618182 7:0.136842 8:0.234375 9:-0.875 10:-0.902913 11:0.136842 12:0.296875 13:-0.0322581 14:0.0769231 15:-0.152174 16:-0.305085 17:0.0625 18:0.0873786 19:0.060241 20:-0.170732 21:-0.384615 22:-0.572816 23:0.2 24:0.248 25:-0.03125 26:0.0961538 27:-0.241379 28:-0.366667 29:0.107692 30:0.128713 31:-0.0105263 32:-0.328125 33:0.09375 34:-0.165049 35:0.0736842 36:0.015625 
-0.01705694480810822 1:0.09375 2:-0.218182 3:0.0714286 4:0.00826446 5:-0.483871 6:-0.727273 7:-0.0105263 8:0.3125 9:-0.8125 10:-0.864078 11:-0.0947368 12:0.1875 13:0.0967742 14:0.0961538 15:-0.0434783 16:-0.271186 17:-0.0625 18:-0.223301 19:0.0843373 20:-0.0243902 21:-0.569231 22:-0.68932 23:0.0444444 24:0.152 26:0.192308 27:-0.0574713 28:-0.3 29:0.0153846 30:0.148515 31:-0.157895 32:-0.265625 33:-0.25 34:-0.106796 35:-0.242105 36:-0.328125 
-0.15760513736579293 1:0.125 2:0.0545455 4:-0.239669 5:-0.0967742 6:-0.290909 7:0.178947 8:0.078125 9:-0.6875 10:-0.805825 11:0.0947368 12:0.3125 14:0.0769231 15:-0.0652174 16:-0.305085 17:-0.03125 18:0.165049 19:-0.0361446 20:-0.235772 21:-0.353846 22:-0.339806 23:0.2 24:0.184 25:0.09375 27:-0.172414 28:-0.383333 29:0.107692 30:0.108911 31:-0.0947368 32:-0.34375 33:0.09375 34:0.00970874 35:0.0526316 36:-0.15625 
-0.27348438262202079 1:0.21875 2:0.236364 3:-0.119048 4:-0.305785 6:-0.0909091 7:-0.0947368 8:-0.21875 9:-0.5 10:-0.708738 11:0.347368 12:0.421875 13:0.225806 14:0.173077 15:-0.0434783 16:-0.20339 17:0.1875 18:0.184466 19:-0.108434 20:-0.317073 21:-0.261538 22:-0.300971 23:0.133333 24:-0.024 25:0.125 26:0.115385 27:-0.149425 28:-0.3 29:0.261538 30:0.227723 31:-0.0736842 32:-0.265625 34:0.0485437 35:-0.0736842 36:-0.265625 
-0.0010053437780064218 1:0.21875 2:0.309091 3:0.142857 4:-0.173554 5:0.419355 6:0.309091 7:0.326316 8:-0.09375 9:0.375 10:0.398058 11:0.242105 12:-0.09375 13:-0.709677 14:-0.75 15:0.391304 16:0.372881 17:-0.28125 18:-0.223301 19:0.156627 20:-0.170732 21:0.323077 22:0.339806 23:0.2 24:-0.216 25:-0.8125 26:-0.865385 27:0.517241 28:0.616667 29:-0.6 30:-0.584158 31:0.263158 32:0.1875 33:-0.03125 34:-0.0291262 35:-0.0105263 36:-0.28125 
-0.019735925648816467 1:0.25 2:0.127273 3:-0.190476 4:-0.421488 5:0.290323 6:0.127273 7:-0.157895 8:-0.328125 9:0.25 10:0.126214 11:-0.157895 12:-0.390625 13:0.16129 14:0.230769 15:-0.0652174 16:-0.372881 17:-0.03125 18:0.00970874 19:-0.0361446 20:-0.349593 21:-0.107692 22:-0.203883 23:0.111111 24:-0.056 25:-0.40625 26:-0.403846 27:0.172414 28:0.1 29:-0.630769 30:-0.643564 31:0.326316 32:0.359375 33:-0.875 34:-0.864078 35:0.642105 36:0.5625 
-0.014498758313933385 1:0.375 2:0.163636 3:-0.047619 4:-0.322314 5:-0.0967742 6:-0.254545 7:0.0526316 8:-0.125 9:-0.6875 10:-0.76699 11:0.431579 12:0.609375 13:0.419355 14:0.384615 15:-0.0652174 16:-0.220339 17:0.09375 18:0.165049 19:-0.108434 20:-0.333333 21:-0.261538 22:-0.398058 23:0.2 24:0.136 25:0.3125 26:0.403846 27:0.0804598 28:-0.266667 29:0.323077 30:0.366337 31:0.136842 32:-0.1875 33:0.3125 34:0.417476 35:0.0526316 36:-0.125 
-0.38077949841321795 1:0.375 2:0.236364 3:0.047619 4:-0.322314 5:0.290323 6:0.163636 7:-0.136842 8:-0.359375 9:-0.03125 10:0.242718 11:-0.0315789 12:-0.296875 13:0.258065 14:0.307692 15:0.0217391 16:-0.288136 17:-0.03125 18:0.0873786 19:-0.0361446 20:-0.333333 21:-0.138462 22:-0.126214 23:0.0222222 24:-0.136 25:0.0625 27:-0.0114943 28:-0.216667 29:-0.169231 30:-0.287129 31:0.0526316 32:-0.015625 33:-0.5 34:-0.495146 35:0.221053 36:0.21875 
