svm_type c_svc
kernel_type polynomial
degree 3
gamma 1
coef0 1
nr_class 2
total_sv 660
rho -0.32554343815536435
label 0 1
nr_sv 391 269
SV
0.29991239863313451 1:-0.0625 2:0.272727 3:0.166667 4:-0.107438 5:-0.258065 6:-0.0545455 7:-0.178947 8:-0.3125 9:-0.28125 10:-0.0679612 11:-0.263158 12:-0.375 13:-0.0967742 14:0.519231 15:0.347826 16:0.0338983 17:-0.25 18:0.203883 19:0.0120482 20:-0.268293 21:-0.230769 22:-0.0291262 23:-0.288889 24:-0.248 25:-0.03125 26:0.634615 27:0.586207 28:0.0833333 29:-0.107692 30:0.425743 31:0.221053 32:-0.125 33:-0.25 34:0.0873786 35:-0.136842 36:-0.296875 
0.28884240011841406 1:-0.15625 2:0.0181818 3:-0.047619 4:-0.239669 5:-0.387097 6:-0.181818 7:-0.263158 8:-0.34375 9:-0.53125 10:-0.203883 11:-0.263158 12:-0.28125 13:-0.0322581 14:0.326923 15:0.108696 16:-0.0508475 17:-0.28125 18:0.00970874 19:-0.228916 20:-0.284553 21:-0.476923 22:-0.300971 23:-0.244444 24:-0.344 25:-0.40625 26:-0.115385 27:0.0114943 28:-0.25 29:-0.384615 30:-0.0891089 31:-0.0947368 32:-0.28125 33:-0.28125 34:-0.106796 35:-0.0947368 36:-0.28125 
1.7339204576326692 1:-0.1875 2:0.0181818 3:0.047619 4:-0.206612 5:-0.16129 6:0.0181818 7:-0.0315789 8:-0.1875 9:-0.1875 10:0.165049 11:0.136842 12:-0.0625 13:-0.129032 14:0.0961538 15:-0.130435 16:-0.152542 17:-0.15625 18:0.106796 19:-0.0120482 20:-0.203252 21:-0.384615 22:-0.0291262 23:-0.111111 24:-0.264 25:-0.28125 26:-0.0769231 27:0.0114943 28:-0.233333 29:-0.261538 30:0.029703 31:-0.263158 32:-0.203125 33:-0.375 34:-0.0679612 35:-0.178947 36:-0.203125 
0.11046082767819383 1:-0.1875 2:0.163636 3:0.142857 4:-0.206612 5:0.0967742 6:0.327273 7:0.221053 8:-0.015625 9:0.1875 10:0.669903 11:0.410526 12:0.046875 13:-0.129032 14:0.384615 15:0.130435 16:-0.101695 17:0.09375 18:0.650485 19:0.518072 20:0.0894309 21:0.230769 22:0.650485 23:0.644444 24:0.152 25:-0.0625 26:0.442308 27:0.402299 29:0.0769231 30:0.742574 31:0.452632 32:0.125 33:0.0625 34:0.708738 35:0.452632 36:0.125 
0.88019451661723336 1:-0.28125 2:-0.0545455 3:-0.238095 4:-0.256198 5:-0.483871 6:-0.345455 7:-0.284211 8:-0.359375 9:-0.40625 10:-0.223301 11:-0.284211 12:-0.296875 13:-0.387097 14:-0.115385 15:-0.130435 16:-0.288136 17:-0.28125 18:-0.106796 19:-0.108434 20:-0.333333 21:-0.384615 22:0.0485437 23:-0.0444444 24:-0.2 25:-0.28125 26:0.25 27:0.195402 28:-0.116667 29:-0.261538 30:0.287129 31:0.157895 32:-0.09375 33:-0.375 34:0.262136 35:0.263158 36:-0.046875 
0.082228396123946071 1:-0.28125 2:-0.127273 3:-0.0238095 4:-0.22314 5:-0.258065 6:-0.0545455 7:-0.263158 8:-0.203125 9:-0.375 10:-0.0679612 11:-0.178947 12:-0.203125 13:-0.354839 14:0.0384615 15:-0.195652 16:-0.220339 17:-0.125 18:0.203883 19:0.204819 20:-0.138211 21:-0.107692 22:0.378641 23:0.355556 24:-0.008 25:-0.25 26:0.230769 27:0.37931 28:-0.1 29:-0.230769 30:0.346535 31:0.326316 32:-0.078125 33:-0.125 34:0.475728 35:0.326316 36:-0.078125 
1.3861033112428394 1:-0.28125 2:0.163636 3:0.0714286 4:-0.123967 5:-0.387097 6:0.109091 7:0.0736842 8:-0.15625 9:-0.15625 10:0.106796 11:-0.0947368 12:-0.15625 13:-0.129032 14:0.25 15:0.0434783 16:-0.0338983 17:-0.375 18:0.106796 19:-0.0120482 20:-0.203252 21:-0.261538 22:-0.0679612 23:0.0444444 24:-0.184 25:-0.25 26:0.115385 27:0.126437 28:-0.183333 29:-0.353846 30:0.0693069 31:-0.157895 32:-0.265625 33:-0.375 34:0.0485437 35:-0.157895 36:-0.21875 
0.58456778567654455 1:-0.375 2:0.109091 3:0.0714286 4:-0.173554 5:-0.354839 6:-0.127273 7:-0.0947368 8:-0.15625 9:-0.28125 10:0.00970874 11:-0.0105263 12:-0.15625 13:-0.354839 14:-0.0384615 15:-0.195652 16:-0.220339 17:-0.25 18:0.0485437 19:-0.180723 20:-0.203252 21:-0.230769 22:0.126214 23:-0.0222222 24:-0.136 25:-0.25 26:0.230769 27:0.0804598 28:-0.216667 29:-0.107692 30:0.188119 31:-0.0315789 32:-0.1875 33:-0.375 34:0.0873786 35:-0.0315789 36:-0.1875 
0.62277551692725674 1:-0.46875 2:-0.163636 3:-0.190476 4:-0.289256 5:-0.580645 6:-0.163636 7:-0.157895 8:-0.265625 9:-0.59375 10:-0.106796 11:-0.157895 12:-0.21875 13:-0.225806 14:0.307692 15:0.195652 16:-0.0677966 17:-0.375 18:0.0873786 19:0.060241 20:-0.284553 21:-0.569231 22:-0.0679612 23:-0.177778 24:-0.28 25:-0.28125 26:0.153846 27:-0.0114943 28:-0.183333 29:-0.261538 30:0.188119 31:-0.0315789 32:-0.15625 33:-0.40625 34:0.0873786 35:-0.178947 36:-0.21875 
0.089639925201469642 1:-0.5 2:-0.0181818 3:-0.0238095 4:-0.239669 5:-0.612903 6:-0.163636 7:-0.0947368 8:-0.21875 9:-0.625 10:-0.242718 11:-0.242105 12:-0.328125 13:-0.451613 14:0.0961538 15:-0.130435 16:-0.271186 17:-0.46875 18:-0.0679612 19:-0.373494 20:-0.365854 21:-0.569231 22:-0.145631 23:-0.377778 24:-0.296 25:-0.375 26:0.288462 27:0.218391 28:-0.116667 29:-0.353846 30:0.0693069 31:-0.0736842 32:-0.265625 33:-0.46875 34:-0.106796 35:-0.157895 36:-0.265625 
0.059289926201995857 1:-0.6875 2:-0.0545455 3:-0.119048 4:-0.289256 5:-0.677419 6:-0.0545455 7:-0.178947 8:-0.265625 9:-0.6875 10:-0.145631 11:-0.326316 12:-0.3125 13:-0.677419 14:-0.0384615 15:-0.0217391 16:-0.220339 17:-0.59375 18:-0.0291262 19:-0.0843373 20:-0.268293 21:-0.661538 22:-0.106796 23:-0.111111 24:-0.248 25:-0.6875 26:-0.0769231 27:-0.0114943 28:-0.266667 29:-0.476923 30:-0.049505 31:-0.136842 32:-0.296875 33:-0.5 34:-0.203883 35:-0.305263 36:-0.40625 
0.60213965533727754 1:-0.6875 2:-0.127273 3:-0.047619 4:-0.256198 5:-0.483871 6:-0.127273 7:-0.136842 8:-0.296875 9:-0.5 10:-0.203883 11:-0.305263 12:-0.40625 13:-0.645161 14:-0.0769231 15:-0.217391 16:-0.288136 17:-0.53125 18:-0.126214 19:-0.204819 20:-0.398374 21:-0.507692 22:-0.203883 23:-0.311111 24:-0.328 25:-0.625 26:-0.153846 27:-0.287356 28:-0.333333 29:-0.6 30:-0.128713 31:-0.284211 32:-0.359375 33:-0.625 34:-0.145631 35:-0.368421 36:-0.359375 
0.20899344080114182 1:-0.6875 2:-0.363636 3:-0.47619 4:-0.421488 5:-0.580645 6:-0.236364 7:-0.326316 8:-0.265625 9:-0.46875 10:-0.0291262 11:-0.0736842 12:-0.265625 13:-0.580645 14:-0.153846 15:-0.26087 16:-0.305085 17:-0.59375 18:-0.203883 19:-0.349398 20:-0.414634 21:-0.476923 22:-0.145631 23:-0.355556 24:-0.28 25:-0.65625 26:-0.211538 27:-0.264368 28:-0.316667 29:-0.630769 30:-0.188119 31:-0.347368 32:-0.34375 33:-0.53125 34:-0.126214 35:-0.347368 36:-0.34375 
0.96529971542040316 1:0.09375 2:0.163636 3:0.261905 4:-0.0247934 5:0.129032 6:0.236364 7:0.136842 8:-0.09375 9:-0.15625 10:0.0873786 11:-0.0315789 12:-0.21875 13:-0.16129 14:0.0769231 15:-0.0652174 16:-0.186441 17:-0.1875 18:0.165049 19:0.156627 20:-0.105691 21:-0.0461538 22:0.339806 23:0.2 24:-0.04 25:-0.15625 26:0.0961538 27:0.0114943 28:-0.183333 29:-0.384615 30:-0.00990099 31:-0.157895 32:-0.28125 33:-0.40625 34:-0.106796 35:-0.0105263 36:-0.21875 
0.089431554126984752 1:0.09375 2:0.236364 3:0.142857 4:-0.107438 5:-0.129032 6:0.0181818 7:-0.0315789 8:-0.21875 9:-0.40625 10:-0.126214 11:-0.263158 12:-0.34375 13:-0.16129 14:0.153846 15:0.108696 16:-0.0508475 17:-0.0625 18:0.339806 19:0.156627 20:-0.105691 21:-0.261538 22:0.00970874 23:-0.155556 24:-0.216 25:-0.40625 26:-0.0384615 27:-0.149425 28:-0.316667 29:-0.384615 30:-0.0891089 31:-0.0105263 32:-0.21875 33:-0.40625 34:-0.106796 35:-0.0947368 36:-0.28125 
0.2099209058000461 1:0.09375 2:0.236364 3:0.142857 4:-0.107438 6:0.236364 7:0.136842 8:-0.09375 9:0.09375 10:0.242718 11:0.242105 12:-0.015625 13:-0.16129 14:0.153846 15:0.0217391 16:-0.118644 17:-0.1875 18:0.0873786 19:0.060241 20:-0.235772 21:-0.169231 22:0.0873786 23:0.0222222 24:-0.168 25:-0.40625 26:0.173077 27:0.103448 28:-0.183333 29:-0.138462 30:0.128713 31:-0.0947368 32:-0.15625 33:-0.15625 34:0.106796 35:-0.0105263 36:-0.15625 
0.22286906409990151 1:0.375 2:0.545455 3:0.571429 4:0.0413223 6:0.0181818 7:-0.0315789 8:-0.125 9:-0.25 10:0.00970874 11:-0.0315789 12:-0.1875 13:0.419355 14:0.461538 15:0.413043 17:-0.03125 18:0.00970874 19:-0.0361446 20:-0.268293 21:-0.261538 22:-0.0679612 23:0.0222222 24:-0.136 25:0.1875 26:0.326923 27:0.356322 28:0.0333333 29:0.323077 30:0.267327 31:0.0526316 32:-0.0625 33:-0.1875 34:-0.145631 35:-0.284211 36:-0.234375 
0.38158499173145771 1:0.625 2:0.618182 3:0.833333 4:0.157025 5:0.419355 6:0.545455 7:0.515789 8:0.046875 9:-0.03125 10:0.0873786 11:-0.0315789 12:-0.125 13:0.419355 14:0.615385 15:0.630435 16:0.135593 17:0.375 18:0.475728 19:0.493976 20:-0.0569106 21:-0.0153846 22:0.00970874 23:0.0222222 24:-0.2 25:0.0625 26:0.0769231 27:0.172414 28:-0.0333333 29:0.2 30:0.366337 31:0.305263 32:0.046875 33:0.3125 34:0.242718 35:0.0526316 36:-0.0625 
0.18857618518693883 1:-0.0625 2:0.0181818 3:-0.333333 4:-0.454545 5:-0.16129 6:-0.0545455 7:-0.284211 8:-0.46875 9:-0.1875 10:0.00970874 11:-0.2 12:-0.421875 13:-0.129032 14:0.0384615 15:-0.282609 16:-0.474576 17:-0.28125 18:-0.0291262 19:-0.277108 20:-0.382114 21:-0.261538 22:-0.106796 23:0.0444444 24:-0.136 25:-0.46875 26:-0.307692 27:0.0114943 28:-0.0666667 29:-0.569231 30:-0.564356 31:0.263158 32:0.234375 33:-0.78125 34:-0.747573 35:0.452632 36:0.453125 
0.23805900826108822 1:-0.25 2:-0.163636 4:-0.173554 5:-0.451613 6:-0.490909 7:0.0105263 8:0.078125 9:-0.46875 10:-0.456311 11:0.284211 12:0.140625 13:-0.225806 14:-0.0769231 15:-0.26087 16:-0.237288 17:-0.125 18:-0.0679612 19:-0.349398 20:-0.414634 21:-0.0153846 22:-0.0679612 23:-0.266667 24:-0.456 25:-0.15625 26:-0.134615 27:-0.448276 28:-0.6 29:-0.138462 30:-0.188119 31:-0.431579 32:-0.609375 33:-0.15625 34:-0.126214 35:-0.578947 36:-0.609375 
0.73765923872061856 1:-0.25 2:-0.236364 4:-0.107438 5:-0.0967742 6:-0.0909091 7:-0.157895 8:-0.21875 9:-0.25 10:-0.106796 11:0.0105263 12:-0.15625 13:-0.0967742 15:0.0217391 16:-0.186441 17:-0.125 18:-0.0679612 19:-0.0361446 20:-0.284553 21:-0.230769 22:-0.0679612 23:-0.177778 24:-0.216 25:-0.28125 26:-0.211538 27:-0.172414 28:-0.383333 29:-0.138462 30:-0.049505 31:-0.431579 32:-0.484375 33:-0.15625 34:-0.126214 35:-0.431579 36:-0.546875 
0.00017331261014552526 1:-0.46875 2:-0.6 3:0.404762 4:0.322314 5:-0.774194 6:-0.927273 7:0.705263 8:0.765625 9:-0.875 10:-0.92233 11:0.705263 12:0.765625 13:-0.0967742 14:-0.211538 15:0.0217391 16:-0.118644 17:-0.6875 18:-0.76699 19:0.493976 20:0.593496 21:-0.876923 22:-0.961165 23:0.844444 24:0.824 25:0.09375 26:0.153846 27:-0.0804598 28:-0.316667 29:-0.261538 30:-0.386139 31:0.136842 32:0.109375 33:-0.75 34:-0.864078 35:0.642105 36:0.6875 
1.2041615979324489 1:0.21875 2:0.236364 3:-0.119048 4:-0.305785 6:-0.0909091 7:-0.0947368 8:-0.21875 9:-0.5 10:-0.708738 11:0.347368 12:0.421875 13:0.225806 14:0.173077 15:-0.0434783 16:-0.20339 17:0.1875 18:0.184466 19:-0.108434 20:-0.317073 21:-0.261538 22:-0.300971 23:0.133333 24:-0.024 25:0.125 26:0.115385 27:-0.149425 28:-0.3 29:0.261538 30:0.227723 31:-0.0736842 32:-0.265625 34:0.0485437 35:-0.0736842 36:-0.265625 
0.012401816821744462 1:0.25 2:0.127273 3:-0.190476 4:-0.421488 5:0.290323 6:0.127273 7:-0.157895 8:-0.328125 9:0.25 10:0.126214 11:-0.157895 12:-0.390625 13:0.16129 14:0.230769 15:-0.0652174 16:-0.372881 17:-0.03125 18:0.00970874 19:-0.0361446 20:-0.349593 21:-0.107692 22:-0.203883 23:0.111111 24:-0.056 25:-0.40625 26:-0.403846 27:0.172414 28:0.1 29:-0.630769 30:-0.643564 31:0.326316 32:0.359375 33:-0.875 34:-0.864078 35:0.642105 36:0.5625 
0.55458865870871588 1:-0.15625 2:0.0363636 3:-0.309524 4:-0.471074 5:0.225806 6:0.272727 7:-0.0105263 8:-0.265625 9:0.3125 10:0.456311 11:0.157895 12:-0.203125 13:0.548387 14:0.615385 15:0.26087 16:-0.0169492 17:0.625 18:0.631068 19:0.325301 20:-0.0731707 21:0.507692 22:0.456311 23:0.444444 24:-0.072 25:0.5 26:0.538462 27:0.37931 28:-0.1 29:0.507692 30:0.683168 31:0.515789 32:-0.015625 33:0.5 34:0.553398 35:0.326316 36:-0.015625 
0.84438561860576566 1:-0.25 2:-0.127273 3:-0.166667 4:-0.256198 6:0.0909091 7:0.0526316 8:-0.1875 9:0.25 10:0.398058 11:0.221053 12:-0.078125 13:0.129032 14:0.384615 15:0.217391 16:-0.152542 17:0.09375 18:0.553398 19:0.373494 20:-0.0569106 21:0.107692 22:0.475728 23:0.4 24:0.072 25:0.1875 26:0.576923 27:0.356322 28:-0.0333333 29:0.0769231 30:0.445545 31:0.305263 32:-0.015625 33:-0.0625 34:0.417476 35:0.305263 36:-0.015625 
0.066190577609994972 1:-0.25 2:-0.236364 4:-0.107438 5:0.0322581 6:-0.0181818 7:0.0947368 8:-0.09375 9:0.25 10:0.300971 11:0.284211 12:-0.03125 13:0.290323 14:0.384615 15:0.195652 16:-0.0677966 17:0.375 18:0.553398 19:0.493976 20:0.00813008 21:0.384615 22:0.650485 23:0.511111 24:0.072 25:0.09375 26:0.461538 27:0.37931 28:0.0333333 29:0.107692 30:0.425743 31:0.242105 32:0.046875 33:0.09375 34:0.398058 35:0.326316 36:-0.015625 
0.18608949707341857 1:0.0625 2:0.181818 3:0.0714286 4:-0.289256 5:0.354839 6:0.363636 7:0.263158 8:-0.15625 9:0.40625 10:0.456311 11:0.263158 12:-0.15625 13:-0.225806 14:-0.115385 15:0.152174 16:-0.152542 17:0.375 18:0.456311 19:0.204819 20:-0.203252 21:0.507692 22:0.631068 23:0.355556 24:-0.008 25:-0.6875 26:-0.538462 27:0.37931 28:0.15 29:-0.0153846 30:0.188119 31:0.136842 32:-0.1875 33:0.5 34:0.475728 35:0.221053 36:-0.078125 
0.15893560411167776 1:0.09375 2:-0.0545455 3:-0.047619 4:-0.239669 5:0.129032 6:0.0181818 7:-0.0315789 8:-0.21875 9:0.375 10:0.398058 11:0.136842 12:-0.15625 13:0.354839 14:0.326923 15:0.108696 16:-0.186441 17:0.3125 18:0.339806 19:0.156627 20:-0.170732 21:0.323077 22:0.417476 23:0.2 24:-0.104 25:0.34375 26:0.307692 27:0.103448 28:-0.25 29:0.353846 30:0.425743 31:0.157895 32:-0.15625 33:0.46875 34:0.398058 35:0.157895 36:-0.15625 
0.087715583140174358 1:0.125 2:0.236364 3:0.142857 4:-0.206612 5:0.419355 6:0.381818 7:0.136842 8:-0.125 9:0.375 10:0.475728 11:0.221053 12:-0.125 13:0.129032 14:0.0769231 15:-0.0652174 16:-0.152542 17:0.21875 18:0.398058 19:0.156627 20:-0.203252 21:0.384615 22:0.398058 23:0.4 24:-0.072 25:-0.8125 26:-0.865385 27:0.586207 28:0.516667 29:-0.692308 30:-0.742574 31:0.410526 32:0.328125 33:-0.28125 34:-0.223301 35:0.136842 36:-0.125 
2.7736535739229051 1:0.125 2:0.290909 3:0.0952381 4:-0.239669 5:0.16129 6:0.127273 7:-0.0736842 8:-0.328125 10:0.0485437 11:-0.242105 12:-0.4375 13:0.290323 14:0.384615 15:0.108696 16:-0.186441 17:0.25 18:0.398058 19:0.156627 20:-0.284553 21:0.138462 22:0.242718 23:0.0222222 24:-0.28 25:0.09375 26:0.384615 27:0.0804598 28:-0.25 29:0.230769 30:0.425743 31:0.136842 32:-0.15625 33:0.21875 34:0.398058 35:0.242105 36:-0.15625 
10 1:0.125 2:0.363636 3:0.0952381 4:-0.239669 5:0.290323 6:0.290909 7:0.0947368 8:-0.21875 9:0.25 10:0.378641 11:0.0947368 12:-0.21875 13:0.419355 14:0.384615 15:0.108696 16:-0.237288 17:0.25 18:0.320388 19:0.060241 20:-0.284553 21:0.261538 22:0.398058 23:0.2 24:-0.216 25:0.375 26:0.461538 27:0.172414 28:-0.183333 29:0.384615 30:0.425743 31:0.0526316 32:-0.21875 33:0.21875 34:0.398058 35:0.136842 36:-0.21875 
0.68340602037543829 1:0.125 2:0.363636 3:0.190476 4:-0.107438 5:0.290323 6:0.290909 7:0.178947 8:-0.21875 9:0.125 10:0.300971 11:0.0947368 12:-0.265625 13:0.290323 14:0.634615 15:0.413043 16:-0.0677966 17:0.25 18:0.553398 19:0.373494 20:-0.170732 21:0.261538 22:0.320388 23:0.111111 24:-0.216 25:0.21875 26:0.461538 27:0.172414 28:-0.183333 29:0.230769 30:0.50495 31:0.136842 32:-0.21875 33:0.21875 34:0.320388 35:0.0526316 36:-0.21875 
1.7808729745161207 1:0.1875 2:0.0363636 3:-0.119048 4:-0.404959 5:0.225806 6:0.109091 7:-0.0105263 8:-0.203125 9:0.0625 10:0.184466 11:-0.0105263 12:-0.15625 13:0.290323 14:0.288462 15:-0.0217391 16:-0.271186 17:0.25 18:0.378641 19:0.0120482 20:-0.203252 21:0.384615 22:0.378641 23:0.155556 24:-0.136 25:0.125 26:0.230769 27:-0.126437 28:-0.266667 29:0.138462 30:0.267327 31:0.0526316 32:-0.234375 33:0.25 34:0.320388 35:0.0526316 36:-0.234375 
1.6693281764089833 1:0.1875 2:0.109091 3:-0.0238095 4:-0.173554 5:0.580645 6:0.436364 7:0.347368 8:0.015625 9:0.40625 10:0.533981 11:0.347368 12:0.015625 13:0.16129 14:0.192308 15:0.0652174 16:-0.0847458 17:0.375 18:0.533981 19:0.325301 20:-0.0243902 21:0.138462 22:0.456311 23:0.355556 24:-0.008 25:0.125 26:0.307692 27:0.37931 28:-0.1 29:0.261538 30:0.584158 31:0.431579 32:0.046875 33:-0.03125 34:0.398058 35:0.221053 36:-0.078125 
4.7874161587947253 1:0.1875 2:0.109091 3:-0.0238095 4:-0.22314 5:0.0967742 6:0.109091 7:-0.0105263 8:-0.15625 9:0.0625 10:0.106796 11:0.0736842 12:-0.15625 13:0.290323 14:0.365385 15:-0.0217391 16:-0.152542 17:0.375 18:0.378641 19:0.108434 20:-0.203252 21:0.261538 22:0.378641 23:0.244444 24:-0.136 25:0.125 26:0.230769 27:0.0804598 28:-0.266667 29:0.261538 30:0.346535 31:0.0526316 32:-0.234375 33:0.25 34:0.398058 35:0.136842 36:-0.1875 
0.16947696315284824 1:0.1875 2:0.163636 3:-0.047619 4:-0.256198 5:0.354839 6:0.4 7:0.305263 8:-0.125 9:0.4375 10:0.669903 11:0.621053 12:0.046875 13:0.387097 14:0.384615 15:0.130435 16:-0.101695 17:0.46875 18:0.650485 19:0.39759 20:-0.0243902 21:0.630769 22:0.747573 23:0.644444 24:0.152 25:0.40625 26:0.519231 27:0.402299 28:-0.0666667 29:0.661538 30:0.841584 31:0.452632 32:0.0625 33:0.65625 34:0.708738 35:0.557895 36:0.0625 
0.00042009882667174813 1:0.1875 2:0.163636 3:0.047619 4:-0.322314 5:0.354839 6:0.163636 7:0.136842 8:-0.1875 9:0.3125 10:0.339806 11:0.136842 12:-0.1875 13:0.258065 14:0.307692 15:-0.0434783 16:-0.220339 17:0.21875 18:0.398058 19:0.180723 20:-0.203252 21:0.353846 22:0.475728 23:0.222222 24:-0.136 25:0.40625 26:0.346154 27:0.310345 28:-0.233333 29:0.323077 30:0.485149 31:0.263158 32:-0.15625 33:0.40625 34:0.533981 35:0.263158 36:-0.15625 
10 1:0.1875 2:0.181818 3:-0.0238095 4:-0.289256 5:0.225806 6:0.181818 7:0.0736842 8:-0.265625 9:0.1875 10:0.262136 11:-0.0105263 12:-0.265625 13:0.290323 14:0.288462 15:-0.0217391 16:-0.271186 17:0.25 18:0.300971 19:0.108434 20:-0.268293 21:0.261538 22:0.378641 23:-0.0222222 24:-0.248 25:0.375 26:0.384615 27:0.264368 28:-0.216667 29:0.261538 30:0.346535 31:0.0526316 32:-0.1875 33:0.375 34:0.320388 35:0.0526316 36:-0.125 
10 1:0.1875 2:0.181818 3:0.0714286 4:-0.22314 5:0.225806 6:0.181818 7:-0.0105263 8:-0.265625 9:0.1875 10:0.262136 11:0.0736842 12:-0.265625 13:0.290323 14:0.365385 15:-0.0217391 16:-0.271186 17:0.25 18:0.300971 19:0.0120482 20:-0.317073 21:0.261538 22:0.300971 23:0.155556 24:-0.2 25:0.375 26:0.384615 27:0.264368 28:-0.216667 29:0.384615 30:0.425743 31:0.221053 32:-0.1875 33:0.25 34:0.320388 35:0.0526316 36:-0.1875 
6.3055141038472238 1:0.1875 2:0.181818 3:0.0714286 4:-0.289256 5:0.225806 6:0.181818 7:-0.0105263 8:-0.265625 9:0.3125 10:0.359223 11:-0.0105263 12:-0.203125 13:0.290323 14:0.288462 15:0.0652174 16:-0.220339 17:0.25 18:0.378641 19:-0.0843373 20:-0.317073 21:0.384615 22:0.300971 23:0.0666667 24:-0.2 25:0.25 26:0.307692 27:0.0804598 28:-0.216667 29:0.384615 30:0.346535 31:0.0526316 32:-0.125 33:0.375 34:0.475728 35:0.221053 36:-0.015625 
0.35371947325191999 1:0.1875 2:0.254545 3:0.142857 4:-0.206612 5:0.354839 6:0.327273 7:0.136842 8:-0.1875 9:0.3125 10:0.417476 11:0.136842 12:-0.125 13:0.129032 14:0.230769 15:0.0434783 16:-0.220339 17:0.21875 18:0.398058 19:0.180723 20:-0.203252 21:0.353846 22:0.398058 23:0.222222 24:-0.136 25:0.1875 26:0.25 27:0.195402 28:-0.233333 29:0.323077 30:0.386139 31:0.157895 32:-0.09375 33:0.3125 34:0.359223 35:0.157895 36:-0.15625 
1.4004006215180635 1:0.1875 2:0.272727 3:-0.0238095 4:-0.289256 5:0.354839 6:0.363636 7:0.157895 8:-0.203125 9:0.40625 10:0.533981 11:0.263158 12:-0.15625 13:0.677419 14:0.615385 15:0.26087 16:-0.0169492 17:0.5 18:0.456311 19:0.421687 20:-0.138211 21:0.384615 22:0.533981 23:0.444444 24:-0.008 25:0.5 26:0.634615 27:0.586207 28:-0.0333333 29:0.507692 30:0.584158 31:0.326316 32:-0.015625 33:0.5 34:0.553398 35:0.326316 36:-0.078125 
10 1:0.1875 2:0.363636 3:0.285714 4:-0.173554 5:0.354839 6:0.363636 7:0.157895 8:-0.15625 9:0.3125 10:0.456311 11:0.0736842 12:-0.203125 13:0.290323 14:0.365385 15:0.0652174 16:-0.220339 17:0.25 18:0.378641 19:0.108434 20:-0.268293 21:0.261538 22:0.378641 23:0.0666667 24:-0.2 25:0.25 26:0.307692 27:0.0804598 28:-0.266667 29:0.261538 30:0.425743 31:0.136842 32:-0.234375 33:0.25 34:0.320388 35:0.0526316 36:-0.234375 
1.9746724024833784 1:0.21875 2:0.236364 3:-0.0238095 4:-0.239669 5:0.258065 6:0.309091 7:0.157895 8:-0.15625 9:0.34375 10:0.475728 11:0.157895 12:-0.15625 13:0.451613 14:0.346154 15:0.23913 16:-0.20339 17:0.3125 18:0.456311 19:0.301205 20:-0.203252 21:0.415385 22:0.533981 23:0.333333 24:-0.136 25:0.625 26:0.519231 27:0.218391 28:-0.116667 29:0.630769 30:0.564356 31:0.178947 32:-0.15625 33:0.5 34:0.533981 35:0.178947 36:-0.09375 
10 1:0.21875 2:0.236364 3:-0.0238095 4:-0.305785 5:0.387097 6:0.236364 7:-0.0105263 8:-0.21875 9:0.34375 10:0.320388 11:0.157895 12:-0.15625 13:0.225806 14:0.25 15:-0.0434783 16:-0.271186 17:0.1875 18:0.262136 19:0.0843373 20:-0.317073 21:0.2 22:0.262136 23:0.0444444 24:-0.248 25:0.25 26:0.288462 27:0.0344828 28:-0.3 29:0.261538 30:0.326733 31:0.0947368 32:-0.21875 33:0.25 34:0.378641 35:-0.0736842 36:-0.265625 
10 1:0.21875 2:0.236364 3:0.047619 4:-0.239669 5:0.258065 6:0.309091 7:0.0526316 8:-0.15625 9:0.21875 10:0.320388 11:0.0526316 12:-0.15625 13:0.354839 14:0.326923 15:0.0217391 16:-0.186441 17:0.4375 18:0.339806 19:0.156627 20:-0.235772 21:0.323077 22:0.339806 23:0.111111 24:-0.168 25:0.34375 26:0.307692 27:0.103448 28:-0.25 29:0.230769 30:0.425743 31:-0.0105263 32:-0.21875 33:0.21875 34:0.398058 35:0.157895 36:-0.15625 
10 1:0.21875 2:0.236364 3:0.0714286 4:-0.239669 5:0.387097 6:0.236364 7:-0.0947368 8:-0.28125 9:0.34375 10:0.242718 11:-0.0105263 12:-0.328125 13:0.225806 14:0.442308 15:0.130435 16:-0.20339 17:0.1875 18:0.359223 19:0.0843373 20:-0.252033 21:0.323077 22:0.262136 23:-0.0444444 24:-0.248 25:0.25 26:0.365385 27:0.126437 28:-0.3 29:0.384615 30:0.326733 31:0.0105263 32:-0.265625 33:0.25 34:0.300971 35:-0.0736842 36:-0.328125 
10 1:0.21875 2:0.309091 3:0.047619 4:-0.173554 5:0.258065 6:0.236364 7:0.0526316 8:-0.15625 9:0.21875 10:0.242718 11:0.136842 12:-0.21875 13:0.483871 14:0.326923 15:0.108696 16:-0.186441 17:0.3125 18:0.339806 19:0.060241 20:-0.235772 21:0.323077 22:0.417476 23:0.2 24:-0.216 25:0.21875 26:0.384615 27:0.0114943 28:-0.25 29:0.230769 30:0.425743 31:0.157895 32:-0.15625 33:0.34375 34:0.320388 35:0.157895 36:-0.15625 
4.8628071541139475 1:0.21875 2:0.309091 3:0.047619 4:-0.239669 5:0.548387 6:0.236364 7:0.0526316 8:-0.21875 9:0.5 10:0.320388 11:0.0526316 12:-0.15625 13:0.483871 14:0.480769 15:0.195652 16:-0.0508475 17:0.4375 18:0.495146 19:0.156627 20:-0.170732 21:0.323077 22:0.417476 23:0.111111 24:-0.104 25:0.46875 26:0.461538 27:0.310345 28:-0.133333 29:0.353846 30:0.50495 31:0.157895 32:-0.109375 33:0.34375 34:0.475728 35:0.263158 36:-0.15625 
10 1:0.21875 2:0.309091 3:0.142857 4:-0.173554 5:0.258065 6:0.309091 7:0.242105 8:-0.15625 9:0.21875 10:0.242718 11:-0.0315789 12:-0.28125 13:0.354839 14:0.403846 15:0.108696 16:-0.186441 17:0.3125 18:0.417476 19:0.156627 20:-0.170732 21:0.323077 22:0.417476 23:0.2 24:-0.104 25:0.21875 26:0.384615 27:0.195402 28:-0.183333 29:0.353846 30:0.425743 31:0.157895 32:-0.15625 33:0.21875 34:0.398058 35:0.157895 36:-0.15625 
10 1:0.21875 2:0.309091 3:0.166667 4:-0.173554 5:0.258065 6:0.236364 7:0.0736842 8:-0.21875 9:0.34375 10:0.320388 11:-0.0947368 12:-0.28125 13:0.354839 14:0.442308 15:0.0434783 16:-0.20339 17:0.1875 18:0.456311 19:0.180723 20:-0.252033 21:0.2 22:0.359223 23:0.133333 24:-0.184 25:0.25 26:0.365385 27:0.0344828 28:-0.25 29:0.261538 30:0.405941 31:0.0947368 32:-0.265625 33:0.375 34:0.300971 35:0.0105263 36:-0.265625 
1.9353546808593931 1:0.21875 2:0.381818 3:0.047619 4:-0.239669 5:0.419355 6:0.309091 7:0.0526316 8:-0.21875 9:0.375 10:0.398058 11:0.136842 12:-0.21875 13:0.354839 14:0.326923 15:-0.0652174 16:-0.186441 17:0.3125 18:0.339806 19:0.060241 20:-0.284553 21:0.323077 22:0.339806 23:0.111111 24:-0.216 25:0.625 26:0.461538 27:0.310345 28:-0.0666667 29:0.353846 30:0.346535 31:0.157895 32:-0.21875 33:0.34375 34:0.320388 35:0.0736842 36:-0.21875 
10 1:0.21875 2:0.381818 3:0.142857 4:-0.173554 5:0.258065 6:0.381818 7:0.136842 8:-0.21875 9:0.21875 10:0.320388 11:0.0526316 12:-0.21875 13:0.354839 14:0.480769 15:0.195652 16:-0.118644 17:0.3125 18:0.417476 19:0.253012 20:-0.170732 21:0.2 22:0.339806 23:0.0222222 24:-0.216 25:0.21875 26:0.384615 27:0.195402 28:-0.183333 29:0.230769 30:0.346535 31:0.0736842 32:-0.21875 33:0.34375 34:0.320388 35:-0.0947368 36:-0.28125 
5.1405771022857447 1:0.21875 2:0.381818 3:0.285714 4:-0.173554 5:0.258065 6:0.309091 7:0.157895 8:-0.15625 9:0.34375 10:0.475728 11:0.347368 12:-0.109375 13:0.225806 14:0.442308 15:0.23913 16:-0.152542 17:0.1875 18:0.456311 19:0.301205 20:-0.203252 21:0.323077 22:0.456311 23:0.222222 24:-0.136 25:0.125 26:0.442308 27:0.126437 28:-0.25 29:0.261538 30:0.405941 31:0.0947368 32:-0.21875 33:0.25 34:0.378641 35:0.0947368 36:-0.21875 
0.10167981181486607 1:0.25 2:0.127273 3:-0.0952381 4:-0.355372 5:0.290323 6:0.127273 7:-0.0736842 8:-0.265625 9:0.25 10:0.378641 11:0.0105263 12:-0.21875 13:0.419355 14:0.461538 15:0.304348 16:-0.186441 17:0.375 18:0.398058 19:0.156627 20:-0.170732 21:0.384615 22:0.475728 23:0.288889 24:-0.168 25:0.5 26:0.461538 27:0.172414 28:-0.183333 29:0.507692 30:0.50495 31:0.136842 32:-0.09375 33:0.5 34:0.475728 35:0.242105 36:-0.15625 
3.359993911976614 1:0.25 2:0.163636 3:-0.047619 4:-0.256198 5:0.290323 6:0.236364 7:0.0526316 8:-0.234375 9:0.25 10:0.320388 11:0.0526316 12:-0.234375 13:0.548387 14:0.461538 15:0.108696 16:-0.152542 17:0.375 18:0.320388 19:0.060241 20:-0.268293 21:0.230769 22:0.398058 23:0.0222222 24:-0.2 25:0.4375 26:0.326923 27:0.264368 28:-0.216667 29:0.446154 30:0.524752 31:0.221053 32:-0.1875 33:0.4375 34:0.339806 35:0.136842 36:-0.1875 
10 1:0.25 2:0.218182 3:-0.0952381 4:-0.289256 5:0.290323 6:0.218182 7:0.0105263 8:-0.21875 9:0.375 10:0.378641 11:0.0947368 12:-0.15625 13:0.290323 14:0.307692 15:-0.0652174 16:-0.305085 17:0.375 18:0.320388 19:0.060241 20:-0.235772 21:0.507692 22:0.398058 23:0.2 24:-0.168 25:0.21875 26:0.307692 27:0.0804598 28:-0.25 29:0.230769 30:0.346535 31:0.0526316 32:-0.21875 33:0.375 34:0.320388 35:-0.0315789 36:-0.21875 
1.1919987659789026 1:0.25 2:0.218182 4:-0.289256 5:0.290323 6:0.363636 7:0.0947368 8:-0.21875 9:0.125 10:0.456311 11:0.0947368 12:-0.21875 13:0.16129 14:0.384615 15:0.108696 16:-0.186441 17:0.125 18:0.398058 19:0.253012 20:-0.170732 21:0.138462 22:0.475728 23:0.511111 24:-0.056 25:0.375 26:0.461538 27:0.172414 28:-0.25 29:0.230769 30:0.584158 31:0.242105 32:-0.09375 33:0.21875 34:0.553398 35:0.242105 36:-0.09375 
10 1:0.25 2:0.236364 3:0.047619 4:-0.256198 5:0.290323 6:0.163636 7:-0.0315789 8:-0.296875 9:0.25 10:0.320388 11:0.0526316 12:-0.1875 13:0.258065 14:0.384615 15:-0.0652174 16:-0.220339 17:0.21875 18:0.242718 19:-0.0361446 20:-0.268293 21:0.384615 22:0.320388 23:0.111111 24:-0.2 25:0.4375 26:0.326923 27:0.172414 28:-0.216667 29:0.323077 30:0.366337 31:0.0526316 32:-0.234375 33:0.3125 34:0.339806 35:0.0526316 36:-0.1875 
10 1:0.25 2:0.236364 3:0.047619 4:-0.256198 5:0.290323 6:0.309091 7:0.0526316 8:-0.296875 9:0.375 10:0.320388 11:0.0526316 12:-0.234375 13:0.419355 14:0.307692 15:0.108696 16:-0.220339 17:0.375 18:0.398058 19:0.060241 20:-0.333333 21:0.230769 22:0.398058 23:0.111111 24:-0.264 25:0.3125 26:0.403846 27:0.0804598 28:-0.216667 29:0.323077 30:0.445545 31:-0.0315789 32:-0.234375 33:0.1875 34:0.339806 35:0.0526316 36:-0.1875 
10 1:0.25 2:0.290909 4:-0.239669 5:0.290323 6:0.290909 7:0.0947368 8:-0.265625 9:0.375 10:0.300971 11:0.0105263 12:-0.265625 13:0.290323 14:0.307692 15:0.0217391 16:-0.237288 17:0.25 18:0.398058 19:0.060241 20:-0.349593 21:0.384615 22:0.320388 23:0.111111 24:-0.216 25:0.375 26:0.307692 27:0.172414 28:-0.25 29:0.384615 30:0.425743 31:0.0526316 32:-0.28125 33:0.21875 34:0.398058 35:0.0526316 36:-0.28125 
10 1:0.25 2:0.309091 3:0.142857 4:-0.206612 5:0.290323 6:0.309091 7:0.136842 8:-0.1875 9:0.25 10:0.398058 11:0.136842 12:-0.234375 13:0.258065 14:0.307692 15:0.108696 16:-0.220339 17:0.09375 18:0.398058 19:0.060241 20:-0.268293 21:0.230769 22:0.398058 23:0.2 24:-0.136 25:0.0625 26:0.230769 27:0.0804598 28:-0.266667 29:0.2 30:0.366337 31:0.136842 32:-0.1875 33:0.3125 34:0.417476 35:0.136842 36:-0.1875 
2.6728244224776927 1:0.25 2:0.309091 3:0.142857 4:-0.206612 5:0.419355 6:0.381818 7:0.136842 8:-0.1875 9:0.375 10:0.475728 11:0.136842 12:-0.125 13:0.419355 14:0.384615 15:0.108696 16:-0.220339 17:0.5 18:0.398058 19:0.277108 20:-0.203252 21:0.384615 22:0.475728 23:0.111111 24:-0.136 25:0.5625 26:0.403846 27:0.264368 28:-0.15 29:0.446154 30:0.524752 31:0.136842 32:-0.1875 33:0.4375 34:0.417476 35:0.221053 36:-0.125 
2.3832994659702722 1:0.25 2:0.309091 3:0.142857 4:-0.256198 5:0.16129 6:0.163636 7:-0.0315789 8:-0.296875 9:-0.03125 10:0.00970874 11:-0.305263 12:-0.46875 13:0.258065 14:0.384615 15:0.108696 16:-0.152542 17:0.21875 18:0.398058 19:0.277108 20:-0.203252 21:0.230769 22:0.242718 23:0.0222222 24:-0.264 25:0.3125 26:0.403846 27:0.172414 28:-0.216667 29:0.323077 30:0.445545 31:0.136842 32:-0.125 33:0.3125 34:0.417476 35:0.136842 36:-0.125 
10 1:0.25 2:0.309091 3:0.142857 4:-0.256198 5:0.290323 6:0.236364 7:0.0526316 8:-0.234375 9:0.25 10:0.398058 11:0.0526316 12:-0.296875 13:0.258065 14:0.384615 15:0.108696 16:-0.220339 17:0.375 18:0.320388 19:0.156627 20:-0.268293 21:0.384615 22:0.398058 23:0.111111 24:-0.264 25:0.3125 26:0.403846 27:0.172414 28:-0.216667 29:0.323077 30:0.445545 31:0.0526316 32:-0.1875 33:0.3125 34:0.417476 35:-0.0315789 36:-0.234375 
1.79264485109907 1:0.25 2:0.309091 3:0.238095 4:-0.140496 5:0.419355 6:0.381818 7:0.221053 8:-0.125 9:0.25 10:0.398058 11:0.136842 12:-0.1875 13:0.419355 14:0.538462 15:0.304348 16:-0.0847458 17:0.21875 18:0.553398 19:0.156627 20:-0.138211 21:0.384615 22:0.398058 23:0.2 24:-0.136 25:0.3125 26:0.480769 27:0.356322 28:-0.0833333 29:0.323077 30:0.524752 31:0.305263 32:-0.0625 33:0.3125 34:0.417476 35:0.136842 36:-0.0625 
10 1:0.25 2:0.363636 3:0.0952381 4:-0.239669 5:0.419355 6:0.218182 7:0.0947368 8:-0.21875 9:0.25 10:0.300971 11:0.0105263 12:-0.265625 13:0.419355 14:0.384615 15:0.108696 16:-0.237288 17:0.375 18:0.398058 19:0.156627 20:-0.235772 21:0.138462 22:0.398058 23:0.2 24:-0.168 25:0.375 26:0.384615 27:0.172414 28:-0.25 29:0.384615 30:0.425743 31:0.136842 32:-0.21875 33:0.375 34:0.475728 35:0.136842 36:-0.21875 
1.5786767118272906 1:0.25 2:0.545455 3:0.47619 4:-0.0909091 5:0.290323 6:0.454545 7:0.326316 8:-0.125 9:0.25 10:0.320388 11:0.0526316 12:-0.234375 13:0.258065 14:0.461538 15:0.108696 16:-0.152542 17:0.21875 18:0.475728 19:0.156627 20:-0.268293 21:0.230769 22:0.320388 23:0.111111 24:-0.2 25:0.3125 26:0.480769 27:0.264368 28:-0.15 29:0.323077 30:0.445545 31:0.221053 32:-0.125 33:0.1875 34:0.339806 35:-0.0315789 36:-0.234375 
1.9440997497161476 1:0.3125 2:0.163636 3:-0.047619 4:-0.256198 5:0.225806 6:0.163636 7:-0.0315789 8:-0.234375 9:0.3125 10:0.495146 11:0.305263 12:-0.125 13:0.516129 14:0.307692 15:-0.0434783 16:-0.220339 17:0.34375 18:0.398058 19:0.180723 20:-0.154472 21:0.476923 22:0.650485 23:0.422222 24:0.04 25:0.3125 26:0.442308 27:0.195402 28:-0.116667 29:0.415385 30:0.564356 31:0.347368 32:-0.046875 33:0.65625 34:0.805825 35:0.452632 36:0.0625 
9.8896812120638078 1:0.3125 2:0.254545 3:0.047619 4:-0.206612 5:0.354839 6:0.327273 7:0.136842 8:-0.234375 9:0.3125 10:0.339806 11:0.136842 12:-0.1875 13:0.258065 14:0.384615 15:0.130435 16:-0.152542 17:0.34375 18:0.320388 19:0.180723 20:-0.203252 21:0.353846 22:0.320388 23:0.133333 24:-0.2 25:0.40625 26:0.442308 27:0.103448 28:-0.183333 29:0.323077 30:0.485149 31:0.157895 32:-0.15625 33:0.3125 34:0.456311 35:0.347368 36:-0.09375 
4.4654765245364629 1:0.3125 2:0.254545 3:0.047619 4:-0.206612 5:0.354839 6:0.327273 7:0.221053 8:-0.1875 9:0.3125 10:0.339806 11:0.136842 12:-0.234375 13:0.516129 14:0.307692 15:-0.0434783 16:-0.152542 17:0.34375 18:0.398058 19:0.0843373 20:-0.268293 21:0.353846 22:0.398058 23:0.222222 24:-0.2 25:0.40625 26:0.615385 27:0.402299 28:-0.116667 29:0.538462 30:0.564356 31:0.347368 32:-0.09375 33:0.53125 34:0.533981 35:0.157895 36:-0.09375 
3.5234470851001154 1:0.3125 2:0.254545 3:0.047619 4:-0.256198 5:0.354839 6:0.254545 7:0.0526316 8:-0.234375 9:0.5625 10:0.495146 11:0.305263 12:-0.125 13:0.387097 14:0.307692 15:0.130435 16:-0.220339 17:0.34375 18:0.320388 19:0.0843373 20:-0.268293 21:0.476923 22:0.475728 23:0.222222 24:-0.136 25:0.53125 26:0.346154 27:0.103448 28:-0.233333 29:0.415385 30:0.386139 31:0.157895 32:-0.203125 33:0.40625 34:0.533981 35:0.157895 36:-0.15625 
4.8215375504055089 1:0.3125 2:0.272727 3:0.166667 4:-0.107438 5:0.354839 6:0.272727 7:0.157895 8:-0.15625 9:0.1875 10:0.359223 11:0.157895 12:-0.15625 13:0.419355 14:0.365385 15:0.26087 16:-0.0847458 17:0.375 18:0.456311 19:0.325301 20:-0.138211 21:0.384615 22:0.378641 23:0.244444 24:-0.136 25:0.25 26:0.384615 27:0.264368 28:-0.15 29:0.384615 30:0.50495 31:0.221053 32:-0.125 33:0.25 34:0.398058 35:0.136842 36:-0.1875 
4.635053700467024 1:0.3125 2:0.327273 3:0.142857 4:-0.140496 5:0.354839 6:0.327273 7:0.136842 8:-0.125 9:0.1875 10:0.242718 11:-0.115789 12:-0.296875 13:0.387097 14:0.384615 15:0.130435 16:-0.152542 17:0.21875 18:0.398058 19:0.180723 20:-0.203252 21:0.107692 22:0.242718 23:0.0444444 24:-0.376 25:0.3125 26:0.346154 27:0.195402 28:-0.183333 29:0.2 30:0.386139 31:0.157895 32:-0.15625 33:0.1875 34:0.184466 35:-0.178947 36:-0.375 
1.6855258080194797 1:0.3125 2:0.327273 3:0.142857 4:-0.206612 5:0.354839 6:0.327273 7:0.0526316 8:-0.1875 9:0.3125 10:0.417476 11:-0.0315789 12:-0.234375 13:0.516129 14:0.461538 15:0.130435 16:-0.152542 17:0.34375 18:0.398058 19:0.0843373 20:-0.268293 21:0.353846 22:0.320388 23:0.133333 24:-0.2 25:0.65625 26:0.519231 27:0.402299 28:-0.0666667 29:0.538462 30:0.564356 31:0.0736842 32:-0.203125 33:0.0625 34:-0.0679612 35:-0.0105263 36:-0.15625 
7.7964877913774551 1:0.3125 2:0.327273 3:0.142857 4:-0.206612 5:0.354839 6:0.327273 7:0.136842 8:-0.125 9:0.3125 10:0.417476 11:0.136842 12:-0.125 13:0.258065 14:0.384615 15:0.130435 16:-0.152542 17:0.34375 18:0.398058 19:0.180723 20:-0.203252 21:0.230769 22:0.398058 23:0.222222 24:-0.136 25:0.3125 26:0.346154 27:0.195402 28:-0.116667 29:0.323077 30:0.386139 31:0.157895 32:-0.15625 33:0.1875 34:0.359223 35:0.157895 36:-0.15625 
5.9339726155288766 1:0.3125 2:0.327273 3:0.142857 4:-0.256198 5:0.225806 6:0.327273 7:0.136842 8:-0.1875 9:0.3125 10:0.495146 11:0.136842 12:-0.125 13:0.258065 14:0.461538 15:0.23913 16:-0.152542 17:0.21875 18:0.398058 19:0.180723 20:-0.203252 21:0.353846 22:0.475728 23:0.422222 24:-0.088 25:0.1875 26:0.442308 27:0.310345 28:-0.183333 29:0.2 30:0.485149 31:0.263158 32:-0.15625 33:0.3125 34:0.456311 35:0.157895 36:-0.15625 
10 1:0.3125 2:0.327273 3:0.238095 4:-0.206612 5:0.354839 6:0.327273 7:0.136842 8:-0.234375 9:0.1875 10:0.417476 11:0.136842 12:-0.1875 13:0.387097 14:0.461538 15:0.130435 16:-0.152542 17:0.21875 18:0.475728 19:0.301205 20:-0.203252 21:0.230769 22:0.398058 23:0.222222 24:-0.136 25:0.1875 26:0.519231 27:0.310345 28:-0.116667 29:0.2 30:0.485149 31:0.263158 32:-0.15625 33:0.1875 34:0.456311 35:0.263158 36:-0.15625 
10 1:0.3125 2:0.363636 3:0.0714286 4:-0.22314 5:0.225806 6:0.363636 7:0.157895 8:-0.203125 9:0.1875 10:0.359223 11:0.0736842 12:-0.203125 13:0.290323 14:0.365385 15:-0.0217391 16:-0.220339 17:0.25 18:0.378641 19:0.108434 20:-0.317073 21:0.384615 22:0.300971 23:0.0666667 24:-0.248 25:0.25 26:0.307692 27:0.0804598 28:-0.266667 29:0.261538 30:0.425743 31:0.0526316 32:-0.296875 33:0.375 34:0.320388 35:0.0526316 36:-0.234375 
1.4972456160521546 1:0.3125 2:0.363636 3:0.166667 4:-0.173554 5:0.225806 6:0.363636 7:0.157895 8:-0.15625 9:0.3125 10:0.533981 11:0.157895 12:-0.09375 13:0.290323 14:0.365385 15:-0.0217391 16:-0.220339 17:0.375 18:0.378641 19:0.204819 20:-0.203252 21:0.261538 22:0.378641 23:0.155556 24:-0.136 25:0.25 26:0.307692 27:-0.126437 28:-0.333333 29:0.138462 30:0.188119 31:-0.0315789 32:-0.359375 33:-0.125 34:0.00970874 35:-0.305263 36:-0.40625 
10 1:0.3125 2:0.363636 3:0.166667 4:-0.173554 5:0.354839 6:0.363636 7:0.0736842 8:-0.203125 9:0.1875 10:0.456311 11:0.157895 12:-0.203125 13:0.290323 14:0.365385 15:0.0652174 16:-0.220339 17:0.25 18:0.378641 19:0.0120482 20:-0.268293 21:0.261538 22:0.378641 23:0.155556 24:-0.248 25:0.25 26:0.384615 27:0.172414 28:-0.266667 29:0.261538 30:0.346535 31:0.0526316 32:-0.234375 33:0.25 34:0.398058 35:0.0526316 36:-0.296875 
7.8763838131455222 1:0.3125 2:0.363636 3:0.285714 4:-0.173554 5:0.451613 6:0.363636 7:0.157895 8:-0.203125 9:0.40625 10:0.359223 11:0.0736842 12:-0.203125 13:0.548387 14:0.442308 15:0.152174 16:-0.152542 17:0.5 18:0.533981 19:0.108434 20:-0.203252 21:0.507692 22:0.456311 23:0.155556 24:-0.2 25:0.375 26:0.384615 27:0.0804598 28:-0.216667 29:0.261538 30:0.425743 31:0.136842 32:-0.234375 33:0.25 34:0.242718 35:-0.0315789 36:-0.234375 
1.4685394811336718 1:0.3125 2:0.4 3:0.333333 4:-0.0743802 5:0.483871 6:0.490909 7:0.305263 8:-0.015625 9:0.4375 10:0.592233 11:0.305263 12:-0.0625 13:0.387097 14:0.461538 15:0.130435 16:-0.0338983 17:0.46875 18:0.572816 19:0.301205 20:-0.0894309 21:0.630769 22:0.572816 23:0.422222 24:-0.088 25:0.40625 26:0.519231 27:0.310345 28:-0.116667 29:0.538462 30:0.663366 31:0.347368 32:0.015625 33:0.53125 34:0.631068 35:0.263158 36:-0.046875 
6.708592865750739 1:0.3125 2:0.436364 3:0.166667 4:-0.107438 5:0.354839 6:0.272727 7:0.157895 8:-0.09375 9:0.3125 10:0.359223 11:0.157895 12:-0.203125 13:0.290323 14:0.365385 15:0.0652174 16:-0.152542 17:0.25 18:0.378641 19:0.0120482 20:-0.268293 21:0.138462 22:0.300971 23:-0.0222222 24:-0.248 25:-0.125 27:-0.310345 28:-0.45 29:-0.107692 30:0.029703 31:-0.305263 32:-0.40625 33:-0.03125 34:-0.0679612 35:-0.221053 36:-0.40625 
10 1:0.34375 2:0.163636 3:-0.0238095 4:-0.239669 5:0.258065 6:0.236364 7:-0.0105263 8:-0.28125 9:0.34375 10:0.320388 11:-0.0105263 12:-0.21875 13:0.225806 14:0.25 15:0.0434783 16:-0.20339 17:0.1875 18:0.262136 19:-0.0120482 20:-0.317073 21:0.2 22:0.262136 23:0.133333 24:-0.248 25:0.25 26:0.365385 27:0.0344828 28:-0.3 29:0.261538 30:0.326733 31:0.0105263 32:-0.265625 33:0.25 34:0.300971 35:0.0947368 36:-0.21875 
9.0014585694798992 1:0.34375 2:0.236364 3:-0.0238095 4:-0.239669 5:0.387097 6:0.236364 7:-0.0105263 8:-0.28125 9:0.34375 10:0.320388 11:0.0736842 12:-0.21875 13:0.451613 14:0.346154 15:0.0434783 16:-0.20339 17:0.40625 18:0.359223 19:0.0843373 20:-0.252033 21:0.415385 22:0.359223 23:0.222222 24:-0.184 25:0.5 26:0.442308 27:0.218391 28:-0.183333 29:0.507692 30:0.405941 31:0.0947368 32:-0.15625 33:0.5 34:0.378641 35:0.0947368 36:-0.21875 
1.5470530872828752 1:0.34375 2:0.236364 3:0.0714286 4:-0.239669 5:0.516129 6:0.381818 7:0.157895 8:-0.15625 9:0.46875 10:0.475728 11:0.263158 12:-0.15625 13:0.451613 14:0.346154 15:0.130435 16:-0.20339 17:0.40625 18:0.533981 19:0.180723 20:-0.203252 21:0.415385 22:0.456311 23:0.133333 24:-0.136 25:0.5 26:0.365385 27:0.218391 28:-0.25 29:0.384615 30:0.485149 31:0.178947 32:-0.21875 33:0.375 34:0.300971 35:0.0947368 36:-0.21875 
0.14676888565814233 1:0.34375 2:0.309091 3:0.0714286 4:-0.173554 5:0.516129 6:0.381818 7:0.263158 8:-0.046875 9:0.46875 10:0.398058 11:0.157895 12:-0.109375 13:0.580645 14:0.442308 15:0.23913 16:-0.0847458 17:0.40625 18:0.456311 19:0.39759 20:-0.138211 21:0.2 22:0.262136 23:0.133333 24:-0.072 25:0.5 26:0.519231 27:0.126437 28:-0.05 29:0.384615 30:0.405941 31:0.0947368 32:-0.09375 34:0.300971 35:0.178947 36:-0.09375 
1.7531141716472181 1:0.34375 2:0.309091 3:0.0714286 4:-0.239669 5:0.258065 6:0.236364 7:0.0736842 8:-0.21875 9:0.21875 10:0.320388 11:0.157895 12:-0.21875 13:0.580645 14:0.346154 15:0.130435 16:-0.152542 17:0.40625 18:0.456311 19:0.180723 20:-0.138211 21:0.415385 22:0.456311 23:0.133333 24:-0.184 25:0.5 26:0.442308 27:0.218391 28:-0.183333 29:0.507692 30:0.564356 31:0.178947 32:-0.15625 33:0.5 34:0.533981 35:0.368421 36:-0.09375 
0.32072698855146314 1:0.34375 2:0.309091 3:0.0714286 4:-0.239669 5:0.387097 6:0.236364 7:-0.0105263 8:-0.21875 9:0.34375 10:0.320388 11:-0.0105263 12:-0.28125 13:0.580645 14:0.519231 15:0.23913 16:-0.152542 17:0.40625 18:0.359223 19:0.0843373 20:-0.252033 21:0.415385 22:0.359223 23:0.133333 24:-0.184 25:0.78125 26:0.615385 27:0.333333 28:-0.05 29:0.507692 30:0.485149 31:0.178947 32:-0.15625 33:0.5 34:0.378641 35:0.0947368 36:-0.15625 
10 1:0.34375 2:0.381818 3:0.166667 4:-0.123967 5:0.387097 6:0.381818 7:0.157895 8:-0.21875 9:0.34375 10:0.475728 11:0.157895 12:-0.15625 13:0.354839 14:0.442308 15:0.130435 16:-0.152542 17:0.1875 18:0.456311 19:0.180723 20:-0.203252 21:0.323077 22:0.533981 23:0.222222 24:-0.072 25:0.25 26:0.365385 27:0.0344828 28:-0.25 29:0.384615 30:0.405941 31:0.178947 32:-0.15625 33:0.25 34:0.378641 35:0.0947368 36:-0.15625 
8.4817379155318697 1:0.34375 2:0.381818 3:0.166667 4:-0.173554 5:0.516129 6:0.381818 7:0.157895 8:-0.15625 9:0.21875 10:0.184466 11:-0.0105263 12:-0.328125 13:0.354839 14:0.519231 15:0.130435 16:-0.0847458 17:0.3125 18:0.359223 19:0.180723 20:-0.138211 21:0.323077 22:0.359223 23:0.222222 24:-0.184 25:0.25 26:0.365385 27:0.126437 28:-0.183333 29:0.261538 30:0.405941 31:0.0105263 32:-0.21875 33:0.125 34:0.300971 35:-0.0736842 36:-0.265625 
5.6285225109120125 1:0.34375 2:0.381818 3:0.166667 4:-0.239669 5:0.387097 6:0.381818 7:0.157895 8:-0.15625 9:0.46875 10:0.475728 11:0.157895 12:-0.15625 13:0.225806 14:0.442308 15:0.130435 16:-0.152542 17:0.3125 18:0.533981 19:0.180723 20:-0.138211 21:0.323077 22:0.359223 23:0.222222 24:-0.072 25:0.375 26:0.365385 27:0.218391 28:-0.183333 29:0.261538 30:0.405941 31:0.0947368 32:-0.15625 33:0.25 34:0.378641 35:0.0105263 36:-0.21875 
10 1:0.375 2:0.236364 3:0.142857 4:-0.239669 5:0.419355 6:0.309091 7:0.0526316 8:-0.28125 9:0.21875 10:0.398058 11:0.0526316 12:-0.28125 13:0.354839 14:0.403846 15:0.0217391 16:-0.186441 17:0.3125 18:0.417476 19:-0.0361446 20:-0.284553 21:0.2 22:0.339806 23:0.111111 24:-0.168 25:0.34375 26:0.384615 27:0.103448 28:-0.25 29:0.353846 30:0.346535 31:0.0736842 32:-0.21875 33:0.21875 34:0.242718 35:0.157895 36:-0.21875 
10 1:0.375 2:0.290909 3:0.0952381 4:-0.173554 5:0.290323 6:0.290909 7:0.178947 8:-0.15625 9:0.125 10:0.378641 11:0.0947368 12:-0.21875 13:0.290323 14:0.307692 15:0.0217391 16:-0.237288 17:0.25 18:0.398058 19:0.156627 20:-0.235772 21:0.261538 22:0.398058 23:0.2 24:-0.168 25:0.09375 26:0.307692 27:-0.0114943 28:-0.25 29:0.230769 30:0.346535 31:0.136842 32:-0.21875 33:0.09375 34:0.398058 35:0.0526316 36:-0.21875 
1.6963286924208398 1:0.375 2:0.290909 3:0.190476 4:-0.173554 5:0.548387 6:0.436364 7:0.0947368 8:-0.15625 9:0.5 10:0.456311 11:0.0947368 12:-0.15625 13:0.548387 14:0.461538 15:0.195652 16:-0.186441 17:0.5 18:0.475728 19:0.253012 20:-0.121951 21:0.384615 22:0.398058 23:0.2 24:-0.104 25:0.5 26:0.538462 27:0.37931 28:-0.116667 29:0.507692 30:0.584158 31:0.326316 32:-0.09375 33:0.5 34:0.553398 35:0.242105 36:-0.15625 
10 1:0.375 2:0.290909 4:-0.173554 5:0.290323 6:0.290909 7:0.0947368 8:-0.15625 9:0.25 10:0.300971 11:0.0947368 12:-0.15625 13:0.419355 14:0.384615 15:0.0217391 16:-0.186441 17:0.25 18:0.242718 19:-0.0361446 20:-0.284553 21:0.261538 22:0.165049 23:0.0222222 24:-0.28 25:0.21875 26:0.307692 27:0.0804598 28:-0.25 29:0.230769 30:0.425743 31:0.0526316 32:-0.15625 33:0.21875 34:0.320388 35:0.0526316 36:-0.15625 
10 1:0.375 2:0.309091 3:0.047619 4:-0.206612 5:0.290323 6:0.163636 7:-0.0315789 8:-0.234375 9:0.25 10:0.165049 11:-0.0315789 12:-0.296875 13:0.258065 14:0.307692 15:0.0217391 16:-0.220339 17:0.21875 18:0.398058 19:0.060241 20:-0.203252 21:0.230769 22:0.320388 23:0.111111 24:-0.136 25:0.3125 26:0.326923 27:0.0804598 28:-0.216667 29:0.446154 30:0.366337 31:0.136842 32:-0.1875 33:0.3125 34:0.339806 35:0.0526316 36:-0.1875 
8.6423972428298619 1:0.375 2:0.309091 3:0.047619 4:-0.239669 5:0.258065 6:0.309091 7:0.136842 8:-0.21875 9:0.375 10:0.320388 11:0.136842 12:-0.21875 13:0.483871 14:0.576923 15:0.108696 16:-0.118644 17:0.3125 18:0.417476 19:0.156627 20:-0.235772 21:0.323077 22:0.417476 23:0.111111 24:-0.168 25:0.625 26:0.557692 27:0.402299 28:-0.0666667 29:0.476923 30:0.50495 31:0.157895 32:-0.15625 33:0.34375 34:0.398058 35:0.0736842 36:-0.21875 
3.5387320692329802 1:0.375 2:0.309091 3:0.142857 4:-0.107438 5:0.258065 6:0.309091 7:0.0526316 8:-0.21875 9:0.5 10:0.320388 11:0.0526316 12:-0.21875 13:0.612903 14:0.576923 15:0.282609 17:0.4375 18:0.495146 19:0.253012 20:-0.105691 21:0.446154 22:0.495146 23:0.2 24:-0.104 25:0.46875 26:0.557692 27:0.517241 28:-0.0666667 29:0.476923 30:0.50495 31:0.263158 32:-0.109375 33:0.34375 34:0.475728 35:0.157895 36:-0.109375 
7.5427806912958761 1:0.375 2:0.309091 3:0.142857 4:-0.173554 5:0.419355 6:0.309091 7:0.136842 8:-0.15625 9:0.21875 10:0.320388 11:0.0526316 12:-0.28125 13:0.354839 14:0.403846 15:0.108696 16:-0.118644 17:0.4375 18:0.417476 19:0.253012 20:-0.170732 21:0.446154 22:0.417476 23:0.377778 24:-0.104 25:0.46875 26:0.384615 27:0.195402 28:-0.183333 29:0.353846 30:0.50495 31:0.157895 32:-0.109375 33:0.34375 34:0.475728 35:0.157895 36:-0.21875 
10 1:0.375 2:0.309091 3:0.142857 4:-0.256198 5:0.290323 6:0.236364 7:0.0526316 8:-0.234375 9:0.25 10:0.398058 11:0.136842 12:-0.234375 13:0.419355 14:0.461538 15:0.108696 16:-0.152542 17:0.375 18:0.398058 19:0.060241 20:-0.268293 21:0.230769 22:0.398058 23:0.2 24:-0.2 25:0.4375 26:0.653846 27:0.356322 28:-0.0833333 29:0.446154 30:0.623762 31:0.136842 32:-0.125 33:0.3125 34:0.417476 35:0.136842 36:-0.1875 
6.6001571060685604 1:0.375 2:0.309091 3:0.261905 4:-0.173554 5:0.419355 6:0.381818 7:0.136842 8:-0.15625 9:0.5 10:0.398058 11:0.0526316 12:-0.21875 13:0.483871 14:0.403846 15:0.108696 16:-0.186441 17:0.3125 18:0.339806 19:0.060241 20:-0.235772 21:0.323077 22:0.417476 23:0.288889 24:-0.168 25:0.46875 26:0.384615 27:0.195402 28:-0.183333 29:0.476923 30:0.346535 31:-0.0105263 32:-0.15625 33:0.34375 34:0.398058 35:0.0736842 36:-0.21875 
10 1:0.375 2:0.363636 3:0.0952381 4:-0.173554 5:0.290323 6:0.363636 7:0.0947368 8:-0.21875 9:0.375 10:0.300971 11:0.0947368 12:-0.21875 13:0.419355 14:0.461538 15:0.108696 16:-0.186441 17:0.375 18:0.398058 19:0.156627 20:-0.284553 21:0.384615 22:0.398058 23:0.2 24:-0.168 25:0.375 26:0.538462 27:0.37931 28:-0.116667 29:0.384615 30:0.425743 31:0.136842 32:-0.21875 33:0.375 34:0.398058 35:0.136842 36:-0.21875 
0.012317213753176849 1:0.375 2:0.363636 3:0.190476 4:-0.173554 5:0.548387 6:0.436364 7:0.178947 8:-0.09375 9:0.5 10:0.631068 11:0.368421 12:-0.15625 13:0.548387 14:0.461538 15:0.195652 16:-0.0677966 17:0.625 18:0.553398 19:0.373494 20:-0.121951 21:0.507692 22:0.553398 23:0.4 24:-0.056 25:0.5 26:0.461538 27:0.287356 28:-0.116667 29:0.507692 30:0.663366 31:0.242105 32:-0.09375 33:0.65625 34:0.553398 35:0.326316 36:-0.015625 
0.02828601918871983 1:0.375 2:0.363636 3:0.190476 4:-0.173554 5:0.548387 6:0.527273 7:0.284211 8:-0.03125 9:0.5 10:0.456311 11:0.368421 12:-0.09375 14:0.153846 15:0.108696 16:-0.186441 17:0.5 18:0.475728 19:0.253012 20:-0.121951 21:0.507692 22:0.475728 23:0.288889 24:-0.056 25:-0.40625 26:-0.403846 27:0.172414 28:-0.0333333 29:0.230769 30:0.267327 31:0.0526316 32:-0.21875 33:0.5 34:0.553398 35:0.242105 36:-0.09375 
10 1:0.375 2:0.363636 3:0.190476 4:-0.239669 5:0.419355 6:0.218182 7:0.0947368 8:-0.21875 9:0.375 10:0.378641 11:0.0105263 12:-0.21875 13:0.419355 14:0.384615 15:0.0217391 16:-0.186441 17:0.5 18:0.398058 19:0.156627 20:-0.170732 21:0.384615 22:0.398058 23:0.111111 24:-0.168 25:0.5 26:0.384615 27:0.287356 28:-0.183333 29:0.384615 30:0.425743 31:0.0526316 32:-0.21875 33:0.375 34:0.475728 35:0.136842 36:-0.15625 
4.9541412539413425 1:0.375 2:0.363636 3:0.309524 4:-0.107438 5:0.419355 6:0.363636 7:0.284211 8:-0.09375 9:0.625 10:0.533981 11:0.178947 12:-0.09375 13:0.548387 14:0.461538 15:0.304348 16:-0.118644 17:0.5 18:0.553398 19:0.373494 20:-0.170732 21:0.384615 22:0.475728 23:0.2 24:-0.168 25:0.5 26:0.538462 27:0.37931 28:-0.116667 29:0.507692 30:0.50495 31:0.242105 32:-0.09375 33:0.5 34:0.475728 35:0.136842 36:-0.21875 
10 1:0.375 2:0.363636 3:0.309524 4:-0.173554 5:0.419355 6:0.290909 7:0.0105263 8:-0.15625 9:0.25 10:0.378641 11:0.0947368 12:-0.15625 13:0.419355 14:0.384615 15:0.108696 16:-0.186441 17:0.375 18:0.398058 19:0.060241 20:-0.235772 21:0.261538 22:0.242718 23:0.0222222 24:-0.216 25:0.375 26:0.384615 27:0.172414 28:-0.25 29:0.230769 30:0.346535 31:0.0526316 32:-0.21875 33:0.21875 34:0.398058 35:0.0526316 36:-0.15625 
7.4688660260164959 1:0.375 2:0.381818 3:0.142857 4:-0.140496 5:0.419355 6:0.309091 7:0.136842 8:-0.1875 9:0.375 10:0.398058 11:0.0526316 12:-0.1875 13:0.419355 14:0.461538 15:0.0217391 16:-0.152542 17:0.375 18:0.398058 19:0.156627 20:-0.203252 21:0.507692 22:0.398058 23:0.311111 24:-0.136 25:0.4375 26:0.403846 27:0.264368 28:-0.15 29:0.446154 30:0.524752 31:0.305263 32:-0.125 33:0.4375 34:0.417476 35:0.136842 36:-0.1875 
6.1648897915716585 1:0.375 2:0.381818 3:0.142857 4:-0.173554 5:0.419355 6:0.309091 7:0.242105 8:-0.15625 9:0.375 10:0.475728 11:0.136842 12:-0.15625 13:0.354839 14:0.403846 15:0.108696 16:-0.186441 17:0.4375 18:0.417476 19:0.156627 20:-0.235772 21:0.323077 22:0.339806 23:0.111111 24:-0.168 25:0.34375 26:0.384615 27:0.195402 28:-0.183333 29:0.476923 30:0.425743 31:0.157895 32:-0.15625 33:0.46875 34:0.320388 35:-0.0105263 36:-0.15625 
2.4599266094841581 1:0.375 2:0.381818 3:0.142857 4:-0.173554 5:0.419355 6:0.381818 7:0.136842 8:-0.15625 9:0.5 10:0.553398 11:0.326316 12:-0.09375 13:0.483871 14:0.576923 15:0.195652 16:-0.0508475 17:0.4375 18:0.495146 19:0.253012 20:-0.170732 21:0.446154 22:0.495146 23:0.288889 24:-0.04 25:0.46875 26:0.557692 27:0.310345 28:-0.133333 29:0.476923 30:0.683168 31:0.347368 32:-0.046875 33:0.34375 34:0.475728 35:0.157895 36:-0.15625 
10 1:0.375 2:0.381818 3:0.142857 4:-0.206612 5:0.419355 6:0.381818 7:0.136842 8:-0.125 9:0.375 10:0.398058 11:0.136842 12:-0.1875 13:0.548387 14:0.384615 15:0.217391 16:-0.152542 17:0.375 18:0.475728 19:0.060241 20:-0.203252 21:0.384615 22:0.398058 23:0.2 24:-0.136 25:0.4375 26:0.480769 27:0.172414 28:-0.216667 29:0.446154 30:0.445545 31:0.221053 32:-0.125 33:0.4375 34:0.495146 35:0.305263 36:-0.125 
3.5216341236285809 1:0.375 2:0.381818 3:0.238095 4:-0.0909091 5:0.677419 6:0.454545 7:0.221053 8:-0.125 9:0.5 10:0.475728 11:0.136842 12:-0.1875 13:0.419355 14:0.384615 15:0.108696 16:-0.220339 17:0.65625 18:0.553398 19:0.277108 20:-0.138211 21:0.384615 22:0.475728 23:0.311111 24:-0.2 25:0.3125 26:0.326923 27:0.0804598 28:-0.266667 29:0.569231 30:0.524752 31:0.305263 32:-0.125 33:0.5625 34:0.592233 35:0.305263 36:-0.0625 
0.035432560069720218 1:0.375 2:0.381818 3:0.238095 4:-0.140496 5:0.548387 6:0.381818 7:0.326316 8:-0.125 9:0.375 10:0.398058 11:0.136842 12:-0.1875 13:0.548387 14:0.461538 15:0.217391 16:-0.0847458 17:0.375 18:0.398058 19:0.156627 20:-0.268293 21:0.230769 22:0.242718 23:-0.0444444 24:-0.328 25:-0.0625 27:-0.287356 28:-0.466667 29:-0.0461538 30:-0.049505 31:-0.452632 32:-0.46875 33:-0.0625 34:0.00970874 35:-0.368421 36:-0.421875 
0.37512307587403093 1:0.375 2:0.381818 3:0.261905 4:-0.239669 5:0.419355 6:0.309091 7:0.0526316 8:-0.21875 9:0.375 10:0.320388 11:0.242105 12:-0.15625 13:0.612903 14:0.576923 15:0.282609 16:-0.0508475 17:0.3125 18:0.417476 19:-0.0361446 20:-0.235772 21:0.323077 22:0.339806 23:0.111111 24:-0.168 25:0.46875 26:0.461538 27:0.310345 28:-0.183333 29:0.353846 30:0.267327 31:-0.0105263 32:-0.21875 33:0.34375 34:0.320388 35:0.0736842 36:-0.15625 
0.91535192597269432 1:0.375 2:0.436364 3:0.404762 4:-0.107438 5:0.548387 6:0.436364 7:0.284211 8:-0.09375 9:0.5 10:0.533981 11:0.178947 12:-0.09375 13:0.548387 14:0.461538 15:0.195652 16:-0.118644 17:0.5 18:0.475728 19:0.373494 20:-0.170732 21:0.507692 22:0.398058 23:0.2 24:-0.104 25:0.375 26:0.461538 27:0.172414 28:-0.183333 29:0.384615 30:0.425743 31:0.242105 32:-0.15625 33:0.375 34:0.475728 35:0.136842 36:-0.15625 
1.0584569245142388 1:0.375 2:0.454545 3:0.357143 4:-0.140496 5:0.419355 6:0.309091 7:0.136842 8:-0.234375 9:0.25 10:0.320388 11:0.0526316 12:-0.234375 13:0.419355 14:0.538462 15:0.304348 16:-0.0847458 17:0.375 18:0.475728 19:0.156627 20:-0.203252 21:0.384615 22:0.398058 23:0.111111 24:-0.2 25:0.5625 26:0.576923 27:0.356322 28:-0.0333333 29:0.446154 30:0.70297 31:0.305263 32:-0.0625 33:0.4375 34:0.592233 35:0.136842 36:-0.125 
3.2170571273205772 1:0.375 2:0.527273 3:0.309524 4:-0.0413223 5:0.16129 6:0.363636 7:0.0947368 8:-0.21875 9:0.25 10:0.378641 11:0.0947368 12:-0.21875 13:0.419355 14:0.538462 15:0.304348 16:-0.118644 17:0.375 18:0.398058 19:0.156627 20:-0.284553 21:0.261538 22:0.320388 23:0.111111 24:-0.216 25:0.375 26:0.538462 27:0.37931 28:-0.116667 29:0.384615 30:0.50495 31:0.136842 32:-0.15625 33:0.375 34:0.398058 35:0.0526316 36:-0.21875 
10 1:0.40625 2:0.272727 3:0.0714286 4:-0.22314 5:0.354839 6:0.272727 7:0.0736842 8:-0.265625 9:0.3125 10:0.359223 11:0.0736842 12:-0.203125 13:0.548387 14:0.442308 15:0.0652174 16:-0.220339 17:0.25 18:0.378641 19:0.0120482 20:-0.317073 21:0.261538 22:0.378641 23:0.155556 24:-0.2 25:0.25 26:0.230769 27:-0.0114943 28:-0.266667 29:0.261538 30:0.346535 31:0.0526316 32:-0.234375 33:0.25 34:0.320388 35:0.0526316 36:-0.234375 
2.9820988026844049 1:0.40625 2:0.272727 3:0.166667 4:-0.22314 5:0.451613 6:0.436364 7:0.157895 8:-0.15625 9:0.40625 10:0.456311 11:0.0736842 12:-0.15625 13:0.548387 14:0.365385 15:0.152174 16:-0.220339 17:0.375 18:0.456311 19:0.204819 20:-0.268293 21:0.384615 22:0.300971 23:0.155556 24:-0.2 25:0.375 26:0.384615 27:0.172414 28:-0.216667 29:0.384615 30:0.425743 31:0.0526316 32:-0.1875 33:0.5 34:0.398058 35:0.136842 36:-0.125 
10 1:0.40625 2:0.272727 3:0.285714 4:-0.173554 5:0.451613 6:0.363636 7:0.157895 8:-0.203125 9:0.40625 10:0.456311 11:0.157895 12:-0.15625 13:0.290323 14:0.288462 15:-0.0217391 16:-0.220339 17:0.375 18:0.378641 19:0.108434 20:-0.203252 21:0.384615 22:0.378641 23:0.155556 24:-0.2 25:0.375 26:0.307692 27:0.0804598 28:-0.216667 29:0.507692 30:0.425743 31:0.136842 32:-0.1875 33:0.25 34:0.320388 35:0.136842 36:-0.1875 
1.1400562509521903 1:0.40625 2:0.363636 3:0.166667 4:-0.107438 5:0.451613 6:0.363636 7:0.0736842 8:-0.203125 9:0.40625 10:0.359223 11:0.0736842 12:-0.15625 13:0.548387 14:0.519231 15:0.152174 16:-0.152542 17:0.5 18:0.533981 19:0.421687 20:-0.138211 21:0.384615 22:0.631068 23:0.444444 24:-0.072 25:0.5 26:0.538462 27:0.37931 28:-0.1 29:0.507692 30:0.50495 31:0.326316 32:-0.015625 33:0.375 34:0.553398 35:0.326316 36:-0.078125 
10 1:0.40625 2:0.436364 3:0.166667 4:-0.173554 5:0.451613 6:0.363636 7:0.0736842 8:-0.15625 9:0.3125 10:0.262136 11:0.157895 12:-0.265625 13:0.419355 14:0.442308 15:0.152174 16:-0.220339 17:0.375 18:0.300971 19:0.108434 20:-0.268293 21:0.384615 22:0.378641 23:0.0666667 24:-0.2 25:0.375 26:0.384615 27:0.0804598 28:-0.216667 29:0.507692 30:0.425743 31:0.136842 32:-0.125 33:0.375 34:0.398058 35:0.0526316 36:-0.1875 
1.315862124296787 1:0.4375 2:0.327273 3:-0.047619 4:-0.206612 5:0.354839 6:0.327273 7:0.136842 8:-0.1875 9:0.3125 10:0.417476 11:0.136842 12:-0.1875 13:0.258065 14:0.307692 15:0.0434783 16:-0.220339 17:0.21875 18:0.320388 19:0.180723 20:-0.268293 21:0.353846 22:0.398058 23:0.222222 24:-0.136 25:0.40625 26:0.442308 27:0.195402 28:-0.116667 29:0.415385 30:0.485149 31:0.0736842 32:-0.203125 33:0.40625 34:0.359223 35:0.0736842 36:-0.15625 
10 1:0.4375 2:0.327273 3:0.333333 4:-0.140496 5:0.483871 6:0.327273 7:0.305263 8:-0.125 9:0.3125 10:0.339806 11:0.0526316 12:-0.1875 13:0.387097 14:0.461538 15:0.130435 16:-0.220339 17:0.34375 18:0.475728 19:0.180723 20:-0.203252 21:0.476923 22:0.475728 23:0.222222 24:-0.136 25:0.1875 26:0.442308 27:0.195402 28:-0.183333 29:0.323077 30:0.564356 31:0.157895 32:-0.09375 33:0.3125 34:0.359223 35:0.157895 36:-0.09375 
6.5945946743247079 1:0.4375 2:0.4 3:0.142857 4:-0.206612 5:0.483871 6:0.254545 7:0.136842 8:-0.1875 9:0.4375 10:0.495146 11:0.221053 12:-0.125 13:0.677419 14:0.461538 15:0.23913 16:-0.101695 17:0.46875 18:0.398058 19:0.180723 20:-0.203252 21:0.476923 22:0.475728 23:0.222222 24:-0.088 25:0.53125 26:0.615385 27:0.310345 28:-0.183333 29:0.538462 30:0.663366 31:0.347368 32:-0.09375 33:0.53125 34:0.631068 35:0.263158 36:-0.09375 
1.0620959725640042 1:0.4375 2:0.4 3:0.238095 4:-0.0743802 5:0.483871 6:0.4 7:0.221053 8:-0.0625 9:0.4375 10:0.592233 11:0.305263 12:-0.0625 13:0.516129 14:0.461538 15:0.130435 16:-0.101695 17:0.34375 18:0.475728 19:0.301205 20:-0.0894309 21:0.476923 22:0.572816 23:0.333333 24:-0.024 25:0.40625 26:0.519231 27:0.310345 28:-0.116667 29:0.538462 30:0.663366 31:0.157895 32:-0.046875 33:0.53125 34:0.631068 35:0.263158 36:-0.046875 
5.5715093422853235 1:0.4375 2:0.4 3:0.238095 4:-0.0743802 5:0.483871 6:0.490909 7:0.136842 8:-0.125 9:0.4375 10:0.592233 11:0.305263 12:-0.125 13:0.516129 14:0.461538 15:0.130435 16:-0.101695 17:0.46875 18:0.475728 19:0.39759 20:-0.154472 21:0.476923 22:0.572816 23:0.533333 24:-0.024 25:0.53125 26:0.519231 27:0.310345 28:-0.0666667 29:0.538462 30:0.663366 31:0.263158 32:-0.09375 33:0.65625 34:0.533981 35:0.347368 36:-0.09375 
10 1:0.46875 2:0.309091 3:0.0714286 4:-0.173554 5:0.516129 6:0.309091 7:0.157895 8:-0.15625 9:0.34375 10:0.398058 11:0.0736842 12:-0.15625 13:0.451613 14:0.442308 15:0.130435 16:-0.20339 17:0.40625 18:0.359223 19:0.0843373 20:-0.252033 21:0.323077 22:0.359223 23:0.133333 24:-0.248 25:0.5 26:0.519231 27:0.126437 28:-0.183333 29:0.507692 30:0.485149 31:0.0947368 32:-0.21875 33:0.25 34:0.378641 35:0.0105263 36:-0.265625 
5.8080698538805251 1:0.46875 2:0.309091 3:0.166667 4:-0.123967 5:0.387097 6:0.236364 7:0.157895 8:-0.15625 9:0.34375 10:0.398058 11:0.157895 12:-0.15625 13:0.451613 14:0.346154 15:0.0434783 16:-0.152542 17:0.40625 18:0.359223 19:0.0843373 20:-0.203252 21:0.538462 22:0.456311 23:0.222222 24:-0.072 25:0.125 26:0.288462 27:0.126437 28:-0.25 29:0.384615 30:0.485149 31:0.284211 32:-0.03125 33:0.375 34:0.456311 35:0.178947 36:-0.03125 
6.3480297559312229 1:0.46875 2:0.309091 3:0.166667 4:-0.123967 5:0.516129 6:0.381818 7:0.157895 8:-0.109375 9:0.46875 10:0.572816 11:0.347368 12:-0.109375 13:0.354839 14:0.346154 15:0.130435 16:-0.152542 17:0.65625 18:0.533981 19:0.39759 20:-0.0894309 21:0.661538 22:0.708738 23:0.422222 24:-0.024 25:0.375 26:0.615385 27:0.218391 28:-0.116667 29:0.384615 30:0.564356 31:0.284211 32:-0.09375 33:0.625 34:0.533981 35:0.284211 36:-0.09375 
10 1:0.46875 2:0.309091 3:0.166667 4:-0.173554 5:0.387097 6:0.309091 7:0.0736842 8:-0.15625 9:0.34375 10:0.320388 11:-0.0105263 12:-0.21875 13:0.451613 14:0.346154 15:0.0434783 16:-0.20339 17:0.3125 18:0.359223 19:0.0843373 20:-0.317073 21:0.323077 22:0.359223 23:0.133333 24:-0.184 25:0.5 26:0.442308 27:0.126437 28:-0.25 29:0.261538 30:0.405941 31:0.0105263 32:-0.265625 33:0.25 34:0.378641 35:0.0947368 36:-0.21875 
0.59435089851210821 1:0.46875 2:0.309091 3:0.166667 4:-0.173554 5:0.387097 6:0.381818 7:0.157895 8:-0.109375 9:0.34375 10:0.475728 11:0.157895 12:-0.21875 13:0.580645 14:0.519231 15:0.326087 16:-0.152542 17:0.3125 18:0.456311 19:0.180723 20:-0.203252 21:0.2 22:0.456311 23:0.222222 24:-0.136 25:0.375 26:0.442308 27:0.126437 28:-0.183333 29:0.261538 30:0.405941 31:0.0105263 32:-0.21875 33:0.375 34:0.378641 35:0.178947 36:-0.15625 
3.3890412686784144 1:0.46875 2:0.381818 3:0.166667 4:-0.123967 5:0.516129 6:0.381818 7:0.157895 8:-0.15625 9:0.625 10:0.650485 11:0.347368 12:-0.046875 13:0.580645 14:0.519231 15:0.326087 16:-0.0338983 17:0.53125 18:0.631068 19:0.39759 20:-0.0243902 21:0.784615 22:0.805825 23:0.533333 24:0.088 25:0.625 26:0.615385 27:0.54023 28:-0.05 29:0.630769 30:0.742574 31:0.473684 32:0.015625 33:0.625 34:0.805825 35:0.473684 36:0.015625 
0.19315053962027803 1:0.46875 2:0.381818 3:0.166667 4:-0.123967 5:0.677419 6:0.472727 7:0.347368 8:-0.046875 9:0.625 10:0.650485 11:0.452632 12:-0.046875 13:0.451613 14:0.442308 15:0.130435 16:-0.152542 17:0.78125 18:0.708738 19:0.638554 20:0.0894309 21:0.661538 22:0.805825 23:0.644444 24:0.088 26:0.192308 27:-0.0574713 28:-0.3 29:0.507692 30:0.742574 31:0.578947 32:0.078125 33:0.78125 34:0.805825 35:0.473684 36:0.140625 
9.4781523264972805 1:0.46875 2:0.381818 3:0.166667 4:-0.173554 5:0.516129 6:0.381818 7:0.263158 8:-0.15625 9:0.34375 10:0.242718 11:-0.0105263 12:-0.21875 13:0.451613 14:0.519231 15:0.130435 16:-0.152542 17:0.40625 18:0.456311 19:0.0843373 20:-0.203252 21:0.323077 22:0.262136 23:0.222222 24:-0.248 25:0.375 26:0.442308 27:0.218391 28:-0.25 29:0.384615 30:0.326733 31:0.0947368 32:-0.21875 33:0.375 34:0.378641 35:0.0105263 36:-0.21875 
0.31055140529596015 1:0.46875 2:0.381818 3:0.380952 4:-0.0578512 5:0.677419 6:0.727273 7:0.789474 8:0.25 9:0.75 10:0.941748 11:0.684211 12:0.1875 13:0.709677 14:0.692308 15:0.543478 16:0.152542 17:0.65625 18:0.902913 19:0.903614 20:0.138211 21:0.661538 22:1 23:0.755556 24:0.152 25:0.5 26:0.884615 27:0.793103 28:0.133333 29:0.507692 30:0.940594 31:0.810526 32:0.25 33:0.5 34:0.902913 35:0.810526 36:0.1875 
6.4243605773386001 1:0.5 2:0.236364 3:0.047619 4:-0.239669 5:0.548387 6:0.236364 7:0.0526316 8:-0.15625 9:0.5 10:0.475728 11:0.0526316 12:-0.15625 13:0.483871 14:0.480769 15:0.108696 16:-0.118644 17:0.3125 18:0.417476 19:0.060241 20:-0.170732 21:0.323077 22:0.417476 23:0.2 24:-0.216 25:0.34375 26:0.461538 27:0.195402 28:-0.133333 29:0.353846 30:0.50495 31:0.263158 32:-0.15625 33:0.34375 34:0.398058 35:0.0736842 36:-0.21875 
6.7638124127116761 1:0.5 2:0.290909 3:0.190476 4:-0.239669 5:0.419355 6:0.363636 7:0.178947 8:-0.21875 9:0.375 10:0.300971 11:0.0947368 12:-0.21875 13:0.419355 14:0.384615 15:0.108696 16:-0.186441 17:0.375 18:0.398058 19:0.060241 20:-0.235772 21:0.507692 22:0.398058 23:0.2 24:-0.104 25:0.375 26:0.384615 27:0.172414 28:-0.183333 29:0.507692 30:0.425743 31:0.242105 32:-0.15625 33:0.375 34:0.398058 35:0.0526316 36:-0.21875 
10 1:0.5 2:0.309091 3:0.047619 4:-0.239669 5:0.419355 6:0.309091 7:0.136842 8:-0.21875 9:0.21875 10:0.320388 11:0.0526316 12:-0.21875 13:0.354839 14:0.403846 15:0.195652 16:-0.186441 17:0.3125 18:0.339806 19:0.156627 20:-0.284553 21:0.323077 22:0.339806 23:0.111111 24:-0.168 25:0.34375 26:0.384615 27:0.103448 28:-0.25 29:0.353846 30:0.425743 31:0.157895 32:-0.21875 33:0.34375 34:0.320388 35:0.0736842 36:-0.21875 
8.8748860965161445 1:0.5 2:0.363636 3:0.0952381 4:-0.173554 5:0.548387 6:0.290909 7:0.178947 8:-0.15625 9:0.375 10:0.456311 11:0.178947 12:-0.15625 13:0.419355 14:0.384615 15:0.108696 16:-0.118644 17:0.375 18:0.475728 19:0.253012 20:-0.235772 21:0.507692 22:0.398058 23:0.2 24:-0.104 25:0.5 26:0.538462 27:0.287356 28:-0.183333 29:0.384615 30:0.425743 31:0.136842 32:-0.09375 33:0.21875 34:0.398058 35:0.0526316 36:-0.21875 
6.888217957490645 1:0.5 2:0.363636 3:0.190476 4:-0.173554 5:0.548387 6:0.436364 7:0.0947368 8:-0.15625 9:0.5 10:0.456311 11:0.0947368 12:-0.21875 13:0.419355 14:0.384615 15:0.0217391 16:-0.186441 17:0.25 18:0.398058 19:0.156627 20:-0.284553 21:0.261538 22:0.242718 23:0.0222222 24:-0.216 25:0.375 26:0.307692 27:0.0804598 28:-0.25 29:0.507692 30:0.425743 31:0.136842 32:-0.15625 33:0.5 34:0.475728 35:0.136842 36:-0.15625 
2.2499258540407743 1:0.5 2:0.363636 3:0.404762 4:-0.107438 5:0.419355 6:0.363636 7:0.0947368 8:-0.15625 9:0.25 10:0.378641 11:0.0105263 12:-0.21875 13:0.548387 14:0.461538 15:0.304348 16:-0.118644 17:0.375 18:0.398058 19:0.156627 20:-0.235772 21:0.261538 22:0.320388 23:-0.0888889 24:-0.28 25:0.375 26:0.384615 27:0.172414 28:-0.25 29:0.230769 30:0.267327 31:-0.0947368 32:-0.34375 33:-0.03125 34:0.00970874 35:-0.431579 36:-0.484375 
2.53754650336385 1:0.5 2:0.381818 3:0.142857 4:-0.173554 5:0.419355 6:0.236364 7:0.0526316 8:-0.21875 9:0.21875 10:0.398058 11:-0.0315789 12:-0.21875 13:0.483871 14:0.326923 15:0.195652 16:-0.186441 17:0.4375 18:0.495146 19:0.253012 20:-0.235772 21:0.446154 22:0.339806 23:0.2 24:-0.168 25:0.34375 26:0.307692 27:0.0114943 28:-0.25 29:0.353846 30:0.346535 31:0.157895 32:-0.15625 33:0.34375 34:0.320388 35:0.0736842 36:-0.21875 
0.050783083359441893 1:0.5 2:0.381818 3:0.238095 4:-0.0909091 5:0.548387 6:0.381818 7:0.221053 8:-0.078125 9:0.5 10:0.553398 11:0.221053 12:-0.078125 13:0.258065 14:0.230769 15:0.0217391 16:-0.220339 17:0.5 18:0.553398 19:0.277108 20:-0.138211 21:0.507692 22:0.553398 23:0.4 24:-0.072 25:-0.71875 26:-0.692308 27:0.471264 28:0.283333 29:-0.169231 30:-0.128713 31:0.0526316 32:-0.125 33:0.3125 34:0.339806 35:0.136842 36:-0.1875 
1.3811143829798622 1:0.5 2:0.381818 3:0.238095 4:-0.0909091 5:0.548387 6:0.454545 7:0.221053 8:-0.078125 9:0.5 10:0.553398 11:0.326316 12:-0.125 13:0.548387 14:0.538462 15:0.217391 16:-0.0847458 17:0.5 18:0.553398 19:0.373494 20:-0.138211 21:0.507692 22:0.553398 23:0.311111 24:-0.072 25:-0.1875 26:-0.153846 27:0.0804598 28:-0.15 29:0.323077 30:0.366337 31:0.136842 32:-0.1875 33:0.5625 34:0.495146 35:0.221053 36:-0.125 
3.0446835466981343 1:0.5 2:0.381818 3:0.238095 4:-0.140496 5:0.548387 6:0.381818 7:0.326316 8:-0.125 9:0.5 10:0.398058 11:0.136842 12:-0.125 13:0.419355 14:0.461538 15:0.108696 16:-0.152542 17:0.375 18:0.398058 19:0.277108 20:-0.203252 21:0.384615 22:0.475728 23:0.2 24:-0.136 25:0.3125 26:0.403846 27:0.172414 28:-0.216667 29:0.446154 30:0.445545 31:0.136842 32:-0.1875 33:0.3125 34:0.339806 35:0.0526316 36:-0.1875 
1.8607158762445752 1:0.5 2:0.381818 3:0.357143 4:-0.107438 5:0.419355 6:0.381818 7:0.136842 8:-0.15625 9:0.375 10:0.475728 11:0.136842 12:-0.15625 13:0.612903 14:0.576923 15:0.282609 16:-0.0508475 17:0.4375 18:0.592233 19:0.253012 20:-0.105691 21:0.446154 22:0.495146 23:0.288889 24:-0.104 25:0.46875 26:0.461538 27:0.195402 28:-0.133333 29:0.476923 30:0.60396 31:0.263158 32:-0.109375 33:0.46875 34:0.650485 35:0.347368 36:-0.046875 
1.4917831563347157 1:0.5 2:0.381818 3:0.357143 4:-0.140496 5:0.548387 6:0.381818 7:0.221053 8:-0.078125 9:0.625 10:0.553398 11:0.326316 12:-0.078125 13:0.548387 14:0.538462 15:0.217391 16:-0.0847458 17:0.5 18:0.475728 19:0.277108 20:-0.138211 21:0.507692 22:0.631068 23:0.311111 24:-0.072 25:0.4375 26:0.480769 27:0.356322 28:-0.15 29:0.446154 30:0.524752 31:0.221053 32:-0.0625 33:0.4375 34:0.592233 35:0.136842 36:-0.125 
2.0850610166516081 1:0.5 2:0.381818 3:0.357143 4:-0.140496 5:0.548387 6:0.454545 7:0.326316 8:-0.125 9:0.375 10:0.475728 11:0.136842 12:-0.1875 13:0.548387 14:0.538462 15:0.304348 16:-0.0847458 17:0.5 18:0.475728 19:0.277108 20:-0.138211 21:0.507692 22:0.475728 23:0.2 24:-0.2 25:0.5625 26:0.480769 27:0.356322 28:-0.0833333 29:0.446154 30:0.445545 31:0.221053 32:-0.0625 33:0.4375 34:0.495146 35:0.221053 36:-0.0625 
10 1:0.5 2:0.381818 3:0.357143 4:-0.173554 5:0.419355 6:0.381818 7:0.136842 8:-0.15625 9:0.375 10:0.398058 11:0.242105 12:-0.15625 13:0.354839 14:0.403846 15:0.108696 16:-0.186441 17:0.3125 18:0.417476 19:0.156627 20:-0.235772 21:0.446154 22:0.417476 23:0.2 24:-0.168 25:0.21875 26:0.307692 27:0.195402 28:-0.25 29:0.353846 30:0.425743 31:0.157895 32:-0.15625 33:0.46875 34:0.398058 35:0.157895 36:-0.15625 
10 1:0.5 2:0.436364 3:0.190476 4:-0.107438 5:0.419355 6:0.436364 7:0.178947 8:-0.09375 9:0.375 10:0.456311 11:0.284211 12:-0.15625 13:0.548387 14:0.384615 15:0.108696 16:-0.118644 17:0.375 18:0.398058 19:0.156627 20:-0.170732 21:0.384615 22:0.398058 23:0.2 24:-0.168 25:0.375 26:0.461538 27:0.172414 28:-0.183333 29:0.507692 30:0.425743 31:0.0526316 32:-0.21875 33:0.375 34:0.398058 35:0.136842 36:-0.21875 
1.8992408854194403 1:0.5 2:0.436364 3:0.190476 4:-0.107438 5:0.548387 6:0.527273 7:0.368421 8:-0.15625 9:0.625 10:0.631068 11:0.368421 12:-0.03125 13:0.677419 14:0.538462 15:0.304348 16:-0.0677966 17:0.5 18:0.553398 19:0.373494 20:-0.121951 21:0.507692 22:0.553398 23:0.4 24:-0.056 25:0.5 26:0.615385 27:0.287356 28:-0.116667 29:0.661538 30:0.584158 31:0.326316 32:-0.015625 33:0.65625 34:0.553398 35:0.242105 36:-0.09375 
3.9631137258710325 1:0.5 2:0.454545 3:0.238095 4:-0.140496 5:0.548387 6:0.454545 7:0.326316 8:-0.125 9:0.375 10:0.475728 11:0.221053 12:-0.125 13:0.548387 14:0.461538 15:0.304348 16:-0.0847458 17:0.375 18:0.475728 19:0.156627 20:-0.203252 21:0.384615 22:0.475728 23:0.2 24:-0.136 25:0.5625 26:0.576923 27:0.356322 28:-0.0833333 29:0.446154 30:0.623762 31:0.221053 32:-0.0625 33:0.4375 34:0.495146 35:0.221053 36:-0.125 
1.2954403749980397 1:0.5 2:0.454545 3:0.261905 4:-0.107438 5:0.548387 6:0.454545 7:0.242105 8:-0.09375 9:0.5 10:0.553398 11:0.136842 12:-0.15625 13:0.612903 14:0.480769 15:0.195652 16:-0.118644 17:0.4375 18:0.495146 19:0.253012 20:-0.170732 21:0.446154 22:0.495146 23:0.2 24:-0.104 25:0.46875 26:0.384615 27:0.195402 28:-0.183333 29:0.476923 30:0.50495 31:0.263158 32:-0.109375 33:0.46875 34:0.475728 35:0.263158 36:-0.109375 
0.10554896335706816 1:0.5 2:0.454545 3:0.261905 4:-0.107438 5:0.548387 6:0.454545 7:0.326316 8:-0.09375 9:0.5 10:0.553398 11:0.242105 12:-0.09375 13:-0.16129 14:-0.153846 15:0.0217391 16:-0.118644 17:0.3125 18:0.339806 19:0.156627 20:-0.235772 21:0.569231 22:0.495146 23:0.288889 24:-0.104 25:-0.625 26:-0.538462 27:0.310345 28:0.0666667 29:0.107692 30:0.128713 31:0.0736842 32:-0.21875 33:0.46875 34:0.398058 35:0.157895 36:-0.15625 
1.4822810020667536 1:0.5 2:0.454545 3:0.357143 4:-0.0247934 5:0.709677 6:0.527273 7:0.431579 8:-0.09375 9:0.5 10:0.553398 11:0.242105 12:-0.09375 13:0.612903 14:0.653846 15:0.5 16:0.0677966 17:0.5625 18:0.669903 19:0.349398 20:-0.0569106 21:0.569231 22:0.669903 23:0.377778 24:0.008 25:0.625 26:0.557692 27:0.517241 28:-0.0666667 29:0.630769 30:0.50495 31:0.157895 32:-0.15625 33:0.34375 34:0.398058 35:0.0736842 36:-0.15625 
3.9954834719506684 1:0.5 2:0.454545 3:0.357143 4:-0.0909091 5:0.548387 6:0.454545 7:0.221053 8:-0.125 9:0.5 10:0.553398 11:0.136842 12:-0.078125 13:0.709677 14:0.615385 15:0.217391 16:-0.0847458 17:0.65625 18:0.631068 19:0.277108 20:-0.138211 21:0.661538 22:0.553398 23:0.4 24:0.008 25:0.4375 26:0.576923 27:0.356322 28:-0.0833333 29:0.569231 30:0.70297 31:0.305263 32:-0.015625 33:0.5625 34:0.669903 35:0.305263 36:-0.0625 
4.246131757154755 1:0.5 2:0.454545 3:0.357143 4:-0.107438 5:0.548387 6:0.454545 7:0.326316 8:-0.09375 9:0.5 10:0.553398 11:0.242105 12:-0.15625 13:0.612903 14:0.576923 15:0.282609 17:0.4375 18:0.592233 19:0.253012 20:-0.105691 21:0.446154 22:0.592233 23:0.377778 24:-0.04 25:0.625 26:0.557692 27:0.310345 28:-0.0666667 29:0.630769 30:0.60396 31:0.263158 32:-0.046875 33:0.46875 34:0.572816 35:0.263158 36:-0.109375 
0.34783387189391407 1:0.5 2:0.454545 3:0.47619 4:-0.0247934 5:0.548387 6:0.454545 7:0.431579 8:-0.015625 9:0.5 10:0.650485 11:0.326316 12:-0.078125 13:0.419355 14:0.461538 15:0.217391 16:-0.152542 17:0.5 18:0.553398 19:0.373494 20:-0.138211 21:0.507692 22:0.553398 23:0.2 24:-0.072 25:0.4375 26:0.403846 27:0.264368 28:-0.15 29:0.569231 30:0.524752 31:0.305263 32:-0.125 33:0.4375 34:0.495146 35:0.221053 36:-0.125 
0.64061733987565772 1:0.5 2:0.454545 3:0.47619 4:-0.0909091 5:0.548387 6:0.454545 7:0.326316 8:-0.078125 9:0.5 10:0.553398 11:0.221053 12:-0.125 13:0.548387 14:0.538462 15:0.304348 16:-0.0847458 17:0.65625 18:0.631068 19:0.277108 20:-0.138211 21:0.661538 22:0.631068 23:0.311111 24:-0.072 25:0.5625 26:0.576923 27:0.356322 28:-0.0833333 29:0.446154 30:0.623762 31:0.305263 32:-0.0625 33:0.5625 34:0.669903 35:0.305263 36:-0.015625 
0.8682234148418253 1:0.5 2:0.527273 3:0.309524 4:-0.107438 5:0.677419 6:0.436364 7:0.284211 8:-0.09375 9:0.5 10:0.533981 11:0.284211 12:-0.09375 13:0.548387 14:0.538462 15:0.413043 16:-0.0677966 17:0.5 18:0.553398 19:0.373494 20:-0.121951 21:0.507692 22:0.553398 23:0.288889 24:-0.104 25:0.5 26:0.538462 27:0.37931 28:-0.116667 29:0.661538 30:0.663366 31:0.242105 32:-0.09375 33:0.65625 34:0.631068 35:0.242105 36:-0.09375 
5.9846412189100082 1:0.5 2:0.527273 3:0.309524 4:-0.107438 5:0.677419 6:0.436364 7:0.368421 8:-0.03125 9:0.5 10:0.456311 11:0.284211 12:-0.15625 13:0.548387 14:0.538462 15:0.304348 16:-0.0677966 17:0.5 18:0.475728 19:0.253012 20:-0.170732 21:0.384615 22:0.320388 23:0.111111 24:-0.104 25:0.5 26:0.538462 27:0.287356 28:-0.116667 29:0.507692 30:0.346535 31:0.136842 32:-0.15625 33:0.375 34:0.398058 35:0.0526316 36:-0.21875 
0.88803769877123839 1:0.5 2:0.527273 3:0.309524 4:0.00826446 5:0.677419 6:0.527273 7:0.368421 8:0.015625 9:0.625 10:0.456311 11:0.368421 12:-0.09375 13:0.419355 14:0.461538 15:0.195652 16:-0.0677966 17:0.625 18:0.553398 19:0.253012 20:-0.170732 21:0.507692 22:0.475728 23:0.2 24:-0.168 25:0.375 26:0.384615 27:0.172414 28:-0.25 29:0.661538 30:0.584158 31:0.242105 32:-0.09375 33:0.375 34:0.475728 35:0.242105 36:-0.21875 
1.411007801863446 1:0.5 2:0.527273 3:0.357143 4:-0.107438 5:0.548387 6:0.454545 7:0.242105 8:-0.15625 9:0.375 10:0.475728 11:0.242105 12:-0.15625 13:0.774194 14:0.653846 15:0.282609 17:0.4375 18:0.495146 19:0.253012 20:-0.170732 21:0.446154 22:0.417476 23:0.288889 24:-0.168 25:0.625 26:0.384615 27:0.103448 28:-0.183333 29:0.353846 30:0.346535 31:0.0736842 32:-0.21875 33:0.09375 34:0.242718 35:-0.0947368 36:-0.328125 
0.1512125272558863 1:0.5 2:0.527273 3:0.404762 4:-0.0413223 5:0.548387 6:0.363636 7:0.284211 8:-0.09375 9:0.375 10:0.533981 11:0.284211 12:-0.03125 13:0.419355 14:0.538462 15:0.304348 16:-0.0677966 17:0.375 18:0.650485 19:0.373494 20:-0.121951 21:0.507692 22:0.553398 23:0.4 24:-0.056 25:0.375 26:0.615385 27:0.37931 28:-0.0333333 29:0.384615 30:0.663366 31:0.431579 32:-0.015625 33:0.65625 34:0.631068 35:0.326316 36:-0.015625 
0.44591683986513286 1:0.5 2:0.527273 3:0.404762 4:-0.0413223 5:0.677419 6:0.6 7:0.368421 8:0.015625 9:0.625 10:0.533981 11:0.284211 12:-0.09375 13:0.677419 14:0.634615 15:0.413043 16:-0.0677966 17:0.5 18:0.398058 19:0.156627 20:-0.121951 21:0.261538 22:0.398058 23:0.2 24:-0.168 25:0.5 26:0.538462 27:0.287356 28:-0.116667 29:0.384615 30:0.425743 31:0.136842 32:-0.21875 33:0.375 34:0.398058 35:0.136842 36:-0.21875 
0.47061707467211922 1:0.5 2:0.527273 3:0.404762 4:-0.107438 5:0.548387 6:0.527273 7:0.368421 8:-0.09375 9:0.625 10:0.631068 11:0.368421 12:-0.09375 13:0.548387 14:0.538462 15:0.304348 16:-0.118644 17:0.5 18:0.553398 19:0.373494 20:-0.121951 21:0.630769 22:0.475728 23:0.4 24:-0.056 25:0.5 26:0.615385 27:0.494253 28:-0.0333333 29:0.507692 30:0.584158 31:0.326316 32:-0.015625 33:0.65625 34:0.631068 35:0.431579 36:-0.09375 
3.5319389423224701 1:0.5 2:0.545455 3:0.357143 4:-0.0909091 5:0.548387 6:0.381818 7:0.326316 8:-0.078125 9:0.5 10:0.475728 11:0.221053 12:-0.125 13:0.548387 14:0.538462 15:0.108696 16:-0.0847458 17:0.5 18:0.553398 19:0.277108 20:-0.203252 21:0.384615 22:0.398058 23:0.311111 24:-0.136 25:0.4375 26:0.480769 27:0.264368 28:-0.15 29:0.446154 30:0.524752 31:0.221053 32:-0.125 33:0.4375 34:0.495146 35:0.221053 36:-0.125 
1.7070686130817063 1:0.5 2:0.545455 3:0.357143 4:-0.140496 5:0.419355 6:0.309091 7:0.221053 8:-0.125 9:0.375 10:0.475728 11:0.326316 12:-0.078125 13:0.419355 14:0.461538 15:0.217391 16:-0.0847458 17:0.375 18:0.475728 19:0.277108 20:-0.203252 21:0.507692 22:0.475728 23:0.311111 24:-0.072 25:0.4375 26:0.576923 27:0.356322 28:-0.0833333 29:0.323077 30:0.445545 31:0.136842 32:-0.125 33:0.3125 34:0.417476 35:0.136842 36:-0.125 
1.4061918451929174 1:0.5 2:0.8 3:0.97619 4:0.157025 5:0.548387 6:0.709091 7:0.747368 8:0.15625 9:0.625 10:0.825243 11:0.642105 12:0.15625 13:0.548387 14:0.903846 15:0.76087 16:0.20339 17:0.5 18:0.825243 19:0.73494 20:0.138211 21:0.661538 22:0.728155 23:0.622222 24:0.072 25:0.4375 26:0.942308 27:0.83908 28:0.216667 29:0.569231 30:0.90099 31:0.621053 32:0.15625 33:0.5625 34:0.76699 35:0.515789 36:0.046875 
1.1279257735669357 1:0.53125 2:0.436364 3:0.380952 4:-0.107438 5:0.451613 6:0.436364 7:0.263158 8:-0.15625 9:0.40625 10:0.359223 11:0.157895 12:-0.265625 13:0.548387 14:0.365385 15:0.152174 16:-0.220339 17:0.375 18:0.378641 19:0.0120482 20:-0.268293 21:0.261538 22:0.203883 23:-0.0222222 24:-0.248 25:0.375 26:0.307692 27:-0.0114943 28:-0.266667 29:0.261538 30:0.188119 31:-0.136842 32:-0.296875 33:-0.125 34:0.0873786 35:-0.305263 36:-0.40625 
4.2533948841038507 1:0.53125 2:0.436364 3:0.380952 4:-0.107438 5:0.580645 6:0.436364 7:0.347368 8:-0.15625 9:0.3125 10:0.456311 11:0.157895 12:-0.15625 13:0.548387 14:0.442308 15:0.347826 16:-0.0847458 17:0.375 18:0.456311 19:0.108434 20:-0.203252 21:0.261538 22:0.378641 23:0.0666667 24:-0.2 25:0.5 26:0.461538 27:0.37931 28:-0.15 29:0.384615 30:0.425743 31:0.136842 32:-0.1875 33:0.25 34:0.320388 35:-0.136842 36:-0.296875 
3.3786466676055249 1:0.53125 2:0.781818 3:0.738095 4:0.173554 5:0.709677 6:0.781818 7:0.663158 8:0.171875 9:0.78125 10:0.902913 11:0.557895 12:0.125 13:0.548387 14:0.884615 15:0.565217 16:0.169492 17:0.625 18:0.805825 19:0.542169 20:0.0406504 21:0.784615 22:0.708738 23:0.555556 24:0.04 25:0.625 26:0.711538 27:0.586207 28:-0.0333333 29:0.630769 30:0.762376 31:0.431579 32:-0.015625 33:0.5 34:0.553398 35:0.326316 36:-0.078125 
2.5641675859245558 1:0.5625 2:0.327273 3:0.047619 4:-0.206612 5:0.483871 6:0.327273 7:0.221053 8:-0.1875 9:0.4375 10:0.417476 11:0.136842 12:-0.1875 13:0.387097 14:0.384615 15:0.0434783 16:-0.152542 17:0.34375 18:0.320388 19:-0.0120482 20:-0.268293 21:0.353846 22:0.320388 23:0.133333 24:-0.136 25:0.3125 26:0.346154 27:0.103448 28:-0.3 29:0.323077 30:0.386139 31:0.0736842 32:-0.203125 33:0.40625 34:0.456311 35:0.263158 36:-0.09375 
3.7603544479403337 1:0.5625 2:0.327273 3:0.238095 4:-0.206612 5:0.612903 6:0.4 7:0.221053 8:-0.125 9:0.5625 10:0.417476 11:0.0526316 12:-0.1875 13:0.516129 14:0.384615 15:0.0434783 16:-0.152542 17:0.46875 18:0.398058 19:0.180723 20:-0.203252 21:0.353846 22:0.398058 23:0.133333 24:-0.136 25:0.40625 26:0.442308 27:0.195402 28:-0.233333 29:0.415385 30:0.386139 31:0.0736842 32:-0.203125 33:0.3125 34:0.359223 35:0.0736842 36:-0.265625 
1.7755270152425446 1:0.625 2:0.363636 3:0.404762 4:-0.107438 5:0.548387 6:0.290909 7:0.178947 8:-0.21875 9:0.375 10:0.378641 11:0.178947 12:-0.21875 13:0.548387 14:0.461538 15:0.108696 16:-0.186441 17:0.375 18:0.320388 19:0.156627 20:-0.170732 21:0.261538 22:0.320388 23:0.0222222 24:-0.28 25:0.375 26:0.461538 27:0.287356 28:-0.25 29:0.384615 30:0.425743 31:0.0526316 32:-0.21875 33:0.375 34:0.320388 35:0.242105 36:-0.15625 
0.95680347777481978 1:0.625 2:0.436364 3:0.190476 4:-0.107438 5:0.548387 6:0.436364 7:0.368421 8:-0.09375 9:0.5 10:0.533981 11:0.178947 12:-0.09375 13:0.419355 14:0.461538 15:0.108696 16:-0.186441 17:0.375 18:0.475728 19:0.156627 20:-0.235772 21:0.507692 22:0.475728 23:0.2 24:-0.168 25:0.5 26:0.461538 27:0.172414 28:-0.25 29:0.230769 30:0.346535 31:0.0526316 32:-0.21875 33:0.21875 34:0.475728 35:0.0526316 36:-0.21875 
0.25022620509411803 1:0.625 2:0.454545 3:0.238095 4:-0.140496 5:0.419355 6:0.381818 7:0.326316 8:-0.1875 9:0.375 10:0.398058 11:0.136842 12:-0.125 13:0.419355 14:0.461538 15:0.108696 16:-0.152542 17:0.5 18:0.475728 19:0.156627 20:-0.203252 21:0.507692 22:0.475728 23:0.2 24:-0.072 25:0.5625 26:0.403846 27:0.172414 28:-0.15 29:0.569231 30:0.445545 31:0.221053 32:-0.1875 33:0.5625 34:0.495146 35:0.221053 36:-0.125 
0.13739677201483672 1:0.625 2:0.472727 3:0.285714 4:-0.0578512 5:0.516129 6:0.472727 7:0.263158 8:-0.046875 9:0.625 10:0.572816 11:0.263158 12:-0.109375 13:0.580645 14:0.519231 15:0.326087 16:-0.0847458 17:0.53125 18:0.533981 19:0.301205 20:-0.138211 21:0.538462 22:0.456311 23:0.333333 24:-0.072 25:0.5 26:0.519231 27:0.218391 28:-0.116667 29:0.507692 30:0.663366 31:0.368421 32:-0.15625 33:0.625 34:0.631068 35:0.368421 36:-0.03125 
0.82552991210085958 1:0.625 2:0.472727 3:0.285714 4:0.00826446 5:0.677419 6:0.472727 7:0.263158 8:-0.046875 9:0.34375 10:0.572816 11:0.347368 12:-0.109375 13:0.709677 14:0.788462 15:0.434783 16:0.0847458 17:0.53125 18:0.708738 19:0.39759 20:-0.138211 21:0.415385 22:0.631068 23:0.422222 24:-0.072 25:0.625 26:0.788462 27:0.54023 28:0.0666667 29:0.507692 30:0.841584 31:0.473684 32:-0.03125 33:0.375 34:0.631068 35:0.284211 36:-0.03125 
0.97974313153085946 1:0.625 2:0.527273 3:0.309524 4:-0.107438 5:0.548387 6:0.436364 7:0.178947 8:-0.15625 9:0.375 10:0.456311 11:0.178947 12:-0.15625 13:0.677419 14:0.538462 15:0.304348 16:-0.0677966 17:0.5 18:0.475728 19:0.373494 20:-0.170732 21:0.507692 22:0.475728 23:0.288889 24:-0.056 25:0.5 26:0.538462 27:0.172414 28:-0.183333 29:0.507692 30:0.584158 31:0.242105 32:-0.09375 33:0.5 34:0.475728 35:0.242105 36:-0.09375 
4.1716003373043309 1:0.625 2:0.545455 3:0.47619 4:-0.0909091 5:0.548387 6:0.454545 7:0.326316 8:-0.078125 9:0.5 10:0.475728 11:0.221053 12:-0.125 13:0.709677 14:0.615385 15:0.413043 17:0.5 18:0.553398 19:0.277108 20:-0.138211 21:0.507692 22:0.320388 23:0.2 24:-0.136 25:0.71875 26:0.653846 27:0.471264 28:0.0333333 29:0.446154 30:0.524752 31:0.221053 32:-0.0625 33:0.3125 34:0.339806 35:0.136842 36:-0.234375 
1.7719354779305261 1:0.625 2:0.6 3:0.404762 4:0.00826446 5:0.548387 6:0.527273 7:0.368421 8:-0.03125 9:0.5 10:0.456311 11:0.284211 12:-0.09375 13:0.548387 14:0.538462 15:0.304348 16:-0.0677966 17:0.375 18:0.553398 19:0.373494 20:-0.121951 21:0.384615 22:0.650485 23:0.4 24:-0.056 25:0.5 26:0.615385 27:0.37931 28:-0.0333333 29:0.384615 30:0.663366 31:0.326316 32:-0.015625 33:0.375 34:0.631068 35:0.431579 36:-0.015625 
6.2734617842135467 1:0.625 2:0.6 3:0.404762 4:0.00826446 5:0.677419 6:0.436364 7:0.284211 8:-0.09375 9:0.5 10:0.456311 11:0.178947 12:-0.15625 13:0.548387 14:0.384615 15:0.108696 16:-0.0677966 17:0.25 18:0.398058 19:0.156627 20:-0.235772 21:0.384615 22:0.475728 23:0.2 24:-0.168 25:0.375 26:0.384615 27:0.172414 28:-0.25 29:0.384615 30:0.425743 31:0.136842 32:-0.21875 33:0.5 34:0.398058 35:0.242105 36:-0.15625 
0.42768854458908551 1:0.625 2:0.618182 3:0.571429 4:0.0909091 5:0.548387 6:0.618182 7:0.515789 8:0.046875 9:0.375 10:0.553398 11:0.326316 12:-0.125 13:0.548387 14:0.615385 15:0.304348 17:0.5 18:0.475728 19:0.277108 20:-0.138211 21:0.384615 22:0.553398 23:0.4 24:-0.072 25:0.4375 26:0.576923 27:0.356322 28:-0.0333333 29:0.569231 30:0.70297 31:0.515789 32:-0.015625 33:0.5625 34:0.592233 35:0.305263 36:-0.015625 
0.73497586226586376 1:0.625 2:0.690909 3:0.642857 4:0.0743802 5:0.548387 6:0.690909 7:0.578947 8:0.078125 9:0.5 10:0.902913 11:0.705263 12:0.140625 13:0.548387 14:0.903846 15:0.869565 16:0.186441 17:0.5 18:0.825243 19:0.855422 20:0.121951 21:0.630769 22:0.825243 23:0.733333 24:0.184 25:0.5 26:0.903846 27:0.862069 28:0.166667 29:0.507692 30:0.861386 31:0.642105 32:0.171875 33:0.65625 34:0.728155 35:0.536842 36:0.046875 
0.58578635880105379 1:0.625 2:0.690909 3:0.642857 4:0.0743802 5:0.677419 6:0.6 7:0.368421 8:-0.09375 9:0.375 10:0.456311 11:0.0947368 12:-0.21875 13:0.83871 14:0.711538 15:0.5 16:0.0677966 17:0.625 18:0.475728 19:0.373494 20:-0.121951 21:0.384615 22:0.320388 23:0.0222222 24:-0.28 25:0.65625 26:0.615385 27:0.494253 28:0.0333333 29:0.384615 30:0.425743 31:0.242105 32:-0.15625 33:0.21875 34:0.242718 35:0.0526316 36:-0.28125 
2.0646122851561035 1:0.625 2:0.709091 3:0.714286 4:0.157025 5:0.548387 6:0.709091 7:0.642105 8:0.09375 9:0.625 10:0.728155 11:0.515789 12:0.09375 13:0.709677 14:0.711538 15:0.521739 16:0.0677966 17:0.5 18:0.631068 19:0.493976 20:-0.0569106 21:0.507692 22:0.631068 23:0.4 24:0.008 25:0.5625 26:0.75 27:0.586207 28:0.0333333 29:0.569231 30:0.623762 31:0.410526 32:-0.0625 33:0.4375 34:0.592233 35:0.305263 36:-0.015625 
0.64344184465004839 1:0.65625 2:0.436364 3:0.380952 4:-0.0578512 5:0.709677 6:0.527273 7:0.347368 8:-0.046875 9:0.78125 10:0.708738 11:0.347368 12:-0.046875 13:0.677419 14:0.615385 15:0.347826 16:-0.0169492 17:0.5 18:0.533981 19:0.325301 20:-0.0731707 21:0.507692 22:0.533981 23:0.355556 24:-0.072 25:0.625 26:0.634615 27:0.37931 28:-0.0333333 29:0.630769 30:0.584158 31:0.431579 32:-0.078125 33:0.5 34:0.475728 35:0.136842 36:-0.125 
1.6293054258251025 1:0.65625 2:0.436364 3:0.380952 4:0.00826446 5:0.580645 6:0.272727 7:0.0736842 8:-0.203125 9:0.40625 10:0.359223 11:0.157895 12:-0.203125 13:0.548387 14:0.442308 15:0.152174 16:-0.152542 17:0.5 18:0.456311 19:0.204819 20:-0.203252 21:0.507692 22:0.378641 23:0.244444 24:-0.2 25:0.375 26:0.461538 27:0.172414 28:-0.216667 29:0.384615 30:0.50495 31:0.136842 32:-0.125 33:0.375 34:0.398058 35:0.136842 36:-0.1875 
2.2991552815413967 1:0.65625 2:0.527273 3:0.357143 4:-0.0247934 5:0.548387 6:0.527273 7:0.242105 8:-0.09375 9:0.5 10:0.553398 11:0.242105 12:-0.09375 13:0.774194 14:0.653846 15:0.5 17:0.71875 18:0.669903 19:0.349398 20:-0.105691 21:0.723077 22:0.669903 23:0.377778 24:-0.04 25:0.625 26:0.634615 27:0.517241 28:-0.0666667 29:0.630769 30:0.683168 31:0.347368 32:-0.046875 33:0.625 34:0.650485 35:0.347368 36:-0.046875 
0.058785726944871095 1:0.65625 2:0.527273 3:0.380952 4:-0.0578512 5:0.709677 6:0.6 7:0.347368 8:0.015625 9:0.65625 10:0.631068 11:0.347368 12:0.015625 13:0.677419 14:0.788462 15:0.565217 16:0.101695 17:0.625 18:0.708738 19:0.421687 20:-0.138211 21:0.384615 22:0.456311 23:0.155556 24:-0.2 25:0.78125 26:0.711538 27:0.586207 28:0.0333333 29:0.630769 30:0.50495 31:0.326316 32:-0.078125 33:0.375 34:0.320388 35:-0.0315789 36:-0.296875 
4.6794772307981267 1:0.65625 2:0.527273 3:0.380952 4:0.00826446 5:0.580645 6:0.363636 7:0.263158 8:-0.09375 9:0.40625 10:0.359223 11:0.263158 12:-0.15625 13:0.419355 14:0.442308 15:0.0652174 16:-0.220339 17:0.25 18:0.300971 19:-0.0843373 20:-0.317073 21:0.261538 22:0.300971 23:0.0666667 24:-0.2 25:0.375 26:0.307692 27:-0.0114943 28:-0.333333 29:0.261538 30:0.346535 31:-0.0315789 32:-0.296875 33:0.375 34:0.320388 35:0.0526316 36:-0.1875 
2.5274412274147848 1:0.65625 2:0.6 3:0.380952 4:-0.0578512 5:0.709677 6:0.527273 7:0.452632 8:-0.046875 9:0.53125 10:0.631068 11:0.347368 12:-0.09375 13:0.677419 14:0.615385 15:0.26087 16:-0.0847458 17:0.5 18:0.533981 19:0.204819 20:-0.203252 21:0.384615 22:0.456311 23:0.244444 24:-0.136 25:0.625 26:0.538462 27:0.37931 28:-0.1 29:0.507692 30:0.50495 31:0.326316 32:-0.125 33:0.5 34:0.475728 35:0.221053 36:-0.078125 
0.57140712857104348 1:0.65625 2:0.6 3:0.5 4:0.00826446 5:0.580645 6:0.6 7:0.452632 8:-0.046875 9:0.53125 10:0.708738 11:0.347368 12:0.015625 13:0.548387 14:0.615385 15:0.347826 16:-0.0169492 17:0.5 18:0.456311 19:0.325301 20:-0.138211 21:0.384615 22:0.533981 23:0.355556 24:-0.008 25:0.375 26:0.538462 27:0.37931 28:-0.1 29:0.384615 30:0.683168 31:0.326316 32:-0.078125 33:0.5 34:0.553398 35:0.326316 36:-0.078125 
0.38231146973951602 1:0.65625 2:0.6 3:0.619048 4:0.123967 5:0.709677 6:0.781818 7:0.789474 8:0.171875 9:0.65625 10:1 11:0.663158 12:0.125 13:0.548387 14:0.884615 15:0.695652 16:0.169492 17:0.5 18:0.902913 19:0.927711 20:0.219512 21:0.507692 22:0.902913 23:0.911111 24:0.216 25:0.625 26:0.807692 27:0.724138 28:0.15 29:0.507692 30:0.861386 31:0.642105 32:0.09375 33:0.625 34:0.728155 35:0.515789 36:0.09375 
0.57656399901236266 1:0.71875 2:0.563636 3:0.452381 4:0.0413223 5:0.483871 6:0.4 7:0.221053 8:-0.0625 9:0.3125 10:0.339806 11:0.136842 12:-0.234375 13:0.677419 14:0.384615 15:0.130435 16:-0.101695 17:0.34375 18:0.398058 19:0.0843373 20:-0.333333 21:0.230769 22:0.242718 23:0.0444444 24:-0.264 25:0.3125 26:0.173077 27:-0.172414 28:-0.35 29:0.2 30:0.287129 31:-0.0947368 32:-0.203125 33:0.1875 34:0.262136 35:0.0736842 36:-0.265625 
4.4885974217462232 1:0.75 2:0.636364 3:0.5 4:0.00826446 5:0.677419 6:0.636364 7:0.347368 8:-0.046875 9:0.625 10:0.572816 11:0.157895 12:-0.109375 13:0.709677 14:0.615385 15:0.326087 16:-0.0847458 17:0.53125 18:0.533981 19:0.301205 20:-0.138211 21:0.415385 22:0.359223 23:0.222222 24:-0.184 25:0.25 26:0.519231 27:0.218391 28:-0.25 29:0.261538 30:0.564356 31:0.0947368 32:-0.21875 33:0.25 34:0.378641 35:0.0105263 36:-0.265625 
0.55016477371708794 1:0.78125 2:0.6 3:0.5 4:0.0578512 5:0.580645 6:0.690909 7:0.557895 8:0.0625 9:0.65625 10:0.708738 11:0.557895 12:0.125 13:0.677419 14:0.788462 15:0.565217 16:0.101695 17:0.5 18:0.805825 19:0.662651 20:0.0406504 21:0.507692 22:0.902913 23:0.8 24:0.168 25:0.5 26:0.903846 27:0.977011 28:0.15 29:0.507692 30:0.861386 31:0.747368 32:0.15625 33:0.625 34:0.825243 35:0.642105 36:0.15625 
2.6315691128066918 1:0.78125 2:0.6 3:0.52381 4:0.00826446 5:0.677419 6:0.6 7:0.368421 8:0.015625 9:0.5 10:0.631068 11:0.368421 12:-0.03125 13:0.548387 14:0.538462 15:0.304348 16:-0.0677966 17:0.5 18:0.553398 19:0.373494 20:-0.121951 21:0.384615 22:0.553398 23:0.4 24:-0.056 25:0.5 26:0.615385 27:0.37931 28:-0.0333333 29:0.507692 30:0.663366 31:0.326316 32:-0.015625 33:0.375 34:0.631068 35:0.326316 36:-0.015625 
1.4685738434900977 1:0.78125 2:0.6 3:0.619048 4:0.00826446 5:0.83871 6:0.6 7:0.452632 8:0.015625 9:0.65625 10:0.708738 11:0.347368 12:-0.046875 13:0.677419 14:0.692308 15:0.456522 16:0.0338983 17:0.5 18:0.533981 19:0.325301 20:-0.138211 21:0.384615 22:0.300971 23:0.155556 24:-0.248 25:0.375 26:0.307692 27:-0.0114943 28:-0.266667 29:0.261538 30:0.267327 31:-0.0315789 32:-0.234375 33:0.125 34:0.165049 35:-0.0315789 36:-0.296875 
0.54607514278544256 1:0.78125 2:0.6 3:0.619048 4:0.123967 5:0.709677 6:0.690909 7:0.557895 8:0.0625 9:0.65625 10:0.805825 11:0.452632 12:0.0625 13:0.548387 14:0.692308 15:0.565217 16:0.101695 17:0.78125 18:0.805825 19:0.542169 20:0.105691 21:0.630769 22:0.805825 23:0.555556 24:0.104 25:0.125 26:0.384615 27:0.172414 28:-0.15 29:0.630769 30:0.762376 31:0.515789 32:0.09375 33:0.625 34:0.728155 35:0.515789 36:0.046875 
0.10793996368806016 1:0.84375 2:0.654545 3:0.690476 4:0.107438 5:0.903226 6:0.654545 7:0.410526 8:0.046875 9:0.71875 10:0.669903 11:0.305263 12:-0.015625 13:0.806452 14:0.634615 15:0.326087 16:-0.0338983 17:0.46875 18:0.475728 19:0.180723 20:-0.154472 21:0.630769 22:0.572816 23:0.422222 24:-0.024 25:-0.0625 26:0.0961538 27:-0.264368 28:-0.483333 29:0.415385 30:0.485149 31:0.157895 32:-0.15625 33:0.78125 34:0.708738 35:0.557895 36:0.125 
0.48935485174866783 2:-0.0181818 3:0.0952381 4:-0.107438 5:0.290323 6:0.218182 7:0.284211 8:-0.03125 9:0.375 10:0.533981 11:0.284211 12:-0.03125 13:0.419355 14:0.538462 15:0.413043 16:0.0677966 17:0.375 18:0.650485 19:0.493976 20:0.00813008 21:0.630769 22:0.728155 23:0.733333 24:0.184 25:0.09375 26:0.384615 27:0.287356 28:0.0333333 29:0.107692 30:0.425743 31:0.326316 32:-0.015625 33:0.09375 34:0.553398 35:0.326316 36:-0.015625 
4.513531540978156 1:-0.03125 2:-0.0909091 3:-0.119048 4:-0.239669 6:-0.163636 7:-0.0947368 8:-0.21875 9:-0.15625 10:-0.106796 11:-0.157895 12:-0.28125 13:-0.0322581 14:0.0961538 15:-0.0434783 16:-0.20339 17:-0.0625 18:-0.0679612 19:-0.108434 20:-0.317073 21:-0.138462 22:-0.0679612 23:-0.133333 24:-0.248 26:0.0384615 27:-0.149425 28:-0.3 29:0.0153846 30:0.0693069 31:0.0105263 32:-0.21875 34:0.126214 35:-0.0736842 36:-0.15625 
5.0619563382488 1:-0.03125 2:-0.163636 3:-0.119048 4:-0.239669 5:-0.129032 6:-0.163636 7:-0.157895 8:-0.28125 9:-0.15625 10:-0.106796 11:-0.157895 12:-0.28125 13:-0.0322581 14:-0.0769231 15:-0.130435 16:-0.271186 17:-0.15625 18:-0.0679612 19:-0.204819 20:-0.317073 21:-0.138462 22:-0.0679612 23:-0.133333 24:-0.184 26:0.0384615 27:0.0344828 28:-0.25 29:0.0153846 30:0.148515 31:-0.0736842 32:-0.15625 33:0.25 34:0.300971 35:0.0947368 36:-0.15625 
0.45241886903389084 1:-0.0625 2:-0.2 3:-0.571429 4:-0.586777 5:-0.258065 6:-0.272727 7:-0.494737 8:-0.546875 9:-0.375 10:-0.223301 11:-0.642105 12:-0.59375 13:0.0322581 14:0.0384615 15:-0.108696 16:-0.457627 17:-0.25 18:-0.184466 19:-0.638554 20:-0.626016 21:-0.446154 22:-0.456311 23:-0.777778 24:-0.728 25:-0.03125 27:-0.310345 28:-0.45 29:-0.107692 30:-0.049505 31:-0.389474 32:-0.46875 33:-0.25 34:-0.281553 35:-0.557895 36:-0.578125 
4.7068410607230042 1:-0.15625 2:-0.163636 3:-0.190476 4:-0.305785 5:-0.129032 6:-0.163636 7:-0.157895 8:-0.28125 9:-0.28125 10:-0.165049 11:-0.242105 12:-0.28125 13:-0.129032 14:-0.0769231 15:-0.217391 16:-0.271186 17:-0.15625 18:-0.0679612 19:-0.204819 20:-0.252033 21:-0.138462 22:0.00970874 23:-0.0444444 24:-0.248 26:0.115385 27:-0.0574713 28:-0.183333 29:0.261538 30:0.326733 31:0.0947368 32:-0.15625 33:0.25 34:0.300971 35:0.0947368 36:-0.15625 
0.1081011237934065 1:-0.25 2:-0.2 3:0.238095 4:0.0413223 5:-0.0967742 6:-0.127273 7:0.221053 8:0.046875 9:-0.03125 10:0.165049 11:0.221053 12:-0.078125 13:-0.129032 14:0.153846 15:0.304348 16:0.0677966 17:-0.15625 18:0.320388 19:0.277108 20:-0.0569106 21:0.107692 22:0.398058 23:0.2 24:-0.136 25:-0.1875 26:0.0769231 27:0.264368 28:0.0333333 29:-0.169231 30:0.188119 31:0.136842 32:-0.0625 33:-0.28125 34:0.165049 35:0.136842 36:-0.0625 
0.49306765154958376 1:-0.28125 2:-0.272727 3:0.238095 4:0.0413223 5:-0.0322581 6:-0.127273 7:0.136842 8:-0.125 9:0.0625 10:0.165049 11:-0.115789 12:-0.234375 13:-0.258065 14:-0.25 15:-0.0434783 16:0.0338983 17:-0.15625 18:-0.0291262 19:0.301205 20:-0.0894309 21:0.107692 22:0.242718 23:0.0444444 24:-0.2 25:-0.28125 26:-0.153846 27:0.103448 28:-0.0666667 29:-0.138462 30:-0.049505 31:0.157895 32:-0.046875 33:0.0625 34:0.184466 35:0.157895 36:-0.15625 
5.0710361730090519 1:-0.28125 2:-0.290909 3:-0.380952 4:-0.421488 5:-0.258065 6:-0.218182 7:-0.326316 8:-0.390625 9:-0.15625 10:-0.106796 11:-0.242105 12:-0.328125 13:-0.0322581 15:-0.217391 16:-0.20339 17:-0.0625 18:0.106796 19:-0.204819 20:-0.365854 21:-0.0461538 22:0.00970874 23:-0.222222 24:-0.296 25:0.25 26:0.365385 27:0.126437 28:-0.116667 29:0.138462 30:0.326733 31:0.0105263 32:-0.15625 33:0.125 34:0.203883 35:0.0105263 36:-0.15625 
0.19348164831636405 1:-0.28125 2:0.0363636 3:-0.0238095 4:-0.22314 5:-0.0322581 6:0.109091 7:0.157895 8:-0.09375 9:0.0625 10:0.262136 11:0.347368 12:0.015625 13:-0.451613 14:-0.115385 15:-0.282609 16:-0.338983 17:-0.25 18:0.126214 19:0.0120482 20:-0.268293 21:-0.230769 22:0.126214 23:0.155556 24:-0.008 25:-0.375 26:-0.288462 27:-0.126437 28:-0.216667 29:-0.353846 30:-0.049505 31:-0.0315789 32:-0.234375 33:-0.25 34:-0.203883 35:0.136842 36:-0.078125 
0.25236035218675384 1:-0.375 2:-0.363636 3:-0.47619 4:-0.289256 5:-0.225806 6:-0.163636 7:-0.157895 8:-0.265625 9:0.25 10:0.300971 11:0.178947 12:-0.15625 13:-0.483871 14:-0.346154 15:-0.26087 16:-0.237288 17:-0.03125 18:0.00970874 19:0.060241 20:-0.235772 21:0.261538 22:0.320388 23:0.111111 24:-0.104 25:0.09375 26:0.0769231 27:-0.0114943 28:-0.25 29:0.384615 30:0.425743 31:0.136842 32:-0.15625 33:0.375 34:0.398058 35:0.136842 36:-0.15625 
0.6931516930936773 1:-0.5 2:-0.327273 3:-0.166667 4:-0.206612 5:-0.580645 6:-0.327273 7:-0.305263 8:-0.234375 9:-0.5 10:-0.203883 11:-0.221053 12:-0.296875 13:-0.387097 14:-0.0769231 15:-0.0652174 16:-0.288136 17:-0.40625 18:-0.0679612 19:-0.204819 20:-0.333333 21:-0.384615 22:0.00970874 23:-0.133333 24:-0.328 25:-0.40625 26:0.153846 27:-0.0114943 28:-0.216667 29:-0.261538 30:0.108911 31:-0.115789 32:-0.296875 33:-0.40625 34:0.0873786 35:-0.0315789 36:-0.296875 
0.077633371191659153 1:0.09375 2:0.163636 3:-0.119048 4:-0.355372 5:0.129032 6:0.0363636 7:-0.0947368 8:-0.328125 9:0.09375 10:0.106796 11:-0.157895 12:-0.390625 13:-0.258065 14:-0.153846 15:-0.456522 16:-0.576271 17:-0.15625 18:-0.145631 19:-0.46988 20:-0.609756 21:-0.138462 22:-0.0679612 23:-0.288889 24:-0.472 25:-0.25 26:-0.326923 27:-0.586207 28:-0.733333 29:-0.353846 30:-0.306931 31:-0.642105 32:-0.671875 33:-0.375 34:-0.320388 35:-0.642105 36:-0.609375 
3.7533279282831615 1:0.125 2:-0.0181818 3:-0.285714 4:-0.355372 5:0.0322581 6:-0.0181818 7:-0.157895 8:-0.328125 10:-0.0291262 11:-0.157895 12:-0.328125 13:0.290323 14:0.153846 15:0.0217391 16:-0.305085 17:-0.03125 18:-0.0679612 19:-0.253012 20:-0.349593 21:-0.230769 22:-0.145631 23:-0.177778 24:-0.216 25:0.21875 26:0.230769 27:-0.0114943 28:-0.316667 29:-0.0153846 30:-0.049505 31:-0.0947368 32:-0.21875 33:-0.15625 34:-0.203883 35:-0.0947368 36:-0.21875 
4.510216263833235 1:0.125 2:0.127273 4:-0.239669 5:-0.0967742 6:-0.163636 7:-0.157895 8:-0.21875 9:-0.25 10:-0.242718 11:-0.157895 12:-0.21875 13:0.290323 14:0.307692 15:0.0217391 16:-0.186441 17:0.125 18:0.0873786 19:-0.0361446 20:-0.235772 21:-0.107692 22:-0.0679612 23:-0.266667 24:-0.168 25:0.09375 26:0.153846 27:-0.0114943 28:-0.316667 29:0.230769 30:0.267327 31:-0.0315789 32:-0.21875 33:0.21875 34:0.242718 35:-0.0315789 36:-0.28125 
0.011050771909980932 1:0.21875 2:0.309091 3:0.261905 4:-0.173554 6:-0.127273 7:-0.0947368 8:-0.21875 9:-0.65625 10:-0.533981 11:-0.347368 12:-0.21875 13:-0.0322581 14:0.153846 15:0.282609 16:0.135593 17:0.3125 18:0.242718 19:0.253012 20:-0.170732 21:-0.261538 22:-0.300971 23:-0.155556 24:-0.216 25:0.21875 26:0.230769 27:0.517241 28:0.0666667 29:0.230769 30:0.425743 31:0.263158 32:-0.109375 33:-0.03125 34:-0.0291262 35:-0.242105 36:-0.28125 
1.2104647067413832 1:0.25 2:0.0909091 3:0.047619 4:-0.322314 6:-0.127273 7:-0.221053 8:-0.296875 9:-0.25 10:-0.145631 11:-0.221053 12:-0.234375 13:0.258065 14:0.230769 15:-0.0652174 16:-0.288136 17:-0.03125 18:-0.0679612 19:-0.108434 20:-0.268293 21:-0.138462 22:-0.203883 23:-0.0444444 24:-0.2 25:0.1875 26:0.0769231 27:-0.103448 28:-0.4 29:0.2 30:0.267327 31:-0.0315789 32:-0.234375 33:0.1875 34:0.0873786 35:-0.2 36:-0.296875 
0.26929519655287926 1:0.3125 2:0.163636 3:0.238095 4:-0.140496 5:-0.258065 6:-0.345455 7:-0.2 8:-0.234375 9:-0.625 10:-0.495146 11:-0.452632 12:-0.296875 13:0.258065 14:0.384615 15:0.23913 16:-0.101695 17:-0.03125 18:-0.0291262 19:-0.277108 20:-0.333333 21:-0.384615 22:-0.359223 23:-0.511111 24:-0.312 25:0.0625 26:0.173077 27:0.310345 29:0.2 30:0.128713 31:-0.0947368 32:-0.203125 33:-0.28125 34:-0.0679612 35:-0.178947 36:-0.3125 
0.16302532470138467 1:0.3125 2:0.181818 3:-0.0238095 4:-0.289256 5:0.225806 6:0.109091 7:-0.178947 8:-0.3125 9:-0.0625 10:0.106796 11:-0.326316 12:-0.4375 13:-0.354839 14:-0.192308 15:-0.695652 16:-0.644068 17:-0.375 18:-0.242718 19:-0.73494 20:-0.626016 21:-0.230769 22:-0.184466 23:-0.533333 24:-0.552 25:-0.59375 26:-0.480769 27:-1 28:-1 29:-0.476923 30:-0.405941 31:-0.873684 32:-0.75 33:-0.375 34:-0.417476 35:-0.642105 36:-0.6875 
0.1664480180434687 1:0.53125 2:0.527273 3:0.380952 4:0.00826446 5:0.580645 6:0.527273 7:0.263158 8:-0.046875 9:0.40625 10:0.359223 11:0.157895 12:-0.203125 13:0.290323 14:0.365385 15:0.0652174 16:-0.271186 17:0.125 18:0.126214 19:-0.180723 20:-0.447154 21:-0.230769 22:-0.0291262 23:-0.377778 24:-0.488 25:-0.125 26:-0.153846 27:-0.494253 28:-0.583333 29:-0.353846 30:-0.405941 31:-0.789474 32:-0.75 33:-0.59375 34:-0.475728 35:-0.936842 36:-0.859375 
9.7342949635278231 1:-0.03125 2:-0.0181818 3:-0.119048 4:-0.239669 6:-0.0909091 7:-0.0947368 8:-0.21875 9:-0.03125 10:-0.106796 11:-0.0947368 12:-0.21875 13:0.0967742 14:0.0961538 15:-0.217391 16:-0.322034 17:-0.0625 18:0.106796 19:-0.0120482 20:-0.252033 21:-0.0461538 22:-0.0679612 23:-0.0444444 24:-0.248 25:0.125 26:0.115385 27:-0.149425 28:-0.3 29:0.0153846 30:0.0693069 31:-0.157895 32:-0.265625 34:0.0485437 35:0.0105263 36:-0.21875 
2.2626240515644143 1:-0.03125 2:-0.0181818 3:-0.380952 4:-0.487603 6:-0.0181818 7:-0.242105 8:-0.390625 9:-0.03125 10:0.0485437 11:-0.389474 12:-0.453125 13:-0.0322581 15:-0.304348 16:-0.389831 17:0.0625 18:0.00970874 19:-0.373494 20:-0.495935 21:0.0769231 22:0.00970874 23:-0.222222 24:-0.472 26:0.0384615 27:-0.333333 28:-0.483333 29:0.138462 30:0.0693069 31:-0.326316 32:-0.4375 34:0.126214 35:-0.242105 36:-0.390625 
3.5914223474292917 1:-0.03125 2:-0.0181818 3:-0.452381 4:-0.487603 5:-0.129032 6:-0.163636 7:-0.389474 8:-0.515625 9:-0.03125 10:-0.0291262 11:-0.242105 12:-0.515625 13:0.0967742 15:-0.304348 16:-0.508475 17:-0.15625 18:0.00970874 19:-0.301205 20:-0.544715 21:-0.138462 22:0.106796 23:-0.133333 24:-0.36 26:0.115385 27:-0.241379 28:-0.433333 29:0.0153846 30:0.0693069 31:-0.242105 32:-0.390625 33:0.125 34:0.126214 35:-0.157895 36:-0.328125 
1.7773798222861001 1:-0.03125 2:-0.0545455 3:-0.214286 4:-0.305785 5:-0.258065 6:-0.327273 7:-0.263158 8:-0.28125 9:-0.40625 10:-0.398058 11:-0.431579 12:-0.34375 13:0.0967742 14:0.0769231 15:-0.23913 16:-0.305085 17:0.0625 18:0.0873786 19:-0.228916 20:-0.349593 21:-0.169231 22:-0.145631 23:-0.155556 24:-0.344 25:0.09375 26:0.0961538 27:-0.149425 28:-0.366667 29:-0.0153846 30:0.0693069 31:-0.0947368 32:-0.28125 33:-0.03125 34:-0.0291262 35:-0.0947368 36:-0.28125 
8.7534921757756532 1:-0.03125 2:-0.0545455 3:-0.309524 4:-0.438017 6:-0.0545455 7:-0.263158 8:-0.484375 9:-0.03125 10:0.0873786 11:-0.178947 12:-0.40625 13:-0.16129 14:0.0769231 15:-0.326087 16:-0.440678 17:-0.1875 18:0.00970874 19:-0.421687 20:-0.528455 21:-0.169231 22:0.0873786 23:-0.244444 24:-0.456 25:-0.15625 26:0.0384615 27:-0.241379 28:-0.5 29:-0.138462 30:0.0693069 31:-0.326316 32:-0.453125 33:-0.15625 34:-0.0291262 35:-0.242105 36:-0.453125 
10 1:-0.03125 2:-0.0545455 3:-0.309524 4:-0.438017 6:0.0181818 7:-0.347368 8:-0.40625 9:-0.03125 10:0.165049 11:-0.263158 12:-0.34375 13:0.225806 14:0.153846 15:-0.326087 16:-0.372881 17:0.0625 18:0.00970874 19:-0.325301 20:-0.528455 21:-0.0461538 22:0.0873786 23:-0.244444 24:-0.408 25:0.09375 26:0.173077 27:0.0114943 28:-0.366667 29:0.107692 30:0.128713 31:-0.0947368 32:-0.390625 33:0.09375 34:0.242718 35:-0.157895 36:-0.28125 
